{"learner":{"attributes":{"scikit_learn":"{\"_estimator_type\": \"classifier\"}"},"feature_names":[],"feature_types":[],"gradient_booster":{"model":{"gbtree_model_param":{"num_parallel_tree":"1","num_trees":"50"},"iteration_indptr":[0,1,2,3,4,5,6,7,8,9,10,11,12,13,14,15,16,17,18,19,20,21,22,23,24,25,26,27,28,29,30,31,32,33,34,35,36,37,38,39,40,41,42,43,44,45,46,47,48,49,50],"tree_info":[0,0,0,0,0,0,0,0,0,0,0,0,0,0,0,0,0,0,0,0,0,0,0,0,0,0,0,0,0,0,0,0,0,0,0,0,0,0,0,0,0,0,0,0,0,0,0,0,0,0],"trees":[{"base_weights":[-0E0,-8.2608694E-1,9.822294E-2,-9.467276E-1,1.2345679E-1,-3.4822982E-3,6.158358E-1,-4.2902656E-2,-5.106383E-3,4.7058824E-2,-2.122449E-2,2.2896198E-3,-2.3721881E-2,2.7910922E-2,-1.1707316E-2],"categories":[],"categories_nodes":[],"categories_segments":[],"categories_sizes":[],"default_left":[0,0,0,0,0,0,0,0,0,0,0,0,0,0,0],"id":0,"left_children":[1,3,5,7,9,11,13,-1,-1,-1,-1,-1,-1,-1,-1],"loss_changes":[1.404951E2,2.1959564E1,8.207992E1,1.5660645E1,1.4905043E1,4.6815353E1,1.9545631E1,0E0,0E0,0E0,0E0,0E0,0E0,0E0,0E0],"parents":[2147483647,0,0,1,1,2,2,3,3,4,4,5,5,6,6],"right_children":[2,4,6,8,10,12,14,-1,-1,-1,-1,-1,-1,-1,-1],"split_conditions":[9.44338E0,1.050915E0,1.050915E0,3.4337807E-2,-2.11636E-3,2.5E1,2.9E1,-4.2902656E-2,-5.106383E-3,4.7058824E-2,-2.122449E-2,2.2896198E-3,-2.3721881E-2,2.7910922E-2,-1.1707316E-2],"split_indices":[10,0,0,52579,52554,10,9,0,0,0,0,0,0,0,0],"split_type":[0,0,0,0,0,0,0,0,0,0,0,0,0,0,0],"sum_hessian":[1.7305E3,1.835E2,1.547E3,1.6375E2,1.975E1,1.29175E3,2.5525E2,1.4075E2,2.3E1,8E0,1.175E1,1.17E3,1.2175E2,2.3525E2,2E1],"tree_param":{"num_deleted":"0","num_feature":"53248","num_nodes":"15","size_leaf_vector":"1"}},{"base_weights":[-0E0,2.62713E-1,-5.2038264E-1,-7.37997E-1,4.083344E-1,-6.2243384E-1,3.608836E-2,-4.2324614E-2,-1.2491108E-2,1.4117873E-2,7.732643E-2,-4.2754672E-2,-2.064251E-2,-1.675895E-2,1.1883305E-2],"categories":[],"categories_nodes":[],"categories_segments":[],"categories_sizes":[],"default_left":[0,0,0,0,0,0,0,0,0,0,0,0,0,0,0],"id":1,"left_children":[1,3,5,7,9,11,13,-1,-1,-1,-1,-1,-1,-1,-1],"loss_changes":[2.367213E2,1.6746364E2,3.358934E1,1.828569E1,8.2290375E1,2.1525635E1,1.0508987E1,0E0,0E0,0E0,0E0,0E0,0E0,0E0,0E0],"parents":[2147483647,0,0,1,1,2,2,3,3,4,4,5,5,6,6],"right_children":[2,4,6,8,10,12,14,-1,-1,-1,-1,-1,-1,-1,-1],"split_conditions":[2E0,9.44338E0,1.050915E0,8E0,1.0081993E0,1.5348951E1,-1.02455085E-2,-4.2324614E-2,-1.2491108E-2,1.4117873E-2,7.732643E-2,-4.2754672E-2,-2.064251E-2,-1.675895E-2,1.1883305E-2],"split_indices":[25,10,0,10,25,9,53232,0,0,0,0,0,0,0,0],"split_type":[0,0,0,0,0,0,0,0,0,0,0,0,0,0,0],"sum_hessian":[1.7303641E3,1.1499058E3,5.804585E2,1.4494473E2,1.004961E3,4.9197333E2,8.848516E1,8.096878E1,6.3975956E1,9.709634E2,3.3997574E1,9.1986435E1,3.9998688E2,3.0744967E1,5.7740192E1],"tree_param":{"num_deleted":"0","num_feature":"53248","num_nodes":"15","size_leaf_vector":"1"}},{"base_weights":[-0E0,2.522423E-1,-4.9980864E-1,-7.0948714E-1,3.9214596E-1,-5.978343E-1,3.4171253E-2,-3.721632E-2,-5.592964E-3,1.3554649E-2,7.4415594E-2,-1.9021612E-2,-4.027959E-2,1.3939292E-2,-1.5211622E-2],"categories":[],"categories_nodes":[],"categories_segments":[],"categories_sizes":[],"default_left":[0,0,0,0,0,0,0,0,0,0,0,0,0,0,0],"id":2,"left_children":[1,3,5,7,9,11,13,-1,-1,-1,-1,-1,-1,-1,-1],"loss_changes":[2.1827579E2,1.545737E2,3.0976654E1,1.7155228E1,7.612886E1,2.2913895E1,1.1625716E1,0E0,0E0,0E0,0E0,0E0,0E0,0E0,0E0],"parents":[2147483647,0,0,1,1,2,2,3,3,4,4,5,5,6,6],"right_children":[2,4,6,8,10,12,14,-1,-1,-1,-1,-1,-1,-1,-1],"split_conditions":[2E0,9.44338E0,1.050915E0,1.3164981E-2,1.0081993E0,-1.6798338E-2,2.6264418E-2,-3.721632E-2,-5.592964E-3,1.3554649E-2,7.4415594E-2,-1.9021612E-2,-4.027959E-2,1.3939292E-2,-1.5211622E-2],"split_indices":[25,10,0,52579,25,52765,52717,0,0,0,0,0,0,0,0],"split_type":[0,0,0,0,0,0,0,0,0,0,0,0,0,0,0],"sum_hessian":[1.7299784E3,1.1496489E3,5.803294E2,1.4483527E2,1.00481366E3,4.9185062E2,8.84788E1,1.0286944E2,4.196583E1,9.7087885E2,3.3934834E1,3.8138287E2,1.1046774E2,5.173638E1,3.6742413E1],"tree_param":{"num_deleted":"0","num_feature":"53248","num_nodes":"15","size_leaf_vector":"1"}},{"base_weights":[-0E0,2.4224487E-1,-4.801589E-1,-6.843625E-1,3.662668E-1,-5.7436395E-1,3.2351907E-2,-3.3199772E-2,9.809423E-3,1.25878025E-2,7.189985E-2,-4.0151406E-2,-1.8883003E-2,5.6028962E-2,-1.6494836E-3],"categories":[],"categories_nodes":[],"categories_segments":[],"categories_sizes":[],"default_left":[0,0,0,0,0,0,0,0,0,0,0,0,0,0,0],"id":3,"left_children":[1,3,5,7,9,11,13,-1,-1,-1,-1,-1,-1,-1,-1],"loss_changes":[2.0131595E2,1.3192493E2,2.8581772E1,1.8953728E1,7.253932E1,1.9902603E1,1.0347408E1,0E0,0E0,0E0,0E0,0E0,0E0,0E0,0E0],"parents":[2147483647,0,0,1,1,2,2,3,3,4,4,5,5,6,6],"right_children":[2,4,6,8,10,12,14,-1,-1,-1,-1,-1,-1,-1,-1],"split_conditions":[2E0,8.280277E0,1.050915E0,1.050915E0,1.0081993E0,1.5348951E1,-7.2978854E-2,-3.3199772E-2,9.809423E-3,1.25878025E-2,7.189985E-2,-4.0151406E-2,-1.8883003E-2,5.6028962E-2,-1.6494836E-3],"split_indices":[25,13,0,0,25,9,52822,0,0,0,0,0,0,0,0],"split_type":[0,0,0,0,0,0,0,0,0,0,0,0,0,0,0],"sum_hessian":[1.7292206E3,1.149153E3,5.8006775E2,1.344337E2,1.0147192E3,4.9159756E2,8.847017E1,1.1720201E2,1.7231686E1,9.806904E2,3.402874E1,9.1843704E1,3.9975385E2,4.7482996E0,8.372187E1],"tree_param":{"num_deleted":"0","num_feature":"53248","num_nodes":"15","size_leaf_vector":"1"}},{"base_weights":[-0E0,2.3276073E-1,-4.6135604E-1,-6.5866846E-1,3.6227882E-1,-5.519886E-1,3.0918216E-2,-3.995143E-2,-1.1455627E-2,1.25149805E-2,6.946899E-2,-1.7373728E-2,-3.7827425E-2,1.3324184E-2,-1.4654165E-2],"categories":[],"categories_nodes":[],"categories_segments":[],"categories_sizes":[],"default_left":[0,0,0,0,0,0,0,0,0,0,0,0,0,0,0],"id":4,"left_children":[1,3,5,7,9,11,13,-1,-1,-1,-1,-1,-1,-1,-1],"loss_changes":[1.8573547E2,1.3247809E2,2.6414177E1,1.6925919E1,6.58884E1,2.1188446E1,1.0707906E1,0E0,0E0,0E0,0E0,0E0,0E0,0E0,0E0],"parents":[2147483647,0,0,1,1,2,2,3,3,4,4,5,5,6,6],"right_children":[2,4,6,8,10,12,14,-1,-1,-1,-1,-1,-1,-1,-1],"split_conditions":[2E0,9.44338E0,5.0915055E-2,6.9866014E0,1.0081993E0,-1.6798338E-2,2.6264418E-2,-3.995143E-2,-1.1455627E-2,1.25149805E-2,6.946899E-2,-1.7373728E-2,-3.7827425E-2,1.3324184E-2,-1.4654165E-2],"split_indices":[25,10,3,13,25,52765,52717,0,0,0,0,0,0,0,0],"split_type":[0,0,0,0,0,0,0,0,0,0,0,0,0,0,0],"sum_hessian":[1.7281283E3,1.1484653E3,5.7966296E2,1.444565E2,1.0040089E3,4.911991E2,8.846386E1,7.364549E1,7.0811005E1,9.70467E2,3.3541924E1,3.8095346E2,1.1024564E2,5.1720463E1,3.67434E1],"tree_param":{"num_deleted":"0","num_feature":"53248","num_nodes":"15","size_leaf_vector":"1"}},{"base_weights":[-0E0,2.236086E-1,-4.434242E-1,-6.339711E-1,3.4809637E-1,-7.609836E-1,-3.0223697E-1,-3.389107E-2,-3.4036674E-3,1.2018617E-2,6.735313E-2,-8.010172E-3,-3.632684E-2,-8.086764E-3,-2.9212134E-2],"categories":[],"categories_nodes":[],"categories_segments":[],"categories_sizes":[],"default_left":[0,0,0,0,0,0,0,0,0,0,0,0,0,0,0],"id":5,"left_children":[1,3,5,7,9,11,13,-1,-1,-1,-1,-1,-1,-1,-1],"loss_changes":[1.7137794E2,1.2239104E2,2.4810463E1,1.5971779E1,6.1632156E1,1.3317024E1,1.6310467E1,0E0,0E0,0E0,0E0,0E0,0E0,0E0,0E0],"parents":[2147483647,0,0,1,1,2,2,3,3,4,4,5,5,6,6],"right_children":[2,4,6,8,10,12,14,-1,-1,-1,-1,-1,-1,-1,-1],"split_conditions":[2E0,9.44338E0,1.6211853E1,1.3164981E-2,1.0081993E0,-5.843045E-2,-1.010155E-2,-3.389107E-2,-3.4036674E-3,1.2018617E-2,6.735313E-2,-8.010172E-3,-3.632684E-2,-8.086764E-3,-2.9212134E-2],"split_indices":[25,10,16,52579,25,53093,52765,0,0,0,0,0,0,0,0],"split_type":[0,0,0,0,0,0,0,0,0,0,0,0,0,0,0],"sum_hessian":[1.7267239E3,1.1475764E3,5.791475E2,1.4419019E2,1.0033862E3,1.7538728E2,4.0376022E2,1.02329254E2,4.1860935E1,9.701526E2,3.32336E1,3.812387E1,1.3726343E2,3.2974817E2,7.4012054E1],"tree_param":{"num_deleted":"0","num_feature":"53248","num_nodes":"15","size_leaf_vector":"1"}},{"base_weights":[-0E0,2.148516E-1,-4.2636576E-1,-6.1033046E-1,3.345136E-1,-5.133263E-1,4.4436187E-2,-3.624783E-2,-8.729601E-3,1.1542637E-2,6.543153E-2,-1.6102659E-2,-3.5376914E-2,3.305308E-2,-3.5027415E-3],"categories":[],"categories_nodes":[],"categories_segments":[],"categories_sizes":[],"default_left":[0,0,0,0,0,0,0,0,0,0,0,0,0,0,0],"id":6,"left_children":[1,3,5,7,9,11,13,-1,-1,-1,-1,-1,-1,-1,-1],"loss_changes":[1.582251E2,1.1308734E2,2.4190132E1,1.5526421E1,5.781807E1,1.8702484E1,9.956544E0,0E0,0E0,0E0,0E0,0E0,0E0,0E0,0E0],"parents":[2147483647,0,0,1,1,2,2,3,3,4,4,5,5,6,6],"right_children":[2,4,6,8,10,12,14,-1,-1,-1,-1,-1,-1,-1,-1],"split_conditions":[2E0,9.44338E0,5.0915055E-2,8E0,1.0081993E0,-1.6798338E-2,-2.8909168E-3,-3.624783E-2,-8.729601E-3,1.1542637E-2,6.543153E-2,-1.6102659E-2,-3.5376914E-2,3.305308E-2,-3.5027415E-3],"split_indices":[25,10,3,10,25,52765,53210,0,0,0,0,0,0,0,0],"split_type":[0,0,0,0,0,0,0,0,0,0,0,0,0,0,0],"sum_hessian":[1.7251489E3,1.1465295E3,5.786194E2,1.438869E2,1.00264264E3,4.9016183E2,8.845759E1,8.017903E1,6.3707874E1,9.6977936E2,3.28633E1,3.8037097E2,1.0979084E2,1.3491321E1,7.496627E1],"tree_param":{"num_deleted":"0","num_feature":"53248","num_nodes":"15","size_leaf_vector":"1"}},{"base_weights":[-0E0,2.0646071E-1,-4.0990403E-1,-5.877978E-1,3.214992E-1,-7.229363E-1,-2.7729148E-1,-3.1757027E-2,-2.3478775E-3,1.1086123E-2,6.367889E-2,-7.6608914E-3,-3.4421563E-2,1.1481741E-2,-1.4134119E-2],"categories":[],"categories_nodes":[],"categories_segments":[],"categories_sizes":[],"default_left":[0,0,0,0,0,0,0,0,0,0,0,0,0,0,0],"id":7,"left_children":[1,3,5,7,9,11,13,-1,-1,-1,-1,-1,-1,-1,-1],"loss_changes":[1.4603038E2,1.045235E2,2.2911179E1,1.4833523E1,5.4380096E1,1.12651825E1,1.7688322E1,0E0,0E0,0E0,0E0,0E0,0E0,0E0,0E0],"parents":[2147483647,0,0,1,1,2,2,3,3,4,4,5,5,6,6],"right_children":[2,4,6,8,10,12,14,-1,-1,-1,-1,-1,-1,-1,-1],"split_conditions":[2E0,9.44338E0,1.664859E1,1.3164981E-2,1.0081993E0,-1.0915718E-2,-5.6890346E-2,-3.1757027E-2,-2.3478775E-3,1.1086123E-2,6.367889E-2,-7.6608914E-3,-3.4421563E-2,1.1481741E-2,-1.4134119E-2],"split_indices":[25,10,10,52579,25,52550,52744,0,0,0,0,0,0,0,0],"split_type":[0,0,0,0,0,0,0,0,0,0,0,0,0,0,0],"sum_hessian":[1.7232618E3,1.1453353E3,5.779264E2,1.4354083E2,1.00179456E3,1.6906996E2,4.0885645E2,1.01757675E2,4.178316E1,9.6935516E2,3.243935E1,3.6514877E1,1.3255508E2,4.6834667E1,3.6202176E2],"tree_param":{"num_deleted":"0","num_feature":"53248","num_nodes":"15","size_leaf_vector":"1"}},{"base_weights":[-0E0,1.9842201E-1,-3.9407423E-1,-5.661869E-1,3.0902264E-1,-4.777023E-1,5.696716E-2,-2.7590157E-2,9.5874285E-3,1.0648141E-2,6.207411E-2,-2.113131E-2,8.824622E-3,-2.175542E-3,3.8521342E-2],"categories":[],"categories_nodes":[],"categories_segments":[],"categories_sizes":[],"default_left":[0,0,0,0,0,0,0,0,0,0,0,0,0,0,0],"id":8,"left_children":[1,3,5,7,9,11,13,-1,-1,-1,-1,-1,-1,-1,-1],"loss_changes":[1.3478671E2,9.661844E1,2.2227852E1,1.4839092E1,5.126445E1,1.7649643E1,9.909164E0,0E0,0E0,0E0,0E0,0E0,0E0,0E0,0E0],"parents":[2147483647,0,0,1,1,2,2,3,3,4,4,5,5,6,6],"right_children":[2,4,6,8,10,12,14,-1,-1,-1,-1,-1,-1,-1,-1],"split_conditions":[2E0,9.44338E0,1.050915E0,1.050915E0,1.0081993E0,6.668108E-2,9.5488444E-2,-2.7590157E-2,9.5874285E-3,1.0648141E-2,6.207411E-2,-2.113131E-2,8.824622E-3,-2.175542E-3,3.8521342E-2],"split_indices":[25,10,1,1,25,53219,52893,0,0,0,0,0,0,0,0],"split_type":[0,0,0,0,0,0,0,0,0,0,0,0,0,0,0],"sum_hessian":[1.7212997E3,1.1440247E3,5.772751E2,1.4316803E2,1.00085657E3,4.8882843E2,8.8446625E1,1.2527253E2,1.7895504E1,9.688873E2,3.1969255E1,4.5726184E2,3.1566597E1,7.820191E1,1.0244714E1],"tree_param":{"num_deleted":"0","num_feature":"53248","num_nodes":"15","size_leaf_vector":"1"}},{"base_weights":[-0E0,-9.5085606E-2,5.005868E-1,-7.073509E-1,-1.734672E-2,6.129731E-1,-1.7153998E-1,-3.2948334E-2,1.031239E-3,1.3458274E-3,-2.057162E-2,2.9280744E-2,-2.2564102E-3,1.0381272E-2,-4.521544E-2],"categories":[],"categories_nodes":[],"categories_segments":[],"categories_sizes":[],"default_left":[0,0,0,0,0,0,0,0,0,0,0,0,0,0,0],"id":9,"left_children":[1,3,5,7,9,11,13,-1,-1,-1,-1,-1,-1,-1,-1],"loss_changes":[8.169654E1,6.8107185E1,2.1179169E1,1.4583794E1,3.305904E1,1.9501884E1,1.686674E1,0E0,0E0,0E0,0E0,0E0,0E0,0E0,0E0],"parents":[2147483647,0,0,1,1,2,2,3,3,4,4,5,5,6,6],"right_children":[2,4,6,8,10,12,14,-1,-1,-1,-1,-1,-1,-1,-1],"split_conditions":[1.050915E0,9.44338E0,2.9279947E-2,-1.1493553E-2,2.5E1,6.711419E-2,-8.4131295E-3,-3.2948334E-2,1.031239E-3,1.3458274E-3,-2.057162E-2,2.9280744E-2,-2.2564102E-3,1.0381272E-2,-4.521544E-2],"split_indices":[0,10,52693,52731,10,52918,53102,0,0,0,0,0,0,0,0],"split_type":[0,0,0,0,0,0,0,0,0,0,0,0,0,0,0],"sum_hessian":[1.7191116E3,1.4457732E3,2.733384E2,1.6098161E2,1.2847915E3,2.3549338E2,3.7845013E1,1.4005528E2,2.0926327E1,1.1638231E3,1.2096839E2,2.0116467E2,3.432871E1,2.563979E1,1.2205226E1],"tree_param":{"num_deleted":"0","num_feature":"53248","num_nodes":"15","size_leaf_vector":"1"}},{"base_weights":[-0E0,1.903738E-1,-3.7787476E-1,-8.4637636E-1,2.6165283E-1,-6.706455E-1,-2.4810891E-1,-1.163986E-2,-4.92895E-2,8.83065E-3,6.1106224E-2,-1.554499E-2,-3.861578E-2,1.0787344E-2,-1.2774404E-2],"categories":[],"categories_nodes":[],"categories_segments":[],"categories_sizes":[],"default_left":[0,0,0,0,0,0,0,0,0,0,0,0,0,0,0],"id":10,"left_children":[1,3,5,7,9,11,13,-1,-1,-1,-1,-1,-1,-1,-1],"loss_changes":[1.23750824E2,8.394305E1,2.0908737E1,1.3877388E1,5.3475845E1,1.2960297E1,1.4952106E1,0E0,0E0,0E0,0E0,0E0,0E0,0E0,0E0],"parents":[2147483647,0,0,1,1,2,2,3,3,4,4,5,5,6,6],"right_children":[2,4,6,8,10,12,14,-1,-1,-1,-1,-1,-1,-1,-1],"split_conditions":[2E0,6.9866014E0,1.6211853E1,-7.346173E-3,1.0081993E0,2.3338888E-3,-5.6890346E-2,-1.163986E-2,-4.92895E-2,8.83065E-3,6.1106224E-2,-1.554499E-2,-3.861578E-2,1.0787344E-2,-1.2774404E-2],"split_indices":[25,13,16,53131,25,53072,52744,0,0,0,0,0,0,0,0],"split_type":[0,0,0,0,0,0,0,0,0,0,0,0,0,0,0],"sum_hessian":[1.718061E3,1.141837E3,5.76224E2,7.220161E1,1.0696355E3,1.7395834E2,4.0226566E2,3.1020983E1,4.1180622E1,1.0375055E3,3.212999E1,9.122488E1,8.2733475E1,4.679227E1,3.554734E2],"tree_param":{"num_deleted":"0","num_feature":"53248","num_nodes":"15","size_leaf_vector":"1"}},{"base_weights":[-0E0,-9.101324E-2,4.7892073E-1,-4.6687403E-1,3.8692479E-3,-1.4200279E-1,6.012156E-1,-3.5990026E-2,-1.2959568E-2,2.8127937E-3,-1.4712704E-2,7.873363E-3,-2.9419312E-2,2.8330974E-2,-9.003511E-3],"categories":[],"categories_nodes":[],"categories_segments":[],"categories_sizes":[],"default_left":[0,0,0,0,0,0,0,0,0,0,0,0,0,0,0],"id":11,"left_children":[1,3,5,7,9,11,13,-1,-1,-1,-1,-1,-1,-1,-1],"loss_changes":[7.4627E1,5.1950275E1,2.1249416E1,1.676044E1,2.8145914E1,9.46263E0,2.08835E1,0E0,0E0,0E0,0E0,0E0,0E0,0E0,0E0],"parents":[2147483647,0,0,1,1,2,2,3,3,4,4,5,5,6,6],"right_children":[2,4,6,8,10,12,14,-1,-1,-1,-1,-1,-1,-1,-1],"split_conditions":[1.050915E0,1.0940542E1,-8.774158E-2,7.1777606E0,2.7E1,2.70048E-2,3.351022E-2,-3.5990026E-2,-1.2959568E-2,2.8127937E-3,-1.4712704E-2,7.873363E-3,-2.9419312E-2,2.8330974E-2,-9.003511E-3],"split_indices":[0,16,53198,9,9,52728,52693,0,0,0,0,0,0,0,0],"split_type":[0,0,0,0,0,0,0,0,0,0,0,0,0,0,0],"sum_hessian":[1.7159319E3,1.4432072E3,2.7272464E2,2.926204E2,1.1505868E3,4.3517452E1,2.2920718E2,7.022453E1,2.2239586E2,9.7870807E2,1.7187871E2,2.6841797E1,1.6675653E1,2.0405121E2,2.5155964E1],"tree_param":{"num_deleted":"0","num_feature":"53248","num_nodes":"15","size_leaf_vector":"1"}},{"base_weights":[-0E0,1.8289578E-1,-3.633205E-1,-7.63496E-1,2.5394338E-1,-6.51998E-1,-2.4146569E-1,1.7423578E-2,-3.5763543E-2,8.57971E-3,5.9569523E-2,-2.9828608E-2,6.2584653E-3,-5.4409164E-3,-2.5435677E-2],"categories":[],"categories_nodes":[],"categories_segments":[],"categories_sizes":[],"default_left":[0,0,0,0,0,0,0,0,0,0,0,0,0,0,0],"id":12,"left_children":[1,3,5,7,9,11,13,-1,-1,-1,-1,-1,-1,-1,-1],"loss_changes":[1.1413159E2,7.6248634E1,1.9279007E1,1.2985954E1,4.9885117E1,1.3387703E1,1.6155327E1,0E0,0E0,0E0,0E0,0E0,0E0,0E0,0E0],"parents":[2147483647,0,0,1,1,2,2,3,3,4,4,5,5,6,6],"right_children":[2,4,6,8,10,12,14,-1,-1,-1,-1,-1,-1,-1,-1],"split_conditions":[2E0,8E0,1.664859E1,-4.3714795E-2,1.0081993E0,1.0301261E-1,7.475504E-2,1.7423578E-2,-3.5763543E-2,8.57971E-3,5.9569523E-2,-2.9828608E-2,6.2584653E-3,-5.4409164E-3,-2.5435677E-2],"split_indices":[25,10,10,52573,25,52735,53032,0,0,0,0,0,0,0,0],"split_type":[0,0,0,0,0,0,0,0,0,0,0,0,0,0,0],"sum_hessian":[1.7148307E3,1.1396327E3,5.75198E2,7.825721E1,1.0613755E3,1.6764961E2,4.0754837E2,6.81918E0,7.143803E1,1.0298813E3,3.1494177E1,1.5137755E2,1.6272066E1,3.241109E2,8.343748E1],"tree_param":{"num_deleted":"0","num_feature":"53248","num_nodes":"15","size_leaf_vector":"1"}},{"base_weights":[-0E0,1.7587732E-1,-3.4941736E-1,-2.4083391E-1,3.255953E-1,-6.278013E-1,-2.3210722E-1,-2.947959E-2,-2.4218962E-3,1.1421621E-2,5.7458494E-2,-2.8745128E-2,6.0115648E-3,1.1535512E-2,-1.2108783E-2],"categories":[],"categories_nodes":[],"categories_segments":[],"categories_sizes":[],"default_left":[0,0,0,0,0,0,0,0,0,0,0,0,0,0,0],"id":13,"left_children":[1,3,5,7,9,11,13,-1,-1,-1,-1,-1,-1,-1,-1],"loss_changes":[1.0541001E2,7.116238E1,1.7841324E1,2.5969095E1,3.5433548E1,1.2467819E1,1.5044895E1,0E0,0E0,0E0,0E0,0E0,0E0,0E0,0E0],"parents":[2147483647,0,0,1,1,2,2,3,3,4,4,5,5,6,6],"right_children":[2,4,6,8,10,12,14,-1,-1,-1,-1,-1,-1,-1,-1],"split_conditions":[2E0,1.2485559E1,1.664859E1,8E0,1.0081993E0,1.0301261E-1,-5.6890346E-2,-2.947959E-2,-2.4218962E-3,1.1421621E-2,5.7458494E-2,-2.8745128E-2,6.0115648E-3,1.1535512E-2,-1.2108783E-2],"split_indices":[25,10,10,10,25,52735,52744,0,0,0,0,0,0,0,0],"split_type":[0,0,0,0,0,0,0,0,0,0,0,0,0,0,0],"sum_hessian":[1.7125165E3,1.1381339E3,5.7438257E2,2.9898447E2,8.391494E2,1.6711307E2,4.072695E2,7.7796005E1,2.2118846E2,8.114206E2,2.7728838E1,1.5083E2,1.6283068E1,4.677556E1,3.6049396E2],"tree_param":{"num_deleted":"0","num_feature":"53248","num_nodes":"15","size_leaf_vector":"1"}},{"base_weights":[-0E0,-8.680455E-2,4.5685336E-1,-4.2716476E-1,1.6930752E-2,-1.3538004E-1,5.7404256E-1,-2.5610592E-2,-8.903684E-3,3.1542631E-3,-1.9087864E-2,7.4951253E-3,-2.8108027E-2,2.7083116E-2,-8.664414E-3],"categories":[],"categories_nodes":[],"categories_segments":[],"categories_sizes":[],"default_left":[0,0,0,0,0,0,0,0,0,0,0,0,0,0,0],"id":14,"left_children":[1,3,5,7,9,11,13,-1,-1,-1,-1,-1,-1,-1,-1],"loss_changes":[6.7638435E1,5.121703E1,1.9363869E1,1.38172035E1,3.3310448E1,8.628194E0,1.9163033E1,0E0,0E0,0E0,0E0,0E0,0E0,0E0,0E0],"parents":[2147483647,0,0,1,1,2,2,3,3,4,4,5,5,6,6],"right_children":[2,4,6,8,10,12,14,-1,-1,-1,-1,-1,-1,-1,-1],"split_conditions":[1.050915E0,1.2485559E1,-8.774158E-2,-5.2294884E-2,2.5E1,2.70048E-2,3.351022E-2,-2.5610592E-2,-8.903684E-3,3.1542631E-3,-1.9087864E-2,7.4951253E-3,-2.8108027E-2,2.7083116E-2,-8.664414E-3],"split_indices":[0,10,53198,53066,10,52728,52693,0,0,0,0,0,0,0,0],"split_type":[0,0,0,0,0,0,0,0,0,0,0,0,0,0,0],"sum_hessian":[1.7100073E3,1.438383E3,2.716243E2,3.3787634E2,1.1005067E3,4.3447086E1,2.281772E2,1.6257329E2,1.7530307E2,9.8011865E2,1.2038804E2,2.6782349E1,1.666474E1,2.0305264E2,2.5124556E1],"tree_param":{"num_deleted":"0","num_feature":"53248","num_nodes":"15","size_leaf_vector":"1"}},{"base_weights":[-0E0,1.689598E-1,-3.3581084E-1,-4.5768747E-1,2.584482E-1,-5.967682E-1,-2.2075124E-1,-2.6375946E-2,2.3143081E-4,8.85816E-3,5.6465965E-2,-1.2928296E-2,-3.534465E-2,-5.148788E-3,-2.506476E-2],"categories":[],"categories_nodes":[],"categories_segments":[],"categories_sizes":[],"default_left":[0,0,0,0,0,0,0,0,0,0,0,0,0,0,0],"id":15,"left_children":[1,3,5,7,9,11,13,-1,-1,-1,-1,-1,-1,-1,-1],"loss_changes":[9.712753E1,6.3577168E1,1.6341125E1,1.381559E1,4.070018E1,1.2193161E1,1.4204245E1,0E0,0E0,0E0,0E0,0E0,0E0,0E0,0E0],"parents":[2147483647,0,0,1,1,2,2,3,3,4,4,5,5,6,6],"right_children":[2,4,6,8,10,12,14,-1,-1,-1,-1,-1,-1,-1,-1],"split_conditions":[2E0,9.44338E0,1.6211853E1,1.3164981E-2,1.0081993E0,2.3338888E-3,2.9779142E-2,-2.6375946E-2,2.3143081E-4,8.85816E-3,5.6465965E-2,-1.2928296E-2,-3.534465E-2,-5.148788E-3,-2.506476E-2],"split_indices":[25,10,16,52579,25,53072,52858,0,0,0,0,0,0,0,0],"split_type":[0,0,0,0,0,0,0,0,0,0,0,0,0,0,0],"sum_hessian":[1.7088925E3,1.1357322E3,5.731602E2,1.402678E2,9.954644E2,1.7208458E2,4.0107565E2,9.908893E1,4.1178883E1,9.659406E2,2.952381E1,9.041106E1,8.167353E1,3.2948624E2,7.158941E1],"tree_param":{"num_deleted":"0","num_feature":"53248","num_nodes":"15","size_leaf_vector":"1"}},{"base_weights":[-0E0,1.6251013E-1,-3.2317454E-1,-6.853822E-1,2.2530061E-1,-3.9370036E-1,5.2004706E-2,-3.4787085E-2,1.3587208E-2,7.5853798E-3,5.618086E-2,-1.2095977E-2,-3.2929197E-2,-2.9311385E-2,8.172789E-3],"categories":[],"categories_nodes":[],"categories_segments":[],"categories_sizes":[],"default_left":[0,0,0,0,0,0,0,0,0,0,0,0,0,0,0],"id":16,"left_children":[1,3,5,7,9,11,13,-1,-1,-1,-1,-1,-1,-1,-1],"loss_changes":[8.978378E1,6.0018715E1,1.5507431E1,1.5271233E1,4.276078E1,1.7748047E1,1.0164768E1,0E0,0E0,0E0,0E0,0E0,0E0,0E0,0E0],"parents":[2147483647,0,0,1,1,2,2,3,3,4,4,5,5,6,6],"right_children":[2,4,6,8,10,12,14,-1,-1,-1,-1,-1,-1,-1,-1],"split_conditions":[2E0,8E0,1.050915E0,-1.1493553E-2,1.0081993E0,-7.7788723E-3,-2.501191E-3,-3.4787085E-2,1.3587208E-2,7.5853798E-3,5.618086E-2,-1.2095977E-2,-3.2929197E-2,-2.9311385E-2,8.172789E-3],"split_indices":[25,10,0,52731,25,52765,52828,0,0,0,0,0,0,0,0],"split_type":[0,0,0,0,0,0,0,0,0,0,0,0,0,0,0],"sum_hessian":[1.706298E3,1.1340242E3,5.7227386E2,7.6749695E1,1.0572744E3,4.839434E2,8.833049E1,6.594488E1,1.0804819E1,1.027622E3,2.9652498E1,4.0173138E2,8.2212006E1,1.2980226E1,7.5350266E1],"tree_param":{"num_deleted":"0","num_feature":"53248","num_nodes":"15","size_leaf_vector":"1"}},{"base_weights":[-0E0,1.5629907E-1,-3.1093624E-1,-2.1495844E-1,2.8959444E-1,-3.3575583E-1,7.9356796E-1,-2.6482387E-2,-2.1979127E-3,1.0139873E-2,5.409859E-2,-1.522173E-2,1.046535E-2,-2.3205267E-2,5.3693913E-2],"categories":[],"categories_nodes":[],"categories_segments":[],"categories_sizes":[],"default_left":[0,0,0,0,0,0,0,0,0,0,0,0,0,0,0],"id":17,"left_children":[1,3,5,7,9,11,13,-1,-1,-1,-1,-1,-1,-1,-1],"loss_changes":[8.295545E1,5.6168552E1,1.5349621E1,2.0555054E1,3.0289291E1,1.5163685E1,1.0069172E1,0E0,0E0,0E0,0E0,0E0,0E0,0E0,0E0],"parents":[2147483647,0,0,1,1,2,2,3,3,4,4,5,5,6,6],"right_children":[2,4,6,8,10,12,14,-1,-1,-1,-1,-1,-1,-1,-1],"split_conditions":[2E0,1.2485559E1,5.035436E-4,8E0,1.0081993E0,6.668108E-2,-4.1927043E-2,-2.6482387E-2,-2.1979127E-3,1.0139873E-2,5.409859E-2,-1.522173E-2,1.046535E-2,-2.3205267E-2,5.3693913E-2],"split_indices":[25,10,36925,10,25,53219,53097,0,0,0,0,0,0,0,0],"split_type":[0,0,0,0,0,0,0,0,0,0,0,0,0,0,0],"sum_hessian":[1.7036548E3,1.1323812E3,5.7127356E2,2.970954E2,8.352858E2,5.5994434E2,1.1329251E1,7.624196E1,2.2085344E2,8.093582E2,2.5927645E1,5.226181E2,3.7326244E1,2.7056673E0,8.623585E0],"tree_param":{"num_deleted":"0","num_feature":"53248","num_nodes":"15","size_leaf_vector":"1"}},{"base_weights":[-0E0,1.5027054E-1,-2.9885435E-1,-2.0689592E-1,2.7854297E-1,-5.510288E-1,-1.8812065E-1,-2.6816377E-2,-2.4259093E-3,9.742914E-3,5.317922E-2,-7.778045E-4,-2.7678927E-2,-3.705726E-2,-5.341668E-3],"categories":[],"categories_nodes":[],"categories_segments":[],"categories_sizes":[],"default_left":[0,0,0,0,0,0,0,0,0,0,0,0,0,0,0],"id":18,"left_children":[1,3,5,7,9,11,13,-1,-1,-1,-1,-1,-1,-1,-1],"loss_changes":[7.6535614E1,5.1922955E1,1.5152168E1,1.9389656E1,2.8934677E1,1.2108536E1,1.500661E1,0E0,0E0,0E0,0E0,0E0,0E0,0E0,0E0],"parents":[2147483647,0,0,1,1,2,2,3,3,4,4,5,5,6,6],"right_children":[2,4,6,8,10,12,14,-1,-1,-1,-1,-1,-1,-1,-1],"split_conditions":[2E0,1.2485559E1,1.6211853E1,6.9866014E0,1.0081993E0,-5.843045E-2,-1.4819656E-2,-2.6816377E-2,-2.4259093E-3,9.742914E-3,5.317922E-2,-7.778045E-4,-2.7678927E-2,-3.705726E-2,-5.341668E-3],"split_indices":[25,10,16,13,25,53093,52678,0,0,0,0,0,0,0,0],"split_type":[0,0,0,0,0,0,0,0,0,0,0,0,0,0,0],"sum_hessian":[1.7010782E3,1.1306348E3,5.704435E2,2.9661807E2,8.3401666E2,1.7069655E2,3.9974695E2,6.907252E1,2.2754556E2,8.086753E2,2.5341364E1,3.7379726E1,1.3331683E2,2.5705767E1,3.7404117E2],"tree_param":{"num_deleted":"0","num_feature":"53248","num_nodes":"15","size_leaf_vector":"1"}},{"base_weights":[-0E0,-8.170399E-2,4.294239E-1,-3.8167876E-1,9.161798E-3,5.3029E-1,-1.6571747E-1,-2.3542473E-2,-7.331431E-3,2.6472583E-3,-1.7831698E-2,-2.8545467E-2,2.3551986E-2,9.877467E-3,-4.3399096E-2],"categories":[],"categories_nodes":[],"categories_segments":[],"categories_sizes":[],"default_left":[0,0,0,0,0,0,0,0,0,0,0,0,0,0,0],"id":19,"left_children":[1,3,5,7,9,11,13,-1,-1,-1,-1,-1,-1,-1,-1],"loss_changes":[5.93447E1,3.9333668E1,1.6621044E1,1.2918602E1,2.803945E1,1.7006401E1,1.5418579E1,0E0,0E0,0E0,0E0,0E0,0E0,0E0,0E0],"parents":[2147483647,0,0,1,1,2,2,3,3,4,4,5,5,6,6],"right_children":[2,4,6,8,10,12,14,-1,-1,-1,-1,-1,-1,-1,-1],"split_conditions":[1.050915E0,1.2485559E1,2.9279947E-2,-5.2294884E-2,2.5E1,-6.870571E-2,-8.4131295E-3,-2.3542473E-2,-7.331431E-3,2.6472583E-3,-1.7831698E-2,-2.8545467E-2,2.3551986E-2,9.877467E-3,-4.3399096E-2],"split_indices":[0,10,52693,53066,10,52692,53102,0,0,0,0,0,0,0,0],"split_type":[0,0,0,0,0,0,0,0,0,0,0,0,0,0,0],"sum_hessian":[1.698388E3,1.4288123E3,2.6957562E2,3.3436844E2,1.0944438E3,2.3199179E2,3.7583817E1,1.607331E2,1.7363535E2,9.748861E2,1.1955771E2,9.402524E0,2.2258926E2,2.5441174E1,1.2142642E1],"tree_param":{"num_deleted":"0","num_feature":"53248","num_nodes":"15","size_leaf_vector":"1"}},{"base_weights":[-0E0,1.4428733E-1,-2.8741854E-1,-6.104521E-1,1.9927484E-1,-5.350444E-1,-1.8400344E-1,-3.176259E-2,1.5645912E-2,6.6727614E-3,5.3549055E-2,-1.5905801E-2,-4.403668E-2,-3.2971432E-3,-2.2585936E-2],"categories":[],"categories_nodes":[],"categories_segments":[],"categories_sizes":[],"default_left":[0,0,0,0,0,0,0,0,0,0,0,0,0,0,0],"id":20,"left_children":[1,3,5,7,9,11,13,-1,-1,-1,-1,-1,-1,-1,-1],"loss_changes":[7.05515E1,4.6484123E1,1.3819099E1,1.4447474E1,3.7342552E1,1.1088173E1,1.5005347E1,0E0,0E0,0E0,0E0,0E0,0E0,0E0,0E0],"parents":[2147483647,0,0,1,1,2,2,3,3,4,4,5,5,6,6],"right_children":[2,4,6,8,10,12,14,-1,-1,-1,-1,-1,-1,-1,-1],"split_conditions":[2E0,8E0,1.664859E1,-1.1493553E-2,1.0081993E0,6.414625E-3,7.475504E-2,-3.176259E-2,1.5645912E-2,6.6727614E-3,5.3549055E-2,-1.5905801E-2,-4.403668E-2,-3.2971432E-3,-2.2585936E-2],"split_indices":[25,10,10,52731,25,52898,53032,0,0,0,0,0,0,0,0],"split_type":[0,0,0,0,0,0,0,0,0,0,0,0,0,0,0],"sum_hessian":[1.6971437E3,1.1280079E3,5.6913574E2,7.502356E1,1.0529843E3,1.6420143E2,4.0493433E2,6.433223E1,1.0691332E1,1.0252327E3,2.7751612E1,1.3422809E2,2.9973333E1,3.221928E2,8.274154E1],"tree_param":{"num_deleted":"0","num_feature":"53248","num_nodes":"15","size_leaf_vector":"1"}},{"base_weights":[-0E0,1.3878918E-1,-2.7667812E-1,1.065728E-1,5.4106154E-2,-1.9995713E-1,-6.1517906E-1,-2.6151419E-2,6.2942896E-3,-1.3225096E-2,4.548086E-3,-3.6176782E-2,-3.9863787E-3],"categories":[],"categories_nodes":[],"categories_segments":[],"categories_sizes":[],"default_left":[0,0,0,0,0,0,0,0,0,0,0,0,0],"id":21,"left_children":[1,3,5,7,-1,9,11,-1,-1,-1,-1,-1,-1],"loss_changes":[6.523987E1,4.2533882E1,1.3892715E1,4.1992886E1,0E0,1.9366919E1,1.4224285E1,0E0,0E0,0E0,0E0,0E0,0E0],"parents":[2147483647,0,0,1,1,2,2,3,3,5,5,6,6],"right_children":[2,4,6,8,-1,10,12,-1,-1,-1,-1,-1,-1],"split_conditions":[2E0,1.0081993E0,-1.010155E-2,6.9866014E0,5.4106154E-2,-1.759474E-2,4.6161786E-2,-2.6151419E-2,6.2942896E-3,-1.3225096E-2,4.548086E-3,-3.6176782E-2,-3.9863787E-3],"split_indices":[25,25,52765,13,0,52876,53019,0,0,0,0,0,0],"split_type":[0,0,0,0,0,0,0,0,0,0,0,0,0],"sum_hessian":[1.6945105E3,1.1263047E3,5.6820575E2,1.0985175E3,2.7787308E1,4.6627457E2,1.019312E2,6.717203E1,1.0313455E3,3.3138208E2,1.3489247E2,6.3811665E1,3.8119537E1],"tree_param":{"num_deleted":"0","num_feature":"53248","num_nodes":"13","size_leaf_vector":"1"}},{"base_weights":[-0E0,1.3346162E-1,-2.661526E-1,-1.8745665E-1,2.4867103E-1,-2.900696E-1,7.867924E-1,-2.3938144E-2,-2.4086316E-3,-7.389983E-3,1.3104956E-2,-1.3324069E-2,1.1184235E-2,-6.6669714E-3,6.0000733E-2],"categories":[],"categories_nodes":[],"categories_segments":[],"categories_sizes":[],"default_left":[0,0,0,0,0,0,0,0,0,0,0,0,0,0,0],"id":22,"left_children":[1,3,5,7,9,11,13,-1,-1,-1,-1,-1,-1,-1,-1],"loss_changes":[6.0264534E1,4.1684074E1,1.3917244E1,1.4761702E1,2.8590141E1,1.3742622E1,9.494713E0,0E0,0E0,0E0,0E0,0E0,0E0,0E0,0E0],"parents":[2147483647,0,0,1,1,2,2,3,3,4,4,5,5,6,6],"right_children":[2,4,6,8,10,12,14,-1,-1,-1,-1,-1,-1,-1,-1],"split_conditions":[2E0,1.2485559E1,5.035436E-4,6.9866014E0,-4.295364E-2,6.668108E-2,3.8338274E-2,-2.3938144E-2,-2.4086316E-3,-7.389983E-3,1.3104956E-2,-1.3324069E-2,1.1184235E-2,-6.6669714E-3,6.0000733E-2],"split_indices":[25,10,36925,13,52662,53219,52779,0,0,0,0,0,0,0,0],"split_type":[0,0,0,0,0,0,0,0,0,0,0,0,0,0,0],"sum_hessian":[1.6919702E3,1.1246394E3,5.673308E2,2.9471393E2,8.299255E2,5.5601324E2,1.1317532E1,6.737552E1,2.2733842E2,1.25830315E2,7.0409515E2,5.187881E2,3.7225163E1,4.407071E0,6.9104605E0],"tree_param":{"num_deleted":"0","num_feature":"53248","num_nodes":"15","size_leaf_vector":"1"}},{"base_weights":[-0E0,1.2817264E-1,-2.5579992E-1,9.709901E-2,5.3175457E-2,-4.9140835E-1,-1.5303431E-1,-1.5788669E-2,6.6978233E-3,-0E0,-2.5144095E-2,-3.471092E-2,-4.0125693E-3],"categories":[],"categories_nodes":[],"categories_segments":[],"categories_sizes":[],"default_left":[0,0,0,0,0,0,0,0,0,0,0,0,0],"id":23,"left_children":[1,3,5,7,-1,9,11,-1,-1,-1,-1,-1,-1],"loss_changes":[5.5558083E1,4.04523E1,1.3045242E1,3.7749466E1,0E0,1.13047905E1,1.4002317E1,0E0,0E0,0E0,0E0,0E0,0E0],"parents":[2147483647,0,0,1,1,2,2,3,3,5,5,6,6],"right_children":[2,4,6,8,-1,10,12,-1,-1,-1,-1,-1,-1],"split_conditions":[2E0,1.0081993E0,1.6211853E1,9.44338E0,5.3175457E-2,-5.843045E-2,-1.4819656E-2,-1.5788669E-2,6.6978233E-3,-0E0,-2.5144095E-2,-3.471092E-2,-4.0125693E-3],"split_indices":[25,25,16,10,0,53093,52678,0,0,0,0,0,0],"split_type":[0,0,0,0,0,0,0,0,0,0,0,0,0],"sum_hessian":[1.6896522E3,1.1232007E3,5.6645154E2,1.0962161E3,2.6984573E1,1.6850409E2,3.9794742E2,1.3510843E2,9.611077E2,3.711124E1,1.3139285E2,2.5502728E1,3.724447E2],"tree_param":{"num_deleted":"0","num_feature":"53248","num_nodes":"13","size_leaf_vector":"1"}},{"base_weights":[-2.8820918E-5,-7.803805E-2,4.0949962E-1,3.9405063E-2,-3.1173962E-1,-1.48133E-1,5.210224E-1,-1.8273186E-2,4.488475E-3,-8.358594E-3,-2.6447563E-2,-3.728311E-2,4.7054193E-3,2.4624947E-2,-8.365389E-3],"categories":[],"categories_nodes":[],"categories_segments":[],"categories_sizes":[],"default_left":[0,0,0,0,0,0,0,0,0,0,0,0,0,0,0],"id":24,"left_children":[1,3,5,7,9,11,13,-1,-1,-1,-1,-1,-1,-1,-1],"loss_changes":[5.3592842E1,3.9249992E1,1.707985E1,3.3736465E1,1.6220795E1,9.94596E0,1.6009968E1,0E0,0E0,0E0,0E0,0E0,0E0,0E0,0E0],"parents":[2147483647,0,0,1,1,2,2,3,3,4,4,5,5,6,6],"right_children":[2,4,6,8,10,12,14,-1,-1,-1,-1,-1,-1,-1,-1],"split_conditions":[1.050915E0,1.9992373E0,-8.774158E-2,9.44338E0,-1.6798338E-2,-1.4327627E-2,3.441379E-2,-1.8273186E-2,4.488475E-3,-8.358594E-3,-2.6447563E-2,-3.728311E-2,4.7054193E-3,2.4624947E-2,-8.365389E-3],"split_indices":[0,25,53198,10,52765,52608,52693,0,0,0,0,0,0,0,0],"split_type":[0,0,0,0,0,0,0,0,0,0,0,0,0,0,0],"sum_hessian":[1.6869299E3,1.4194011E3,2.6752878E2,9.4210004E2,4.773011E2,4.30651E1,2.2446368E2,1.1844354E2,8.236565E2,3.716559E2,1.0564517E2,1.153857E1,3.1526531E1,1.9999919E2,2.4464499E1],"tree_param":{"num_deleted":"0","num_feature":"53248","num_nodes":"15","size_leaf_vector":"1"}},{"base_weights":[-7.459062E-5,-7.507356E-2,3.9376608E-1,3.7810512E-2,-3.000702E-1,5.456538E-1,-0E0,4.2140542E-4,5.266816E-2,6.9723395E-4,-1.5955124E-2,1.0714349E-2,3.1760726E-2,-1.1178181E-2,2.4321146E-2],"categories":[],"categories_nodes":[],"categories_segments":[],"categories_sizes":[],"default_left":[0,0,0,0,0,0,0,0,0,0,0,0,0,0,0],"id":25,"left_children":[1,3,5,7,9,11,13,-1,-1,-1,-1,-1,-1,-1,-1],"loss_changes":[4.9465538E1,3.628219E1,1.625932E1,3.1515038E1,1.5341347E1,1.2210194E1,1.2514517E1,0E0,0E0,0E0,0E0,0E0,0E0,0E0,0E0],"parents":[2147483647,0,0,1,1,2,2,3,3,4,4,5,5,6,6],"right_children":[2,4,6,8,10,12,14,-1,-1,-1,-1,-1,-1,-1,-1],"split_conditions":[1.050915E0,1.9992373E0,1.6253825E-2,1.0081993E0,-2.105255E-2,-1.2565684E-3,2.0282216E-2,4.2140542E-4,5.266816E-2,6.9723395E-4,-1.5955124E-2,1.0714349E-2,3.1760726E-2,-1.1178181E-2,2.4321146E-2],"split_indices":[1,25,53008,25,53113,52573,52919,0,0,0,0,0,0,0,0],"split_type":[0,0,0,0,0,0,0,0,0,0,0,0,0,0,0],"sum_hessian":[1.6844498E3,1.417466E3,2.669839E2,9.4121576E2,4.7625018E2,1.9340584E2,7.357805E1,9.2282056E2,1.8395247E1,1.10730225E2,3.6551996E2,9.368497E1,9.972086E1,5.113475E1,2.2443298E1],"tree_param":{"num_deleted":"0","num_feature":"53248","num_nodes":"15","size_leaf_vector":"1"}},{"base_weights":[-0E0,-7.2044715E-2,3.7895957E-1,-3.3976305E-1,8.436895E-3,4.789563E-1,-1.9778864E-1,-9.819324E-3,-3.1784914E-2,2.4110745E-3,-1.6227817E-2,9.322828E-3,3.41021E-2,-3.92867E-2,1.3786397E-2],"categories":[],"categories_nodes":[],"categories_segments":[],"categories_sizes":[],"default_left":[0,0,0,0,0,0,0,0,0,0,0,0,0,0,0],"id":26,"left_children":[1,3,5,7,9,11,13,-1,-1,-1,-1,-1,-1,-1,-1],"loss_changes":[4.569835E1,3.0853191E1,1.5728062E1,1.3026478E1,2.299696E1,1.9868317E1,1.71159E1,0E0,0E0,0E0,0E0,0E0,0E0,0E0,0E0],"parents":[2147483647,0,0,1,1,2,2,3,3,4,4,5,5,6,6],"right_children":[2,4,6,8,10,12,14,-1,-1,-1,-1,-1,-1,-1,-1],"split_conditions":[1.050915E0,1.2485559E1,6.711419E-2,5.8851637E-2,2.5E1,5.368941E-2,-4.4398292E-4,-9.819324E-3,-3.1784914E-2,2.4110745E-3,-1.6227817E-2,9.322828E-3,3.41021E-2,-3.92867E-2,1.3786397E-2],"split_indices":[0,10,52918,52808,10,52932,52599,0,0,0,0,0,0,0,0],"split_type":[0,0,0,0,0,0,0,0,0,0,0,0,0,0,0],"sum_hessian":[1.6825127E3,1.4159979E3,2.6651483E2,3.2978796E2,1.08621E3,2.2868417E2,3.7830677E1,2.756265E2,5.416147E1,9.6789355E2,1.1831639E2,1.4001843E2,8.866574E1,1.6054338E1,2.1776339E1],"tree_param":{"num_deleted":"0","num_feature":"53248","num_nodes":"15","size_leaf_vector":"1"}},{"base_weights":[-0E0,1.1553007E-1,-2.308581E-1,8.65125E-2,5.1662616E-2,-6.94527E-1,-1.7792939E-1,-2.3312474E-2,5.2123726E-3,-3.3473432E-2,2.2212379E-2,1.0954893E-2,-9.466128E-3],"categories":[],"categories_nodes":[],"categories_segments":[],"categories_sizes":[],"default_left":[0,0,0,0,0,0,0,0,0,0,0,0,0],"id":27,"left_children":[1,3,5,7,-1,9,11,-1,-1,-1,-1,-1,-1],"loss_changes":[4.4962944E1,3.6741707E1,1.2894712E1,3.1629063E1,0E0,1.0407621E1,1.3483006E1,0E0,0E0,0E0,0E0,0E0,0E0],"parents":[2147483647,0,0,1,1,2,2,3,3,5,5,6,6],"right_children":[2,4,6,8,-1,10,12,-1,-1,-1,-1,-1,-1],"split_conditions":[2E0,1.0081993E0,-5.655308E-2,6.9866014E0,5.1662616E-2,5.872098E-3,-5.6890346E-2,-2.3312474E-2,5.2123726E-3,-3.3473432E-2,2.2212379E-2,1.0954893E-2,-9.466128E-3],"split_indices":[25,25,53232,13,0,52888,52744,0,0,0,0,0,0],"split_type":[0,0,0,0,0,0,0,0,0,0,0,0,0],"sum_hessian":[1.6811726E3,1.1181776E3,5.6299506E2,1.0926056E3,2.5571932E1,5.5125713E1,5.078694E2,6.532289E1,1.0272827E3,5.0357265E1,4.7684484E0,5.6248833E1,4.5162054E2],"tree_param":{"num_deleted":"0","num_feature":"53248","num_nodes":"13","size_leaf_vector":"1"}},{"base_weights":[-0E0,-6.913705E-2,3.6446562E-1,3.487121E-2,-2.7709082E-1,-1.6373327E-1,4.709976E-1,3.7918487E-4,5.1141866E-2,-7.0935795E-3,-2.471791E-2,2.0579273E-2,-1.800539E-2,-5.001151E-4,2.434574E-2],"categories":[],"categories_nodes":[],"categories_segments":[],"categories_sizes":[],"default_left":[0,0,0,0,0,0,0,0,0,0,0,0,0,0,0],"id":28,"left_children":[1,3,5,7,9,11,13,-1,-1,-1,-1,-1,-1,-1,-1],"loss_changes":[4.2101982E1,3.0822203E1,1.5318237E1,2.8376179E1,1.5285549E1,8.492049E0,1.5449478E1,0E0,0E0,0E0,0E0,0E0,0E0,0E0,0E0],"parents":[2147483647,0,0,1,1,2,2,3,3,4,4,5,5,6,6],"right_children":[2,4,6,8,10,12,14,-1,-1,-1,-1,-1,-1,-1,-1],"split_conditions":[1.050915E0,1.9992373E0,-8.774158E-2,1.0081993E0,-1.6798338E-2,6.1200038E-2,-1.8507613E-2,3.7918487E-4,5.1141866E-2,-7.0935795E-3,-2.471791E-2,2.0579273E-2,-1.800539E-2,-5.001151E-4,2.434574E-2],"split_indices":[0,25,53198,25,52765,52588,52867,0,0,0,0,0,0,0,0],"split_type":[0,0,0,0,0,0,0,0,0,0,0,0,0,0,0],"sum_hessian":[1.6787057E3,1.4131244E3,2.6558124E2,9.3906006E2,4.7406436E2,4.2954098E1,2.2262714E2,9.21553E2,1.7507072E1,3.695964E2,1.0446796E2,1.1598471E1,3.1355627E1,4.7824947E1,1.7480219E2],"tree_param":{"num_deleted":"0","num_feature":"53248","num_nodes":"15","size_leaf_vector":"1"}},{"base_weights":[-0E0,1.0765148E-1,-2.1517058E-1,8.042669E-2,5.038768E-2,-1.4212826E-1,-5.488757E-1,-2.1491548E-2,4.996529E-3,-2.4032017E-2,-2.6869508E-3,-1.5022885E-2,-5.9229564E-2],"categories":[],"categories_nodes":[],"categories_segments":[],"categories_sizes":[],"default_left":[0,0,0,0,0,0,0,0,0,0,0,0,0],"id":29,"left_children":[1,3,5,7,-1,9,11,-1,-1,-1,-1,-1,-1],"loss_changes":[3.893475E1,3.361335E1,1.2958635E1,2.9620426E1,0E0,1.5259784E1,1.3727043E1,0E0,0E0,0E0,0E0,0E0,0E0],"parents":[2147483647,0,0,1,1,2,2,3,3,5,5,6,6],"right_children":[2,4,6,8,-1,10,12,-1,-1,-1,-1,-1,-1],"split_conditions":[2E0,1.0081993E0,3.0132702E-2,8E0,5.038768E-2,1.2485559E1,-1.136625E-2,-2.1491548E-2,4.996529E-3,-2.4032017E-2,-2.6869508E-3,-1.5022885E-2,-5.9229564E-2],"split_indices":[25,25,52858,10,0,10,52702,0,0,0,0,0,0],"split_type":[0,0,0,0,0,0,0,0,0,0,0,0,0],"sum_hessian":[1.6766532E3,1.1155585E3,5.610947E2,1.0911749E3,2.4383492E1,4.633787E2,9.771603E1,7.14226E1,1.0197523E3,6.272061E1,4.0065808E2,8.388933E1,1.3826703E1],"tree_param":{"num_deleted":"0","num_feature":"53248","num_nodes":"13","size_leaf_vector":"1"}},{"base_weights":[-0E0,-6.633265E-2,3.4967998E-1,-3.1910244E-1,9.331884E-3,4.4677493E-1,-2.0753808E-1,-2.1929426E-2,-5.5387793E-3,5.3952327E-3,-7.990717E-3,8.419605E-3,3.2276113E-2,-3.823446E-2,1.248054E-2],"categories":[],"categories_nodes":[],"categories_segments":[],"categories_sizes":[],"default_left":[0,0,0,0,0,0,0,0,0,0,0,0,0,0,0],"id":30,"left_children":[1,3,5,7,9,11,13,-1,-1,-1,-1,-1,-1,-1,-1],"loss_changes":[3.862224E1,2.7277884E1,1.4629631E1,1.2846237E1,2.8368774E1,1.825362E1,1.5627526E1,0E0,0E0,0E0,0E0,0E0,0E0,0E0,0E0],"parents":[2147483647,0,0,1,1,2,2,3,3,4,4,5,5,6,6],"right_children":[2,4,6,8,10,12,14,-1,-1,-1,-1,-1,-1,-1,-1],"split_conditions":[1.050915E0,1.2485559E1,6.711419E-2,-3.638866E-2,1.9992373E0,5.368941E-2,-4.4398292E-4,-2.1929426E-2,-5.5387793E-3,5.3952327E-3,-7.990717E-3,8.419605E-3,3.2276113E-2,-3.823446E-2,1.248054E-2],"split_indices":[0,10,52918,53076,25,52932,52599,0,0,0,0,0,0,0,0],"split_type":[0,0,0,0,0,0,0,0,0,0,0,0,0,0,0],"sum_hessian":[1.6740916E3,1.4094673E3,2.646242E2,3.2738654E2,1.0820808E3,2.2696877E2,3.765545E1,1.4142943E2,1.859571E2,6.792196E2,4.0286118E2,1.3920412E2,8.776466E1,1.604716E1,2.160829E1],"tree_param":{"num_deleted":"0","num_feature":"53248","num_nodes":"15","size_leaf_vector":"1"}},{"base_weights":[-0E0,-6.3791506E-2,3.366287E-1,-3.0701935E-1,8.927602E-3,4.8064628E-1,-2.7057754E-2,-2.0433284E-2,-4.476734E-3,5.1829484E-3,-7.682278E-3,9.095734E-3,3.1962555E-2,-9.425281E-3,3.254284E-2],"categories":[],"categories_nodes":[],"categories_segments":[],"categories_sizes":[],"default_left":[0,0,0,0,0,0,0,0,0,0,0,0,0,0,0],"id":31,"left_children":[1,3,5,7,9,11,13,-1,-1,-1,-1,-1,-1,-1,-1],"loss_changes":[3.571018E1,2.5211021E1,1.4316591E1,1.2365425E1,2.6176422E1,1.432563E1,1.2413287E1,0E0,0E0,0E0,0E0,0E0,0E0,0E0,0E0],"parents":[2147483647,0,0,1,1,2,2,3,3,4,4,5,5,6,6],"right_children":[2,4,6,8,10,12,14,-1,-1,-1,-1,-1,-1,-1,-1],"split_conditions":[1.050915E0,1.2485559E1,1.6253825E-2,-5.2294884E-2,1.9992373E0,5.3323295E-2,1.8620931E-3,-2.0433284E-2,-4.476734E-3,5.1829484E-3,-7.682278E-3,9.095734E-3,3.1962555E-2,-9.425281E-3,3.254284E-2],"split_indices":[1,10,53008,53066,25,52932,52745,0,0,0,0,0,0,0,0],"split_type":[0,0,0,0,0,0,0,0,0,0,0,0,0,0,0],"sum_hessian":[1.6719941E3,1.4079423E3,2.640519E2,3.2684967E2,1.0810927E3,1.9100423E2,7.3047676E1,1.569533E2,1.6989638E2,6.7878674E2,4.023059E2,1.0861504E2,8.238919E1,5.976772E1,1.3279953E1],"tree_param":{"num_deleted":"0","num_feature":"53248","num_nodes":"15","size_leaf_vector":"1"}},{"base_weights":[-0E0,-6.1348572E-2,3.241428E-1,2.8820617E-2,-2.4266377E-1,-1.7757817E-1,4.262503E-1,3.6896265E-3,-1.6870871E-2,-6.419615E-3,-2.5487E-2,-3.6593974E-2,2.8735558E-3,-1.907498E-2,1.9915923E-2],"categories":[],"categories_nodes":[],"categories_segments":[],"categories_sizes":[],"default_left":[0,0,0,0,0,0,0,0,0,0,0,0,0,0,0],"id":32,"left_children":[1,3,5,7,9,11,13,-1,-1,-1,-1,-1,-1,-1,-1],"loss_changes":[3.303334E1,2.3219074E1,1.381114E1,2.6448895E1,1.4420929E1,8.845477E0,1.4450417E1,0E0,0E0,0E0,0E0,0E0,0E0,0E0,0E0],"parents":[2147483647,0,0,1,1,2,2,3,3,4,4,5,5,6,6],"right_children":[2,4,6,8,10,12,14,-1,-1,-1,-1,-1,-1,-1,-1],"split_conditions":[1.050915E0,1.9992373E0,-8.774158E-2,1.5125695E-2,-7.7788723E-3,-1.4327627E-2,4.7E-1,3.6896265E-3,-1.6870871E-2,-6.419615E-3,-2.5487E-2,-3.6593974E-2,2.8735558E-3,-1.907498E-2,1.9915923E-2],"split_indices":[1,25,53198,52798,52765,52608,53246,0,0,0,0,0,0,0,0],"split_type":[0,0,0,0,0,0,0,0,0,0,0,0,0,0,0],"sum_hessian":[1.6699171E3,1.4064163E3,2.6350095E2,9.35895E2,4.705212E2,4.2839455E1,2.206615E2,8.227162E2,1.13178825E2,3.9209027E2,7.843094E1,1.150533E1,3.1334124E1,1.4985337E1,2.0567616E2],"tree_param":{"num_deleted":"0","num_feature":"53248","num_nodes":"15","size_leaf_vector":"1"}},{"base_weights":[-0E0,9.548591E-2,-1.9167678E-1,6.935812E-2,4.958836E-2,-2.151118E-1,8.264761E-1,-2.028264E-2,4.4198567E-3,-1.2564626E-2,1.0144562E-3,-3.1019044E-3,5.9969224E-2],"categories":[],"categories_nodes":[],"categories_segments":[],"categories_sizes":[],"default_left":[0,0,0,0,0,0,0,0,0,0,0,0,0],"id":33,"left_children":[1,3,5,7,-1,9,11,-1,-1,-1,-1,-1,-1],"loss_changes":[3.0630856E1,3.1871693E1,1.279003E1,2.5428564E1,0E0,1.3309303E1,8.59333E0,0E0,0E0,0E0,0E0,0E0,0E0],"parents":[2147483647,0,0,1,1,2,2,3,3,5,5,6,6],"right_children":[2,4,6,8,-1,10,12,-1,-1,-1,-1,-1,-1],"split_conditions":[2E0,1.0081993E0,5.035436E-4,8E0,4.958836E-2,-1.759474E-2,3.8338274E-2,-2.028264E-2,4.4198567E-3,-1.2564626E-2,1.0144562E-3,-3.1019044E-3,5.9969224E-2],"split_indices":[25,25,36925,10,0,52876,52779,0,0,0,0,0,0],"split_type":[0,0,0,0,0,0,0,0,0,0,0,0,0],"sum_hessian":[1.6682421E3,1.1108099E3,5.574321E2,1.0873843E3,2.3425644E1,5.462359E2,1.1196282E1,7.043851E1,1.01694574E3,3.8977087E2,1.56465E2,4.331588E0,6.864694E0],"tree_param":{"num_deleted":"0","num_feature":"53248","num_nodes":"13","size_leaf_vector":"1"}},{"base_weights":[-0E0,-5.8860213E-2,3.114383E-1,-2.674681E-2,-5.9702986E-1,4.0531704E-1,-2.2394878E-1,4.7779342E-4,-1.951321E-2,-1.02092475E-2,-4.369292E-2,7.393882E-3,2.973881E-2,-4.8189234E-2,5.5117733E-3],"categories":[],"categories_nodes":[],"categories_segments":[],"categories_sizes":[],"default_left":[0,0,0,0,0,0,0,0,0,0,0,0,0,0,0],"id":34,"left_children":[1,3,5,7,9,11,13,-1,-1,-1,-1,-1,-1,-1,-1],"loss_changes":[3.037649E1,2.362975E1,1.3447351E1,2.4153448E1,1.1594837E1,1.5819195E1,1.4623035E1,0E0,0E0,0E0,0E0,0E0,0E0,0E0,0E0],"parents":[2147483647,0,0,1,1,2,2,3,3,4,4,5,5,6,6],"right_children":[2,4,6,8,10,12,14,-1,-1,-1,-1,-1,-1,-1,-1],"split_conditions":[1.050915E0,6.4405315E-2,6.711419E-2,2.7499732E-2,2.1748379E-2,5.368941E-2,-1.7875532E-2,4.7779342E-4,-1.951321E-2,-1.02092475E-2,-4.369292E-2,7.393882E-3,2.973881E-2,-4.8189234E-2,5.5117733E-3],"split_indices":[0,53159,52918,52752,52848,52932,53179,0,0,0,0,0,0,0,0],"split_type":[0,0,0,0,0,0,0,0,0,0,0,0,0,0,0],"sum_hessian":[1.6658594E3,1.4033229E3,2.625365E2,1.3265487E3,7.6774185E1,2.2506177E2,3.7474724E1,1.2222982E3,1.0425045E2,4.7068905E1,2.9705282E1,1.384956E2,8.656616E1,1.0528464E1,2.6946259E1],"tree_param":{"num_deleted":"0","num_feature":"53248","num_nodes":"15","size_leaf_vector":"1"}},{"base_weights":[-0E0,-5.6566324E-2,2.998381E-1,-4.0809295E-1,-1.1340353E-2,4.4206294E-1,-4.5523617E-2,-3.275655E-2,-5.1171333E-3,1.0814655E-3,-1.9320657E-2,6.2015406E-3,2.9014478E-2,-2.0751767E-2,1.2847023E-2],"categories":[],"categories_nodes":[],"categories_segments":[],"categories_sizes":[],"default_left":[0,0,0,0,0,0,0,0,0,0,0,0,0,0,0],"id":35,"left_children":[1,3,5,7,9,11,13,-1,-1,-1,-1,-1,-1,-1,-1],"loss_changes":[2.808513E1,2.1894438E1,1.3297138E1,1.7125555E1,2.3030117E1,1.4348911E1,1.3288763E1,0E0,0E0,0E0,0E0,0E0,0E0,0E0,0E0],"parents":[2147483647,0,0,1,1,2,2,3,3,4,4,5,5,6,6],"right_children":[2,4,6,8,10,12,14,-1,-1,-1,-1,-1,-1,-1,-1],"split_conditions":[1.050915E0,-7.6773316E-2,2.2093035E1,8.6294E-3,2.7499732E-2,-4.9026392E-2,2.2576256E-2,-3.275655E-2,-5.1171333E-3,1.0814655E-3,-1.9320657E-2,6.2015406E-3,2.9014478E-2,-2.0751767E-2,1.2847023E-2],"split_indices":[0,52687,13,52754,52752,52791,53055,0,0,0,0,0,0,0,0],"split_type":[0,0,0,0,0,0,0,0,0,0,0,0,0,0,0],"sum_hessian":[1.6651333E3,1.4031985E3,2.6193478E2,1.5697334E2,1.2462251E3,1.8748239E2,7.445239E1,6.1808834E1,9.516451E1,1.150933E3,9.529213E1,9.526654E1,9.221586E1,3.3603096E1,4.0849293E1],"tree_param":{"num_deleted":"0","num_feature":"53248","num_nodes":"15","size_leaf_vector":"1"}},{"base_weights":[-0E0,9.1574356E-2,-1.836923E-1,6.6478305E-2,4.8935775E-2,-1.127574E-1,-5.113655E-1,5.236136E-3,-1.2694692E-2,-1.5885815E-2,-3.3752824E-4,1.0841595E-2,-2.7805043E-2],"categories":[],"categories_nodes":[],"categories_segments":[],"categories_sizes":[],"default_left":[0,0,0,0,0,0,0,0,0,0,0,0,0],"id":36,"left_children":[1,3,5,7,-1,9,11,-1,-1,-1,-1,-1,-1],"loss_changes":[2.8078817E1,3.0165558E1,1.2283569E1,2.6695087E1,0E0,1.3259539E1,1.43774185E1,0E0,0E0,0E0,0E0,0E0,0E0],"parents":[2147483647,0,0,1,1,2,2,3,3,5,5,6,6],"right_children":[2,4,6,8,-1,10,12,-1,-1,-1,-1,-1,-1],"split_conditions":[2E0,1.0081993E0,8.247755E-2,1.1766701E-2,4.8935775E-2,-3.3371E-2,-6.5968335E-2,5.236136E-3,-1.2694692E-2,-1.5885815E-2,-3.3752824E-4,1.0841595E-2,-2.7805043E-2],"split_indices":[25,25,53032,52798,0,53183,52953,0,0,0,0,0,0],"split_type":[0,0,0,0,0,0,0,0,0,0,0,0,0],"sum_hessian":[1.6644192E3,1.1083534E3,5.5606586E2,1.085693E3,2.2660362E1,4.601715E2,9.5894356E1,9.32171E2,1.5352196E2,1.2054912E2,3.3962238E2,1.715851E1,7.873585E1],"tree_param":{"num_deleted":"0","num_feature":"53248","num_nodes":"13","size_leaf_vector":"1"}},{"base_weights":[-0E0,-5.4238513E-2,2.880734E-1,-2.8868952E-1,1.571135E-2,-0E0,4.5672798E-1,-8.160305E-3,-3.0594658E-2,-7.5425147E-3,4.690521E-3,-2.8781649E-2,8.616973E-3,-6.800061E-3,2.25405E-2],"categories":[],"categories_nodes":[],"categories_segments":[],"categories_sizes":[],"default_left":[0,0,0,0,0,0,0,0,0,0,0,0,0,0,0],"id":37,"left_children":[1,3,5,7,9,11,13,-1,-1,-1,-1,-1,-1,-1,-1],"loss_changes":[2.58329E1,2.3270168E1,1.2617607E1,1.2079123E1,2.228412E1,1.5094881E1,1.145406E1,0E0,0E0,0E0,0E0,0E0,0E0,0E0,0E0],"parents":[2147483647,0,0,1,1,2,2,3,3,4,4,5,5,6,6],"right_children":[2,4,6,8,10,12,14,-1,-1,-1,-1,-1,-1,-1,-1],"split_conditions":[1.050915E0,1.2485559E1,-4.7127973E-2,6.353851E-2,-7.943869E-2,-4.9031146E-2,-8.041512E-2,-8.160305E-3,-3.0594658E-2,-7.5425147E-3,4.690521E-3,-2.8781649E-2,8.616973E-3,-6.800061E-3,2.25405E-2],"split_indices":[1,10,52898,52808,52684,52746,52831,0,0,0,0,0,0,0,0],"split_type":[0,0,0,0,0,0,0,0,0,0,0,0,0,0,0],"sum_hessian":[1.6627312E3,1.4016453E3,2.6108597E2,3.250172E2,1.076628E3,9.703382E1,1.6405214E2,2.7833347E2,4.6683723E1,3.5408997E2,7.225381E2,2.1873531E1,7.5160286E1,2.247622E1,1.4157593E2],"tree_param":{"num_deleted":"0","num_feature":"53248","num_nodes":"15","size_leaf_vector":"1"}},{"base_weights":[-0E0,8.8404454E-2,-1.7755964E-1,6.425623E-2,4.835109E-2,-1.0588196E-1,-4.978778E-1,5.0523197E-3,-1.2189024E-2,-2.1941366E-2,-1.3827743E-3,-0E0,-2.9756207E-2],"categories":[],"categories_nodes":[],"categories_segments":[],"categories_sizes":[],"default_left":[0,0,0,0,0,0,0,0,0,0,0,0,0],"id":38,"left_children":[1,3,5,7,-1,9,11,-1,-1,-1,-1,-1,-1],"loss_changes":[2.616623E1,2.8640087E1,1.2124382E1,2.4685696E1,0E0,1.3837354E1,1.2682005E1,0E0,0E0,0E0,0E0,0E0,0E0],"parents":[2147483647,0,0,1,1,2,2,3,3,5,5,6,6],"right_children":[2,4,6,8,-1,10,12,-1,-1,-1,-1,-1,-1],"split_conditions":[2E0,1.0081993E0,2.9779142E-2,1.1766701E-2,4.835109E-2,1.2485559E1,-1.2327773E-2,5.0523197E-3,-1.2189024E-2,-2.1941366E-2,-1.3827743E-3,-0E0,-2.9756207E-2],"split_indices":[25,25,52858,52798,0,10,52583,0,0,0,0,0,0],"split_type":[0,0,0,0,0,0,0,0,0,0,0,0,0],"sum_hessian":[1.6615936E3,1.1065759E3,5.550177E2,1.0846195E3,2.1956373E1,4.5662564E2,9.8392075E1,9.310788E2,1.5354074E2,6.0946884E1,3.9567877E2,3.1678595E1,6.671348E1],"tree_param":{"num_deleted":"0","num_feature":"53248","num_nodes":"13","size_leaf_vector":"1"}},{"base_weights":[-0E0,8.4971055E-2,-1.7088313E-1,6.1663225E-2,4.780788E-2,-5.398132E-1,-1.08269945E-1,5.0429627E-3,-1.145851E-2,-2.5426617E-2,3.3932433E-2,-8.732358E-4,-1.8278785E-2],"categories":[],"categories_nodes":[],"categories_segments":[],"categories_sizes":[],"default_left":[0,0,0,0,0,0,0,0,0,0,0,0,0],"id":39,"left_children":[1,3,5,7,-1,9,11,-1,-1,-1,-1,-1,-1],"loss_changes":[2.4182676E1,2.733071E1,1.2134775E1,2.4183094E1,0E0,1.0439293E1,1.3896837E1,0E0,0E0,0E0,0E0,0E0,0E0],"parents":[2147483647,0,0,1,1,2,2,3,3,5,5,6,6],"right_children":[2,4,6,8,-1,10,12,-1,-1,-1,-1,-1,-1],"split_conditions":[2E0,1.0081993E0,-4.8135825E-2,4.703511E-2,4.780788E-2,1.8802175E-2,-1.920391E-2,5.0429627E-3,-1.145851E-2,-2.5426617E-2,3.3932433E-2,-8.732358E-4,-1.8278785E-2],"split_indices":[25,25,53232,53070,0,52787,52680,0,0,0,0,0,0],"split_type":[0,0,0,0,0,0,0,0,0,0,0,0,0],"sum_hessian":[1.6598121E3,1.1056742E3,5.54138E2,1.0843383E3,2.1335861E1,7.7530464E1,4.7660754E2,9.1772986E2,1.6660846E2,7.345006E1,4.080411E0,3.8465472E2,9.195283E1],"tree_param":{"num_deleted":"0","num_feature":"53248","num_nodes":"13","size_leaf_vector":"1"}},{"base_weights":[-0E0,-5.2027646E-2,2.7645114E-1,-2.1152861E-2,-5.691448E-1,3.7305677E-1,-2.049216E-1,1.7055223E-4,-2.5767045E-2,-9.643483E-3,-4.1738104E-2,1.9320576E-2,-8.429362E-3,3.8346376E-2,-2.1387922E-2],"categories":[],"categories_nodes":[],"categories_segments":[],"categories_sizes":[],"default_left":[0,0,0,0,0,0,0,0,0,0,0,0,0,0,0],"id":40,"left_children":[1,3,5,7,9,11,13,-1,-1,-1,-1,-1,-1,-1,-1],"loss_changes":[2.3691683E1,2.1736057E1,1.2318434E1,2.158001E1,1.0565323E1,1.4370361E1,1.5997088E1,0E0,0E0,0E0,0E0,0E0,0E0,0E0,0E0],"parents":[2147483647,0,0,1,1,2,2,3,3,4,4,5,5,6,6],"right_children":[2,4,6,8,10,12,14,-1,-1,-1,-1,-1,-1,-1,-1],"split_conditions":[1.050915E0,6.4405315E-2,2.5459837E-2,4.1412227E-2,2.1748379E-2,6.711419E-2,-3.344009E-2,1.7055223E-4,-2.5767045E-2,-9.643483E-3,-4.1738104E-2,1.9320576E-2,-8.429362E-3,3.8346376E-2,-2.1387922E-2],"split_indices":[1,53159,52693,52752,52848,52918,52848,0,0,0,0,0,0,0,0],"split_type":[0,0,0,0,0,0,0,0,0,0,0,0,0,0,0],"sum_hessian":[1.6582122E3,1.398256E3,2.5995618E2,1.3217919E3,7.646412E1,2.1832993E2,4.1626244E1,1.2689171E3,5.287485E1,4.689288E1,2.9571241E1,1.8523918E2,3.309074E1,8.312085E0,3.331416E1],"tree_param":{"num_deleted":"0","num_feature":"53248","num_nodes":"15","size_leaf_vector":"1"}},{"base_weights":[-0E0,2.717258E-2,-5.149385E-1,1.6148347E-2,6.775578E-2,-7.89667E-1,1.4011742E-1,-8.352525E-3,3.321603E-3,-3.6444254E-2,1.7379994E-2,-1.3297265E-2,3.3863544E-2],"categories":[],"categories_nodes":[],"categories_segments":[],"categories_sizes":[],"default_left":[0,0,0,0,0,0,0,0,0,0,0,0,0],"id":41,"left_children":[1,3,5,7,-1,9,11,-1,-1,-1,-1,-1,-1],"loss_changes":[2.3614775E1,2.7193253E1,1.594335E1,2.3426033E1,0E0,9.714245E0,8.790198E0,0E0,0E0,0E0,0E0,0E0,0E0],"parents":[2147483647,0,0,1,1,2,2,3,3,5,5,6,6],"right_children":[2,4,6,8,-1,10,12,-1,-1,-1,-1,-1,-1],"split_conditions":[1E0,1.2311543E-2,3.160856E-2,1.2485559E1,6.775578E-2,1.1588392E-1,-4.7898196E-2,-8.352525E-3,3.321603E-3,-3.6444254E-2,1.7379994E-2,-1.3297265E-2,3.3863544E-2],"split_indices":[32,32,53110,10,0,52648,52915,0,0,0,0,0,0],"split_type":[0,0,0,0,0,0,0,0,0,0,0,0,0],"sum_hessian":[1.6574457E3,1.5732699E3,8.417583E1,1.5640297E3,9.24017E0,6.0307064E1,2.3868765E1,3.5480057E2,1.2092291E3,5.572391E1,4.583154E0,1.3612671E1,1.0256094E1],"tree_param":{"num_deleted":"0","num_feature":"53248","num_nodes":"13","size_leaf_vector":"1"}},{"base_weights":[-0E0,2.6116485E-2,-4.9438182E-1,-1.3378097E-1,1.2922004E-1,-7.5883186E-1,1.3321182E-1,-1.6095461E-2,-2.0434604E-4,7.135944E-2,3.4175266E-3,-4.113965E-2,-4.477672E-3,-2.4213657E-2,2.3589607E-2],"categories":[],"categories_nodes":[],"categories_segments":[],"categories_sizes":[],"default_left":[0,0,0,0,0,0,0,0,0,0,0,0,0,0,0],"id":42,"left_children":[1,3,5,7,9,11,13,-1,-1,-1,-1,-1,-1,-1,-1],"loss_changes":[2.1748104E1,2.5939318E1,1.4715437E1,2.0783852E1,6.764137E1,9.392094E0,8.383643E0,0E0,0E0,0E0,0E0,0E0,0E0,0E0,0E0],"parents":[2147483647,0,0,1,1,2,2,3,3,4,4,5,5,6,6],"right_children":[2,4,6,8,10,12,14,-1,-1,-1,-1,-1,-1,-1,-1],"split_conditions":[1E0,8.407477E-3,3.160856E-2,-5.6868732E-2,1E0,4.051297E-2,-1.6176477E-2,-1.6095461E-2,-2.0434604E-4,7.135944E-2,3.4175266E-3,-4.113965E-2,-4.477672E-3,-2.4213657E-2,2.3589607E-2],"split_indices":[32,18,53110,52876,18,52655,52581,0,0,0,0,0,0,0,0],"split_type":[0,0,0,0,0,0,0,0,0,0,0,0,0,0,0],"sum_hessian":[1.6567584E3,1.5726678E3,8.4090675E1,6.12668E2,9.599998E2,6.0209106E1,2.3881569E1,1.955723E2,4.170957E2,2.364401E1,9.363558E2,4.1195675E1,1.9013432E1,8.22388E0,1.565769E1],"tree_param":{"num_deleted":"0","num_feature":"53248","num_nodes":"15","size_leaf_vector":"1"}},{"base_weights":[-0E0,8.1964016E-2,-1.6491356E-1,5.97716E-2,4.7168214E-2,-1.7874674E-1,6.2094778E-2,-2.0395903E-2,3.8469865E-3,-2.3569847E-2,-4.8783156E-3],"categories":[],"categories_nodes":[],"categories_segments":[],"categories_sizes":[],"default_left":[0,0,0,0,0,0,0,0,0,0,0],"id":43,"left_children":[1,3,5,7,-1,9,-1,-1,-1,-1,-1],"loss_changes":[2.2466702E1,2.560817E1,1.1910985E1,2.2080378E1,0E0,1.2074032E1,0E0,0E0,0E0,0E0,0E0],"parents":[2147483647,0,0,1,1,2,2,3,3,5,5],"right_children":[2,4,6,8,-1,10,-1,-1,-1,-1,-1],"split_conditions":[2E0,1.0081993E0,1.7261276E-1,6.9866014E0,4.7168214E-2,-8.869251E-2,6.2094778E-2,-2.0395903E-2,3.8469865E-3,-2.3569847E-2,-4.8783156E-3],"split_indices":[25,25,2400,13,0,52748,0,0,0,0,0],"split_type":[0,0,0,0,0,0,0,0,0,0,0],"sum_hessian":[1.656362E3,1.1034796E3,5.528825E2,1.0830135E3,2.0466036E1,5.494865E2,3.3959894E0,6.3009422E1,1.02000415E3,6.406854E1,4.8541797E2],"tree_param":{"num_deleted":"0","num_feature":"53248","num_nodes":"11","size_leaf_vector":"1"}},{"base_weights":[-0E0,-4.9398247E-2,2.6334193E-1,-3.0839097E-1,1.0561413E-2,2.0173319E-2,4.69378E-1,-1.7247029E-2,6.0831592E-3,-8.436149E-3,3.92083E-3,6.833167E-3,-2.557661E-2,3.348761E-2,8.976936E-3],"categories":[],"categories_nodes":[],"categories_segments":[],"categories_sizes":[],"default_left":[0,0,0,0,0,0,0,0,0,0,0,0,0,0,0],"id":44,"left_children":[1,3,5,7,9,11,13,-1,-1,-1,-1,-1,-1,-1,-1],"loss_changes":[2.1381142E1,2.197853E1,1.2491533E1,1.5328009E1,2.18028E1,1.1672607E1,1.1283203E1,0E0,0E0,0E0,0E0,0E0,0E0,0E0,0E0],"parents":[2147483647,0,0,1,1,2,2,3,3,4,4,5,5,6,6],"right_children":[2,4,6,8,10,12,14,-1,-1,-1,-1,-1,-1,-1,-1],"split_conditions":[1.050915E0,-1.7359443E-2,-1.2565684E-3,2.945955E-2,-5.379369E-2,6.036592E-2,7.085623E-3,-1.7247029E-2,6.0831592E-3,-8.436149E-3,3.92083E-3,6.833167E-3,-2.557661E-2,3.348761E-2,8.976936E-3],"split_indices":[0,52710,52573,53029,53049,52912,52873,0,0,0,0,0,0,0,0],"split_type":[0,0,0,0,0,0,0,0,0,0,0,0,0,0,0],"sum_hessian":[1.6542179E3,1.3955277E3,2.586902E2,2.650902E2,1.1304375E3,1.2113099E2,1.3755919E2,2.1102396E2,5.406625E1,3.166003E2,8.1383716E2,1.0014385E2,2.098714E1,5.287433E1,8.468486E1],"tree_param":{"num_deleted":"0","num_feature":"53248","num_nodes":"15","size_leaf_vector":"1"}},{"base_weights":[-0E0,-2.134485E-1,5.9399586E-2,-6.302367E-2,-4.953386E-1,1.1450027E-1,-2.63146E-1,1.1668786E-3,-3.405991E-2,-1.0191491E-2,-3.657405E-2,5.9207515E-3,-1.962723E-2,-2.9034412E-2,-3.993313E-3],"categories":[],"categories_nodes":[],"categories_segments":[],"categories_sizes":[],"default_left":[0,0,0,0,0,0,0,0,0,0,0,0,0,0,0],"id":45,"left_children":[1,3,5,7,9,11,13,-1,-1,-1,-1,-1,-1,-1,-1],"loss_changes":[2.1067436E1,1.4790464E1,2.2831045E1,1.8219465E1,1.1181719E1,2.2140995E1,1.3196227E1,0E0,0E0,0E0,0E0,0E0,0E0,0E0,0E0],"parents":[2147483647,0,0,1,1,2,2,3,3,4,4,5,5,6,6],"right_children":[2,4,6,8,10,12,14,-1,-1,-1,-1,-1,-1,-1,-1],"split_conditions":[1.2485559E1,-3.4978896E-2,2.5E1,6.752057E-2,-1.6211826E-2,1E0,-4.1263554E-2,1.1668786E-3,-3.405991E-2,-1.0191491E-2,-3.657405E-2,5.9207515E-3,-1.962723E-2,-2.9034412E-2,-3.993313E-3],"split_indices":[10,52680,16,52839,52722,32,53069,0,0,0,0,0,0,0,0],"split_type":[0,0,0,0,0,0,0,0,0,0,0,0,0,0,0],"sum_hessian":[1.6534861E3,3.618409E2,1.2916451E3,2.386497E2,1.23191216E2,1.1061104E3,1.8553474E2,2.129615E2,2.5688189E1,8.028877E1,4.2902443E1,1.049986E3,5.6124363E1,4.6354187E1,1.3918056E2],"tree_param":{"num_deleted":"0","num_feature":"53248","num_nodes":"15","size_leaf_vector":"1"}},{"base_weights":[-0E0,-6.589029E-2,1.8955018E-1,-6.158418E-1,-3.96901E-2,1.755503E0,2.2621583E-2,1.1640439E-2,-3.411785E-2,-6.224115E-3,3.9637075E-3,7.231706E-2,-0E0,8.448231E-3,-7.961034E-3],"categories":[],"categories_nodes":[],"categories_segments":[],"categories_sizes":[],"default_left":[0,0,0,0,0,0,0,0,0,0,0,0,0,0,0],"id":46,"left_children":[1,3,5,7,9,11,13,-1,-1,-1,-1,-1,-1,-1,-1],"loss_changes":[2.055289E1,1.705644E1,1.0887943E2,1.2333115E1,1.8989004E1,3.8132248E0,1.60714E1,0E0,0E0,0E0,0E0,0E0,0E0,0E0,0E0],"parents":[2147483647,0,0,1,1,2,2,3,3,4,4,5,5,6,6],"right_children":[2,4,6,8,10,12,14,-1,-1,-1,-1,-1,-1,-1,-1],"split_conditions":[8.600826E-4,6.9866014E0,4.053047E-2,-5.1397637E-2,9.354839E-1,1.3643032E-1,-2.1811606E-2,1.1640439E-2,-3.411785E-2,-6.224115E-3,3.9637075E-3,7.231706E-2,-0E0,8.448231E-3,-7.961034E-3],"split_indices":[48990,13,48990,53045,11,52648,52722,0,0,0,0,0,0,0,0],"split_type":[0,0,0,0,0,0,0,0,0,0,0,0,0,0,0],"sum_hessian":[1.6524908E3,1.229592E3,4.2289877E2,5.366768E1,1.1759244E3,3.9702435E1,3.8319635E2,1.0225813E1,4.3441868E1,6.4465063E2,5.3127374E2,3.8571407E1,1.131026E0,2.0949069E2,1.7370566E2],"tree_param":{"num_deleted":"0","num_feature":"53248","num_nodes":"15","size_leaf_vector":"1"}},{"base_weights":[-0E0,-1.3976249E-1,8.5560374E-2,-3.9271474E-1,-1.7610732E-2,6.878684E-2,4.573559E-2,-4.4772338E-2,-1.0587775E-2,-1.3460436E-2,4.4172164E-3,-1.2065315E-2,4.6000094E-3],"categories":[],"categories_nodes":[],"categories_segments":[],"categories_sizes":[],"default_left":[0,0,0,0,0,0,0,0,0,0,0,0,0],"id":47,"left_children":[1,3,5,7,9,-1,11,-1,-1,-1,-1,-1,-1],"loss_changes":[1.9798328E1,1.9070364E1,6.46975E1,1.7318945E1,1.7738274E1,0E0,2.3859373E1,0E0,0E0,0E0,0E0,0E0,0E0],"parents":[2147483647,0,0,1,1,2,2,3,3,4,4,6,6],"right_children":[2,4,6,8,10,-1,12,-1,-1,-1,-1,-1,-1],"split_conditions":[8.407477E-3,-5.6868732E-2,1E0,5.1754494E-3,-4.6107747E-2,6.878684E-2,1.2E1,-4.4772338E-2,-1.0587775E-2,-1.3460436E-2,4.4172164E-3,-1.2065315E-2,4.6000094E-3],"split_indices":[18,52876,18,52762,53196,0,10,0,0,0,0,0,0],"split_type":[0,0,0,0,0,0,0,0,0,0,0,0,0],"sum_hessian":[1.6514678E3,6.3008435E2,1.0213834E3,2.0215895E2,4.279254E2,2.3200686E1,9.9818274E2,2.8533123E1,1.7362582E2,1.2459762E2,3.033278E2,1.6326738E2,8.3491534E2],"tree_param":{"num_deleted":"0","num_feature":"53248","num_nodes":"13","size_leaf_vector":"1"}},{"base_weights":[-0E0,7.82114E-2,-1.5714933E-1,5.715794E-2,4.646578E-2,-0E0,-2.9630578E-1,4.643818E-3,-1.1692973E-2,-1.8633928E-2,5.2078185E-3,9.640046E-3,-1.6098218E-2],"categories":[],"categories_nodes":[],"categories_segments":[],"categories_sizes":[],"default_left":[0,0,0,0,0,0,0,0,0,0,0,0,0],"id":48,"left_children":[1,3,5,7,-1,9,11,-1,-1,-1,-1,-1,-1],"loss_changes":[2.0355812E1,2.383421E1,1.2157537E1,2.2091448E1,0E0,1.56162615E1,1.6961046E1,0E0,0E0,0E0,0E0,0E0,0E0],"parents":[2147483647,0,0,1,1,2,2,3,3,5,5,6,6],"right_children":[2,4,6,8,-1,10,12,-1,-1,-1,-1,-1,-1],"split_conditions":[2E0,1.0081993E0,-2.6947038E-2,1.1766701E-2,4.646578E-2,-2.679588E-2,-5.264376E-2,4.643818E-3,-1.1692973E-2,-1.8633928E-2,5.2078185E-3,9.640046E-3,-1.6098218E-2],"split_indices":[25,25,52835,52798,0,52763,53170,0,0,0,0,0,0],"split_type":[0,0,0,0,0,0,0,0,0,0,0,0,0],"sum_hessian":[1.6506366E3,1.0992892E3,5.513474E2,1.0797565E3,1.9532642E1,2.5814856E2,2.9319885E2,9.266751E2,1.5308138E2,5.55995E1,2.0254906E2,4.6709496E1,2.4648936E2],"tree_param":{"num_deleted":"0","num_feature":"53248","num_nodes":"13","size_leaf_vector":"1"}},{"base_weights":[-0E0,5.4388188E-2,-2.1567829E-1,1.5022452E-1,-1.2158451E-1,-7.51997E-1,-1.386357E-1,7.50625E-3,-1.8037373E-2,-1.1324914E-2,5.807628E-3,-2.4191488E-3,-4.5962337E-2,-7.0429198E-3,4.4435304E-2],"categories":[],"categories_nodes":[],"categories_segments":[],"categories_sizes":[],"default_left":[0,0,0,0,0,0,0,0,0,0,0,0,0,0,0],"id":49,"left_children":[1,3,5,7,9,11,13,-1,-1,-1,-1,-1,-1,-1,-1],"loss_changes":[1.9456589E1,2.2222824E1,1.2883296E1,1.903127E1,1.9999989E1,9.817419E0,1.2954612E1,0E0,0E0,0E0,0E0,0E0,0E0,0E0,0E0],"parents":[2147483647,0,0,1,1,2,2,3,3,4,4,5,5,6,6],"right_children":[2,4,6,8,10,12,14,-1,-1,-1,-1,-1,-1,-1,-1],"split_conditions":[-1.920391E-2,-3.1232588E-2,-6.675287E-2,6.2108595E-2,5.9003625E-3,7.47E-1,3.2218724E-2,7.50625E-3,-1.8037373E-2,-1.1324914E-2,5.807628E-3,-2.4191488E-3,-4.5962337E-2,-7.0429198E-3,4.4435304E-2],"split_indices":[52680,52946,52670,52921,52777,53246,52634,0,0,0,0,0,0,0,0],"split_type":[0,0,0,0,0,0,0,0,0,0,0,0,0,0,0],"sum_hessian":[1.6490966E3,1.3149823E3,3.3411423E2,8.550631E2,4.5991925E2,3.978659E1,2.9432764E2,8.068323E2,4.823081E1,2.887765E2,1.7114278E2,1.5641012E1,2.4145576E1,2.8695978E2,7.3678617E0],"tree_param":{"num_deleted":"0","num_feature":"53248","num_nodes":"15","size_leaf_vector":"1"}}]},"name":"gbtree"},"learner_model_param":{"base_score":"5E-1","boost_from_average":"1","num_class":"0","num_feature":"53248","num_target":"1"},"objective":{"name":"binary:logistic","reg_loss_param":{"scale_pos_weight":"1"}}},"version":[2,1,4]}