{"learner":{"attributes":{"scikit_learn":"{\"_estimator_type\": \"classifier\"}"},"feature_names":[],"feature_types":[],"gradient_booster":{"model":{"gbtree_model_param":{"num_parallel_tree":"1","num_trees":"100"},"iteration_indptr":[0,1,2,3,4,5,6,7,8,9,10,11,12,13,14,15,16,17,18,19,20,21,22,23,24,25,26,27,28,29,30,31,32,33,34,35,36,37,38,39,40,41,42,43,44,45,46,47,48,49,50,51,52,53,54,55,56,57,58,59,60,61,62,63,64,65,66,67,68,69,70,71,72,73,74,75,76,77,78,79,80,81,82,83,84,85,86,87,88,89,90,91,92,93,94,95,96,97,98,99,100],"tree_info":[0,0,0,0,0,0,0,0,0,0,0,0,0,0,0,0,0,0,0,0,0,0,0,0,0,0,0,0,0,0,0,0,0,0,0,0,0,0,0,0,0,0,0,0,0,0,0,0,0,0,0,0,0,0,0,0,0,0,0,0,0,0,0,0,0,0,0,0,0,0,0,0,0,0,0,0,0,0,0,0,0,0,0,0,0,0,0,0,0,0,0,0,0,0,0,0,0,0,0,0],"trees":[{"base_weights":[-0E0,2.2779496E-1,-4.243648E-1,-7.63061E-1,3.7575153E-1,-5.575458E-1,2.5654262E-1,-1.1486899E0,-3.511082E-1,2.8148618E-1,8.472925E-1,-6.18817E-1,2.5874496E-1,5.737727E-1,-2.1920939E-1,4.6823355E-3,-1.265268E-2,-8.4866835E-3,1.6767416E-3,2.9264311E-3,-1.3789413E-2,1.0024595E-2,-1.3904582E-3,-1.1579093E-2,-5.3795194E-3,-8.206352E-3,5.1413584E-3,-2.6274714E-4,8.98636E-3,-9.446088E-3,2.255893E-3],"categories":[],"categories_nodes":[],"categories_segments":[],"categories_sizes":[],"default_left":[0,0,0,0,0,0,0,0,0,0,0,0,0,0,0,0,0,0,0,0,0,0,0,0,0,0,0,0,0,0,0],"id":0,"left_children":[1,3,5,7,9,11,13,15,17,19,21,23,25,27,29,-1,-1,-1,-1,-1,-1,-1,-1,-1,-1,-1,-1,-1,-1,-1,-1],"loss_changes":[1.4630728E2,1.4477318E2,4.8185165E1,1.9636421E1,3.7666763E1,2.2421143E1,1.34132595E1,1.3317352E1,1.6891254E1,1.3787918E1,2.2031235E1,1.6874435E1,9.384208E0,1.0448399E1,1.1981152E1,0E0,0E0,0E0,0E0,0E0,0E0,0E0,0E0,0E0,0E0,0E0,0E0,0E0,0E0,0E0,0E0],"parents":[2147483647,0,0,1,1,2,2,3,3,4,4,5,5,6,6,7,7,8,8,9,9,10,10,11,11,12,12,13,13,14,14],"right_children":[2,4,6,8,10,12,14,16,18,20,22,24,26,28,30,-1,-1,-1,-1,-1,-1,-1,-1,-1,-1,-1,-1,-1,-1,-1,-1],"split_conditions":[2E0,1E1,3E0,7E0,3E0,6.780807E-2,2.643966E-2,-6.8165146E-2,-2.9912774E-2,1.02569796E-1,2.8191268E-2,1.2E1,1.0505289E-2,2.8259493E-2,-4.157513E-2,4.6823355E-3,-1.265268E-2,-8.4866835E-3,1.6767416E-3,2.9264311E-3,-1.3789413E-2,1.0024595E-2,-1.3904582E-3,-1.1579093E-2,-5.3795194E-3,-8.206352E-3,5.1413584E-3,-2.6274714E-4,8.98636E-3,-9.446088E-3,2.255893E-3],"split_indices":[25,10,0,13,0,53219,52717,52674,53199,48601,52693,13,52718,53204,52795,0,0,0,0,0,0,0,0,0,0,0,0,0,0,0,0],"split_type":[0,0,0,0,0,0,0,0,0,0,0,0,0,0,0,0,0,0,0,0,0,0,0,0,0,0,0,0,0,0,0],"sum_hessian":[1.5105E3,9.833447E2,5.271553E2,1.2685991E2,8.564848E2,4.4126535E2,8.588993E1,6.401249E1,6.2847424E1,7.159645E2,1.4052034E2,4.1090778E2,3.0357567E1,5.1470615E1,3.4419315E1,3.9428759E0,6.006961E1,3.169139E1,3.1156033E1,7.12473E2,3.4914765E0,1.2148556E2,1.9034786E1,5.0830086E1,3.600777E2,5.0983877E0,2.5259178E1,1.8454536E1,3.301608E1,1.2527752E1,2.1891563E1],"tree_param":{"num_deleted":"0","num_feature":"53248","num_nodes":"31","size_leaf_vector":"1"}},{"base_weights":[-0E0,2.2549194E-1,-4.2018002E-1,-7.556132E-1,3.7199113E-1,-5.520462E-1,2.5399485E-1,-1.1374125E0,-3.477436E-1,2.7864802E-1,8.389218E-1,-6.1269945E-1,2.5598392E-1,5.682702E-1,-2.1729156E-1,4.648435E-3,-1.2529728E-2,-8.405796E-3,1.6607448E-3,2.94042E-3,-9.216268E-3,9.925818E-3,-1.3775703E-3,-1.1466997E-2,-5.325987E-3,-8.14305E-3,5.0928597E-3,-1.9918827E-3,8.162386E-3,-9.361913E-3,2.234783E-3],"categories":[],"categories_nodes":[],"categories_segments":[],"categories_sizes":[],"default_left":[0,0,0,0,0,0,0,0,0,0,0,0,0,0,0,0,0,0,0,0,0,0,0,0,0,0,0,0,0,0,0],"id":1,"left_children":[1,3,5,7,9,11,13,15,17,19,21,23,25,27,29,-1,-1,-1,-1,-1,-1,-1,-1,-1,-1,-1,-1,-1,-1,-1,-1],"loss_changes":[1.434094E2,1.4193497E2,4.7237564E1,1.9246483E1,3.6932457E1,2.1970474E1,1.316382E1,1.3082123E1,1.6571276E1,1.3600327E1,2.1604042E1,1.6556015E1,9.2282915E0,1.0386051E1,1.1766733E1,0E0,0E0,0E0,0E0,0E0,0E0,0E0,0E0,0E0,0E0,0E0,0E0,0E0,0E0,0E0,0E0],"parents":[2147483647,0,0,1,1,2,2,3,3,4,4,5,5,6,6,7,7,8,8,9,9,10,10,11,11,12,12,13,13,14,14],"right_children":[2,4,6,8,10,12,14,16,18,20,22,24,26,28,30,-1,-1,-1,-1,-1,-1,-1,-1,-1,-1,-1,-1,-1,-1,-1,-1],"split_conditions":[2E0,1E1,3E0,7E0,3E0,6.780807E-2,2.643966E-2,-6.8165146E-2,-2.9912774E-2,3.416587E-2,2.8191268E-2,1.2E1,1.0505289E-2,-5.5079002E-2,-4.157513E-2,4.648435E-3,-1.2529728E-2,-8.405796E-3,1.6607448E-3,2.94042E-3,-9.216268E-3,9.925818E-3,-1.3775703E-3,-1.1466997E-2,-5.325987E-3,-8.14305E-3,5.0928597E-3,-1.9918827E-3,8.162386E-3,-9.361913E-3,2.234783E-3],"split_indices":[25,10,0,13,0,53219,52717,52674,53199,52838,52693,13,52718,52898,52795,0,0,0,0,0,0,0,0,0,0,0,0,0,0,0,0],"split_type":[0,0,0,0,0,0,0,0,0,0,0,0,0,0,0,0,0,0,0,0,0,0,0,0,0,0,0,0,0,0,0],"sum_hessian":[1.5104867E3,9.83337E2,5.271498E2,1.26856895E2,8.564801E2,4.412608E2,8.588896E1,6.401006E1,6.2846832E1,7.1596277E2,1.4051729E2,4.1090347E2,3.0357313E1,5.146995E1,3.441901E1,3.9428544E0,6.0067207E1,3.169082E1,3.1156012E1,7.08097E2,7.8657823E0,1.2148251E2,1.9034777E1,5.082838E1,3.600751E2,5.098302E0,2.5259012E1,1.2542599E1,3.8927353E1,1.25274725E1,2.1891537E1],"tree_param":{"num_deleted":"0","num_feature":"53248","num_nodes":"31","size_leaf_vector":"1"}},{"base_weights":[-4.2261763E-6,2.2322229E-1,-4.1605163E-1,-7.4827254E-1,3.6827987E-1,-5.466118E-1,2.514344E-1,-1.1263275E0,-3.444173E-1,2.7584872E-1,8.3066916E-1,-6.066546E-1,2.5325492E-1,5.627606E-1,-2.1539402E-1,4.614815E-3,-1.2408922E-2,-8.325965E-3,1.6449054E-3,2.8692507E-3,-1.3713808E-2,9.828497E-3,-1.3648024E-3,-1.1356712E-2,-5.273059E-3,-8.080443E-3,5.0448785E-3,-5.4191053E-3,7.2856545E-3,-9.278857E-3,2.213877E-3],"categories":[],"categories_nodes":[],"categories_segments":[],"categories_sizes":[],"default_left":[0,0,0,0,0,0,0,0,0,0,0,0,0,0,0,0,0,0,0,0,0,0,0,0,0,0,0,0,0,0,0],"id":2,"left_children":[1,3,5,7,9,11,13,15,17,19,21,23,25,27,29,-1,-1,-1,-1,-1,-1,-1,-1,-1,-1,-1,-1,-1,-1,-1,-1],"loss_changes":[1.4057747E2,1.3915807E2,4.6304573E1,1.8867126E1,3.6214417E1,2.1529266E1,1.2916948E1,1.2852341E1,1.6258018E1,1.3572041E1,2.1186813E1,1.6246277E1,9.075138E0,1.0312567E1,1.1556617E1,0E0,0E0,0E0,0E0,0E0,0E0,0E0,0E0,0E0,0E0,0E0,0E0,0E0,0E0,0E0,0E0],"parents":[2147483647,0,0,1,1,2,2,3,3,4,4,5,5,6,6,7,7,8,8,9,9,10,10,11,11,12,12,13,13,14,14],"right_children":[2,4,6,8,10,12,14,16,18,20,22,24,26,28,30,-1,-1,-1,-1,-1,-1,-1,-1,-1,-1,-1,-1,-1,-1,-1,-1],"split_conditions":[2E0,1E1,3E0,7E0,3E0,6.780807E-2,2.643966E-2,-6.8165146E-2,-2.9912774E-2,1.02569796E-1,2.8191268E-2,1.2E1,1.0505289E-2,-4.686692E-3,-4.157513E-2,4.614815E-3,-1.2408922E-2,-8.325965E-3,1.6449054E-3,2.8692507E-3,-1.3713808E-2,9.828497E-3,-1.3648024E-3,-1.1356712E-2,-5.273059E-3,-8.080443E-3,5.0448785E-3,-5.4191053E-3,7.2856545E-3,-9.278857E-3,2.213877E-3],"split_indices":[25,10,0,13,0,53219,52717,52674,53199,48601,52693,13,52718,52891,52795,0,0,0,0,0,0,0,0,0,0,0,0,0,0,0,0],"split_type":[0,0,0,0,0,0,0,0,0,0,0,0,0,0,0,0,0,0,0,0,0,0,0,0,0,0,0,0,0,0,0],"sum_hessian":[1.5104481E3,9.833144E2,5.271337E2,1.2684795E2,8.564665E2,4.4124725E2,8.588645E1,6.4002884E1,6.284507E1,7.1595825E2,1.4050822E2,4.108907E2,3.0356565E1,5.1468357E1,3.44181E1,3.94279E0,6.0060093E1,3.1689125E1,3.1155945E1,7.1246686E2,3.4913738E0,1.2147347E2,1.903475E1,5.082333E1,3.6006735E2,5.0980473E0,2.5258518E1,6.194172E0,4.5274185E1,1.2526644E1,2.1891453E1],"tree_param":{"num_deleted":"0","num_feature":"53248","num_nodes":"31","size_leaf_vector":"1"}},{"base_weights":[-4.6247755E-5,2.209718E-1,-4.1198394E-1,-7.410367E-1,3.6460152E-1,-5.412418E-1,2.4883024E-1,-1.1154296E0,-3.4112886E-1,2.730692E-1,8.225315E-1,-6.006816E-1,2.5055775E-1,5.571914E-1,-2.1351634E-1,4.5814756E-3,-1.2290206E-2,3.928257E-3,-6.7188996E-3,3.4924706E-3,2.4383205E-4,9.732591E-3,-1.3521548E-3,-1.1248191E-2,-5.2207303E-3,8.900477E-3,-1.7741387E-3,-3.5656348E-4,8.786381E-3,-4.961846E-3,8.5314615E-3],"categories":[],"categories_nodes":[],"categories_segments":[],"categories_sizes":[],"default_left":[0,0,0,0,0,0,0,0,0,0,0,0,0,0,0,0,0,0,0,0,0,0,0,0,0,0,0,0,0,0,0],"id":3,"left_children":[1,3,5,7,9,11,13,15,17,19,21,23,25,27,29,-1,-1,-1,-1,-1,-1,-1,-1,-1,-1,-1,-1,-1,-1,-1,-1],"loss_changes":[1.3780621E2,1.3643727E2,4.538253E1,1.8497986E1,3.5514572E1,2.1097366E1,1.267094E1,1.2627846E1,1.6043753E1,1.3541512E1,2.0779205E1,1.5944778E1,9.026403E0,1.0224979E1,1.1428554E1,0E0,0E0,0E0,0E0,0E0,0E0,0E0,0E0,0E0,0E0,0E0,0E0,0E0,0E0,0E0,0E0],"parents":[2147483647,0,0,1,1,2,2,3,3,4,4,5,5,6,6,7,7,8,8,9,9,10,10,11,11,12,12,13,13,14,14],"right_children":[2,4,6,8,10,12,14,16,18,20,22,24,26,28,30,-1,-1,-1,-1,-1,-1,-1,-1,-1,-1,-1,-1,-1,-1,-1,-1],"split_conditions":[2E0,1E1,3E0,7E0,3E0,6.780807E-2,2.643966E-2,-6.8165146E-2,-4.488089E-2,1.5360565E-2,2.8191268E-2,1.2E1,-2.6295254E-2,2.8259493E-2,4.0823918E-2,4.5814756E-3,-1.2290206E-2,3.928257E-3,-6.7188996E-3,3.4924706E-3,2.4383205E-4,9.732591E-3,-1.3521548E-3,-1.1248191E-2,-5.2207303E-3,8.900477E-3,-1.7741387E-3,-3.5656348E-4,8.786381E-3,-4.961846E-3,8.5314615E-3],"split_indices":[25,10,0,13,0,53219,52717,52674,53037,53014,52693,13,52900,53204,53057,0,0,0,0,0,0,0,0,0,0,0,0,0,0,0,0],"split_type":[0,0,0,0,0,0,0,0,0,0,0,0,0,0,0,0,0,0,0,0,0,0,0,0,0,0,0,0,0,0,0],"sum_hessian":[1.5103848E3,9.832771E2,5.271077E2,1.2683327E2,8.5644385E2,4.4122507E2,8.588265E1,6.3991077E1,6.284219E1,7.159505E2,1.4049333E2,4.1086975E2,3.0355331E1,5.146605E1,3.44166E1,3.9426842E0,6.0048393E1,1.934099E1,4.3501198E1,5.4729395E2,1.6865659E2,1.21458626E2,1.9034704E1,5.081505E1,3.600547E2,1.1614569E1,1.8740763E1,1.845388E1,3.301217E1,2.7915033E1,6.5015664E0],"tree_param":{"num_deleted":"0","num_feature":"53248","num_nodes":"31","size_leaf_vector":"1"}},{"base_weights":[-4.1040632E-5,2.1877623E-1,-4.078846E-1,-7.338461E-1,3.6099064E-1,-5.358992E-1,2.4654852E-1,-1.1047128E0,-3.3777714E-1,2.7035126E-1,8.145062E-1,-5.94779E-1,2.4836126E-1,5.5187756E-1,-2.1120772E-1,4.54841E-3,-1.2173507E-2,-8.209915E-3,1.6571328E-3,2.9294768E-3,-5.463207E-3,9.638065E-3,-1.3396239E-3,-1.1141381E-2,-5.1689898E-3,-8.031846E-3,4.974637E-3,-2.061591E-3,7.972116E-3,-9.173985E-3,2.2147195E-3],"categories":[],"categories_nodes":[],"categories_segments":[],"categories_sizes":[],"default_left":[0,0,0,0,0,0,0,0,0,0,0,0,0,0,0,0,0,0,0,0,0,0,0,0,0,0,0,0,0,0,0],"id":4,"left_children":[1,3,5,7,9,11,13,15,17,19,21,23,25,27,29,-1,-1,-1,-1,-1,-1,-1,-1,-1,-1,-1,-1,-1,-1,-1,-1],"loss_changes":[1.3507086E2,1.3376776E2,4.4509468E1,1.8144089E1,3.482689E1,2.0698639E1,1.2421465E1,1.2408417E1,1.5923191E1,1.3454262E1,2.038095E1,1.5651276E1,8.912873E0,1.0155169E1,1.1348658E1,0E0,0E0,0E0,0E0,0E0,0E0,0E0,0E0,0E0,0E0,0E0,0E0,0E0,0E0,0E0,0E0],"parents":[2147483647,0,0,1,1,2,2,3,3,4,4,5,5,6,6,7,7,8,8,9,9,10,10,11,11,12,12,13,13,14,14],"right_children":[2,4,6,8,10,12,14,16,18,20,22,24,26,28,30,-1,-1,-1,-1,-1,-1,-1,-1,-1,-1,-1,-1,-1,-1,-1,-1],"split_conditions":[2E0,1E1,3E0,7E0,3E0,6.780807E-2,2.643966E-2,-6.8165146E-2,-2.9912774E-2,1.307904E-1,2.8191268E-2,1.2E1,1.0505289E-2,-5.5079002E-2,-4.157513E-2,4.54841E-3,-1.2173507E-2,-8.209915E-3,1.6571328E-3,2.9294768E-3,-5.463207E-3,9.638065E-3,-1.3396239E-3,-1.1141381E-2,-5.1689898E-3,-8.031846E-3,4.974637E-3,-2.061591E-3,7.972116E-3,-9.173985E-3,2.2147195E-3],"split_indices":[25,10,0,13,0,53219,52717,52674,53199,31412,52693,13,52718,52898,52795,0,0,0,0,0,0,0,0,0,0,0,0,0,0,0,0],"split_type":[0,0,0,0,0,0,0,0,0,0,0,0,0,0,0,0,0,0,0,0,0,0,0,0,0,0,0,0,0,0,0],"sum_hessian":[1.5103024E3,9.832284E2,5.2707404E2,1.2681507E2,8.564133E2,4.4119562E2,8.587842E1,6.3974792E1,6.284028E1,7.159405E2,1.4047281E2,4.1084088E2,3.0354727E1,5.14624E1,3.441602E1,3.9425375E0,6.0032257E1,3.1684479E1,3.11558E1,6.977198E2,1.8220737E1,1.21438156E2,1.9034645E1,5.080361E1,3.6003726E2,5.097699E0,2.5257027E1,1.2541965E1,3.8920433E1,1.252472E1,2.18913E1],"tree_param":{"num_deleted":"0","num_feature":"53248","num_nodes":"31","size_leaf_vector":"1"}},{"base_weights":[-6.9962705E-5,2.1658875E-1,-4.0390047E-1,-7.2680837E-1,3.5740602E-1,-5.3065467E-1,2.440723E-1,-1.0941714E0,-3.345597E-1,2.6764593E-1,8.065904E-1,-5.8894587E-1,2.457162E-1,5.465543E-1,-2.0937143E-1,4.5156176E-3,-1.2058762E-2,3.915579E-3,-6.619394E-3,2.7863383E-3,-1.3644893E-2,9.544883E-3,-1.3272124E-3,-1.1036236E-2,-5.1178318E-3,8.79524E-3,-1.7818655E-3,-5.4693017E-3,7.1106236E-3,-4.896161E-3,8.475587E-3],"categories":[],"categories_nodes":[],"categories_segments":[],"categories_sizes":[],"default_left":[0,0,0,0,0,0,0,0,0,0,0,0,0,0,0,0,0,0,0,0,0,0,0,0,0,0,0,0,0,0,0],"id":5,"left_children":[1,3,5,7,9,11,13,15,17,19,21,23,25,27,29,-1,-1,-1,-1,-1,-1,-1,-1,-1,-1,-1,-1,-1,-1,-1,-1],"loss_changes":[1.3241318E2,1.311621E2,4.3632736E1,1.779432E1,3.415725E1,2.0284103E1,1.2189151E1,1.2193916E1,1.5709497E1,1.3327854E1,1.9991776E1,1.5365433E1,8.863228E0,1.0126196E1,1.1224326E1,0E0,0E0,0E0,0E0,0E0,0E0,0E0,0E0,0E0,0E0,0E0,0E0,0E0,0E0,0E0,0E0],"parents":[2147483647,0,0,1,1,2,2,3,3,4,4,5,5,6,6,7,7,8,8,9,9,10,10,11,11,12,12,13,13,14,14],"right_children":[2,4,6,8,10,12,14,16,18,20,22,24,26,28,30,-1,-1,-1,-1,-1,-1,-1,-1,-1,-1,-1,-1,-1,-1,-1,-1],"split_conditions":[2E0,1E1,3E0,7E0,3E0,6.780807E-2,2.643966E-2,-6.8165146E-2,-4.488089E-2,1.02569796E-1,2.8191268E-2,1.2E1,-2.6295254E-2,-4.686692E-3,4.0823918E-2,4.5156176E-3,-1.2058762E-2,3.915579E-3,-6.619394E-3,2.7863383E-3,-1.3644893E-2,9.544883E-3,-1.3272124E-3,-1.1036236E-2,-5.1178318E-3,8.79524E-3,-1.7818655E-3,-5.4693017E-3,7.1106236E-3,-4.896161E-3,8.475587E-3],"split_indices":[25,10,0,13,0,53219,52717,52674,53037,48601,52693,13,52900,52891,53057,0,0,0,0,0,0,0,0,0,0,0,0,0,0,0,0],"split_type":[0,0,0,0,0,0,0,0,0,0,0,0,0,0,0,0,0,0,0,0,0,0,0,0,0,0,0,0,0,0,0],"sum_hessian":[1.5101936E3,9.8316473E2,5.270289E2,1.2679005E2,8.563747E2,4.4115714E2,8.5871735E1,6.395417E1,6.2835873E1,7.159279E2,1.404468E2,4.1080423E2,3.0352913E1,5.145787E1,3.441386E1,3.942351E0,6.001182E1,1.9340267E1,4.3495605E1,7.124368E2,3.4910865E0,1.21412224E2,1.9034565E1,5.078912E1,3.600151E2,1.1613054E1,1.8739857E1,6.1936765E0,4.5264194E1,2.7912592E1,6.501267E0],"tree_param":{"num_deleted":"0","num_feature":"53248","num_nodes":"31","size_leaf_vector":"1"}},{"base_weights":[-8.670528E-5,2.144186E-1,-3.9991367E-1,-7.198122E-1,3.538458E-1,-5.254354E-1,2.4172746E-1,-1.0838009E0,-3.312796E-1,2.6495123E-1,7.987816E-1,-5.8318025E-1,2.4356721E-1,5.411686E-1,-2.0710745E-1,4.483094E-3,-1.194592E-2,-8.096276E-3,1.6686971E-3,2.8020546E-3,-9.224604E-3,9.453013E-3,-1.3149149E-3,-3.5319973E-3,-7.496425E-3,-7.983518E-3,4.9056774E-3,-4.466858E-4,8.59331E-3,-9.071092E-3,2.2151934E-3],"categories":[],"categories_nodes":[],"categories_segments":[],"categories_sizes":[],"default_left":[0,0,0,0,0,0,0,0,0,0,0,0,0,0,0,0,0,0,0,0,0,0,0,0,0,0,0,0,0,0,0],"id":6,"left_children":[1,3,5,7,9,11,13,15,17,19,21,23,25,27,29,-1,-1,-1,-1,-1,-1,-1,-1,-1,-1,-1,-1,-1,-1,-1,-1],"loss_changes":[1.2978668E2,1.2859528E2,4.2782394E1,1.7458893E1,3.3505272E1,1.9901619E1,1.1943407E1,1.1984207E1,1.5596628E1,1.3318008E1,1.9611382E1,1.5275131E1,8.753876E0,1.0008992E1,1.114518E1,0E0,0E0,0E0,0E0,0E0,0E0,0E0,0E0,0E0,0E0,0E0,0E0,0E0,0E0,0E0,0E0],"parents":[2147483647,0,0,1,1,2,2,3,3,4,4,5,5,6,6,7,7,8,8,9,9,10,10,11,11,12,12,13,13,14,14],"right_children":[2,4,6,8,10,12,14,16,18,20,22,24,26,28,30,-1,-1,-1,-1,-1,-1,-1,-1,-1,-1,-1,-1,-1,-1,-1,-1],"split_conditions":[2E0,1E1,3E0,7E0,3E0,6.780807E-2,2.643966E-2,-6.8165146E-2,-2.9912774E-2,3.416587E-2,2.8191268E-2,-2.6510281E-2,1.0505289E-2,2.8259493E-2,-4.157513E-2,4.483094E-3,-1.194592E-2,-8.096276E-3,1.6686971E-3,2.8020546E-3,-9.224604E-3,9.453013E-3,-1.3149149E-3,-3.5319973E-3,-7.496425E-3,-7.983518E-3,4.9056774E-3,-4.466858E-4,8.59331E-3,-9.071092E-3,2.2151934E-3],"split_indices":[25,10,0,13,0,53219,52717,52674,53199,52838,52693,52739,52718,53204,52795,0,0,0,0,0,0,0,0,0,0,0,0,0,0,0,0],"split_type":[0,0,0,0,0,0,0,0,0,0,0,0,0,0,0,0,0,0,0,0,0,0,0,0,0,0,0,0,0,0,0],"sum_hessian":[1.5100665E3,9.830892E2,5.269773E2,1.2676178E2,8.563274E2,4.4111185E2,8.586543E1,6.3929325E1,6.283245E1,7.159119E2,1.4041547E2,4.1076013E2,3.035172E1,5.1452812E1,3.4412624E1,3.9421256E0,5.99872E1,3.1677225E1,3.1155226E1,7.080462E2,7.8657537E0,1.21381E2,1.903447E1,1.7469246E2,2.3606769E2,5.097187E0,2.5254534E1,1.8451992E1,3.300082E1,1.252179E1,2.1890835E1],"tree_param":{"num_deleted":"0","num_feature":"53248","num_nodes":"31","size_leaf_vector":"1"}},{"base_weights":[-1.1145293E-4,2.1227407E-1,-3.9599693E-1,-7.129635E-1,3.5033163E-1,-5.2028936E-1,2.3934628E-1,-1.0735961E0,-3.281312E-1,2.6229346E-1,7.910774E-1,-5.774571E-1,2.4097317E-1,5.3603417E-1,-2.0531122E-1,4.450836E-3,-1.1834921E-2,3.9025485E-3,-6.5218876E-3,3.376517E-3,1.6353153E-4,9.362423E-3,-1.302734E-3,-1.0877992E-2,-5.0099543E-3,8.692005E-3,-1.7891048E-3,-5.471444E-3,6.992193E-3,-4.8316373E-3,8.420142E-3],"categories":[],"categories_nodes":[],"categories_segments":[],"categories_sizes":[],"default_left":[0,0,0,0,0,0,0,0,0,0,0,0,0,0,0,0,0,0,0,0,0,0,0,0,0,0,0,0,0,0,0],"id":7,"left_children":[1,3,5,7,9,11,13,15,17,19,21,23,25,27,29,-1,-1,-1,-1,-1,-1,-1,-1,-1,-1,-1,-1,-1,-1,-1,-1],"loss_changes":[1.2722508E2,1.2609451E2,4.1943268E1,1.7127144E1,3.2867096E1,1.9502533E1,1.172258E1,1.1779106E1,1.5383106E1,1.3252232E1,1.9239555E1,1.5108871E1,8.703589E0,9.947802E0,1.1024192E1,0E0,0E0,0E0,0E0,0E0,0E0,0E0,0E0,0E0,0E0,0E0,0E0,0E0,0E0,0E0,0E0],"parents":[2147483647,0,0,1,1,2,2,3,3,4,4,5,5,6,6,7,7,8,8,9,9,10,10,11,11,12,12,13,13,14,14],"right_children":[2,4,6,8,10,12,14,16,18,20,22,24,26,28,30,-1,-1,-1,-1,-1,-1,-1,-1,-1,-1,-1,-1,-1,-1,-1,-1],"split_conditions":[2E0,1E1,3E0,7E0,3E0,6.780807E-2,2.643966E-2,-6.8165146E-2,-4.488089E-2,1.5360565E-2,2.8191268E-2,1.2E1,-2.6295254E-2,-4.686692E-3,4.0823918E-2,4.450836E-3,-1.1834921E-2,3.9025485E-3,-6.5218876E-3,3.376517E-3,1.6353153E-4,9.362423E-3,-1.302734E-3,-1.0877992E-2,-5.0099543E-3,8.692005E-3,-1.7891048E-3,-5.471444E-3,6.992193E-3,-4.8316373E-3,8.420142E-3],"split_indices":[25,10,0,13,0,53219,52717,52674,53037,53014,52693,13,52900,52891,53057,0,0,0,0,0,0,0,0,0,0,0,0,0,0,0,0],"split_type":[0,0,0,0,0,0,0,0,0,0,0,0,0,0,0,0,0,0,0,0,0,0,0,0,0,0,0,0,0,0,0],"sum_hessian":[1.5099188E3,9.829999E2,5.269189E2,1.2672698E2,8.562729E2,4.4106265E2,8.585623E1,6.3900387E1,6.28266E1,7.158939E2,1.4037898E2,4.1071332E2,3.0349344E1,5.14464E1,3.440983E1,3.941862E0,5.9958523E1,1.933931E1,4.348729E1,5.4724677E2,1.6864714E2,1.2134462E2,1.903436E1,5.0761097E1,3.599522E2,1.161062E1,1.8738724E1,6.1934967E0,4.5252903E1,2.7909105E1,6.500722E0],"tree_param":{"num_deleted":"0","num_feature":"53248","num_nodes":"31","size_leaf_vector":"1"}},{"base_weights":[-1.119735E-4,2.1017613E-1,-3.9210072E-1,-7.061527E-1,3.468751E-1,-5.1518875E-1,2.3705323E-1,-1.0635521E0,-3.2492024E-1,2.5968683E-1,7.8347504E-1,-5.718231E-1,2.3887075E-1,5.307678E-1,-2.0309083E-1,4.418841E-3,-1.1725712E-2,-7.9849595E-3,1.6796204E-3,2.8205055E-3,-5.4786718E-3,9.273077E-3,-1.2906669E-3,-3.441015E-3,-7.366969E-3,-7.935458E-3,4.8379707E-3,-2.178411E-3,7.7369353E-3,-8.970116E-3,2.215314E-3],"categories":[],"categories_nodes":[],"categories_segments":[],"categories_sizes":[],"default_left":[0,0,0,0,0,0,0,0,0,0,0,0,0,0,0,0,0,0,0,0,0,0,0,0,0,0,0,0,0,0,0],"id":8,"left_children":[1,3,5,7,9,11,13,15,17,19,21,23,25,27,29,-1,-1,-1,-1,-1,-1,-1,-1,-1,-1,-1,-1,-1,-1,-1,-1],"loss_changes":[1.2471507E2,1.2363865E2,4.1127174E1,1.6808868E1,3.224047E1,1.9135612E1,1.148645E1,1.1578476E1,1.5278021E1,1.3160927E1,1.8876007E1,1.4986176E1,8.598069E0,9.935779E0,1.0946054E1,0E0,0E0,0E0,0E0,0E0,0E0,0E0,0E0,0E0,0E0,0E0,0E0,0E0,0E0,0E0,0E0],"parents":[2147483647,0,0,1,1,2,2,3,3,4,4,5,5,6,6,7,7,8,8,9,9,10,10,11,11,12,12,13,13,14,14],"right_children":[2,4,6,8,10,12,14,16,18,20,22,24,26,28,30,-1,-1,-1,-1,-1,-1,-1,-1,-1,-1,-1,-1,-1,-1,-1,-1],"split_conditions":[2E0,1E1,3E0,7E0,3E0,6.780807E-2,2.643966E-2,-6.8165146E-2,-2.9912774E-2,1.307904E-1,2.8191268E-2,-2.6510281E-2,1.0505289E-2,-5.5079002E-2,-4.157513E-2,4.418841E-3,-1.1725712E-2,-7.9849595E-3,1.6796204E-3,2.8205055E-3,-5.4786718E-3,9.273077E-3,-1.2906669E-3,-3.441015E-3,-7.366969E-3,-7.935458E-3,4.8379707E-3,-2.178411E-3,7.7369353E-3,-8.970116E-3,2.215314E-3],"split_indices":[25,10,0,13,0,53219,52717,52674,53199,31412,52693,52739,52718,52898,52795,0,0,0,0,0,0,0,0,0,0,0,0,0,0,0,0],"split_type":[0,0,0,0,0,0,0,0,0,0,0,0,0,0,0,0,0,0,0,0,0,0,0,0,0,0,0,0,0,0,0],"sum_hessian":[1.5097509E3,9.8290027E2,5.2685065E2,1.2668922E2,8.56211E2,4.4100317E2,8.584744E1,6.3867485E1,6.2821735E1,7.1587354E2,1.4033751E2,4.1065558E2,3.0347586E1,5.143948E1,3.4407963E1,3.9415612E0,5.9925922E1,3.1667488E1,3.1154247E1,6.976532E2,1.8220303E1,1.21303276E2,1.9034237E1,1.7465765E2,2.3599794E2,5.096512E0,2.5251074E1,1.2539755E1,3.8899727E1,1.2517892E1,2.189007E1],"tree_param":{"num_deleted":"0","num_feature":"53248","num_nodes":"31","size_leaf_vector":"1"}},{"base_weights":[-1.3488067E-4,2.0808461E-1,-3.882795E-1,-6.994846E-1,3.434424E-1,-5.101594E-1,2.3468134E-1,-1.0536646E0,-3.218393E-1,2.5709122E-1,7.7597237E-1,-5.6622976E-1,2.3632637E-1,5.256779E-1,-2.0133388E-1,4.3871067E-3,-1.161824E-2,3.8891835E-3,-6.4263204E-3,2.6799291E-3,-1.3594851E-2,9.184948E-3,-1.2787114E-3,-1.0723695E-2,-4.904535E-3,8.590707E-3,-1.7958666E-3,8.598663E-3,-2.835304E-4,-4.768249E-3,8.365126E-3],"categories":[],"categories_nodes":[],"categories_segments":[],"categories_sizes":[],"default_left":[0,0,0,0,0,0,0,0,0,0,0,0,0,0,0,0,0,0,0,0,0,0,0,0,0,0,0,0,0,0,0],"id":9,"left_children":[1,3,5,7,9,11,13,15,17,19,21,23,25,27,29,-1,-1,-1,-1,-1,-1,-1,-1,-1,-1,-1,-1,-1,-1,-1,-1],"loss_changes":[1.2226227E2,1.2124106E2,4.0317245E1,1.6493778E1,3.1629929E1,1.875238E1,1.1272303E1,1.1382179E1,1.5064354E1,1.3079514E1,1.8520508E1,1.4860046E1,8.547373E0,9.920039E0,1.0828072E1,0E0,0E0,0E0,0E0,0E0,0E0,0E0,0E0,0E0,0E0,0E0,0E0,0E0,0E0,0E0,0E0],"parents":[2147483647,0,0,1,1,2,2,3,3,4,4,5,5,6,6,7,7,8,8,9,9,10,10,11,11,12,12,13,13,14,14],"right_children":[2,4,6,8,10,12,14,16,18,20,22,24,26,28,30,-1,-1,-1,-1,-1,-1,-1,-1,-1,-1,-1,-1,-1,-1,-1,-1],"split_conditions":[2E0,1E1,3E0,7E0,3E0,6.780807E-2,2.643966E-2,-6.8165146E-2,-4.488089E-2,1.02569796E-1,2.8191268E-2,1.2E1,-2.6295254E-2,4.073864E-2,4.0823918E-2,4.3871067E-3,-1.161824E-2,3.8891835E-3,-6.4263204E-3,2.6799291E-3,-1.3594851E-2,9.184948E-3,-1.2787114E-3,-1.0723695E-2,-4.904535E-3,8.590707E-3,-1.7958666E-3,8.598663E-3,-2.835304E-4,-4.768249E-3,8.365126E-3],"split_indices":[25,10,0,13,0,53219,52717,52674,53037,48601,52693,13,52900,52990,53057,0,0,0,0,0,0,0,0,0,0,0,0,0,0,0,0],"split_type":[0,0,0,0,0,0,0,0,0,0,0,0,0,0,0,0,0,0,0,0,0,0,0,0,0,0,0,0,0,0,0],"sum_hessian":[1.5095635E3,9.8278723E2,5.2677625E2,1.2664523E2,8.56142E2,4.4094016E2,8.5836105E1,6.3830738E1,6.28145E1,7.158508E2,1.402912E2,4.105955E2,3.0344671E1,5.1431564E1,3.4404545E1,3.941224E0,5.9889515E1,1.9338123E1,4.3476376E1,7.1236005E2,3.4907398E0,1.212571E2,1.9034094E1,5.0726383E1,3.5986908E2,1.1607301E1,1.8737371E1,3.1676777E1,1.9754786E1,2.7904606E1,6.4999366E0],"tree_param":{"num_deleted":"0","num_feature":"53248","num_nodes":"31","size_leaf_vector":"1"}},{"base_weights":[-1.4395108E-4,2.0600918E-1,-3.844504E-1,-6.9285065E-1,3.4003234E-1,-5.051737E-1,2.325542E-1,-1.0439287E0,-3.186956E-1,2.5450528E-1,7.685674E-1,-5.6072336E-1,2.34269E-1,5.207109E-1,-1.991562E-1,4.355628E-3,-1.1512451E-2,-7.875895E-3,1.6899183E-3,2.6962117E-3,-9.206154E-3,9.098009E-3,-1.266868E-3,-3.3521566E-3,-7.240468E-3,-7.887673E-3,4.7714803E-3,-5.748341E-4,8.354927E-3,-8.871003E-3,2.2150895E-3],"categories":[],"categories_nodes":[],"categories_segments":[],"categories_sizes":[],"default_left":[0,0,0,0,0,0,0,0,0,0,0,0,0,0,0,0,0,0,0,0,0,0,0,0,0,0,0,0,0,0,0],"id":10,"left_children":[1,3,5,7,9,11,13,15,17,19,21,23,25,27,29,-1,-1,-1,-1,-1,-1,-1,-1,-1,-1,-1,-1,-1,-1,-1,-1],"loss_changes":[1.198358E2,1.1887838E2,3.954695E1,1.619141E1,3.1035202E1,1.8400276E1,1.1051119E1,1.1190109E1,1.496711E1,1.3049072E1,1.8172813E1,1.470517E1,8.445381E0,9.782319E0,1.0751158E1,0E0,0E0,0E0,0E0,0E0,0E0,0E0,0E0,0E0,0E0,0E0,0E0,0E0,0E0,0E0,0E0],"parents":[2147483647,0,0,1,1,2,2,3,3,4,4,5,5,6,6,7,7,8,8,9,9,10,10,11,11,12,12,13,13,14,14],"right_children":[2,4,6,8,10,12,14,16,18,20,22,24,26,28,30,-1,-1,-1,-1,-1,-1,-1,-1,-1,-1,-1,-1,-1,-1,-1,-1],"split_conditions":[2E0,1E1,3E0,7E0,3E0,6.780807E-2,2.643966E-2,-6.8165146E-2,-2.9912774E-2,3.416587E-2,2.8191268E-2,-2.6510281E-2,1.0505289E-2,2.8259493E-2,-4.157513E-2,4.355628E-3,-1.1512451E-2,-7.875895E-3,1.6899183E-3,2.6962117E-3,-9.206154E-3,9.098009E-3,-1.266868E-3,-3.3521566E-3,-7.240468E-3,-7.887673E-3,4.7714803E-3,-5.748341E-4,8.354927E-3,-8.871003E-3,2.2150895E-3],"split_indices":[25,10,0,13,0,53219,52717,52674,53199,52838,52693,52739,52718,53204,52795,0,0,0,0,0,0,0,0,0,0,0,0,0,0,0,0],"split_type":[0,0,0,0,0,0,0,0,0,0,0,0,0,0,0,0,0,0,0,0,0,0,0,0,0,0,0,0,0,0,0],"sum_hessian":[1.5093574E3,9.8266376E2,5.266936E2,1.26598526E2,8.5606525E2,4.4086734E2,8.582629E1,6.3790264E1,6.2808258E1,7.15825E2,1.402402E2,4.1052496E2,3.0342371E1,5.1424213E1,3.440207E1,3.9408512E0,5.9849415E1,3.165538E1,3.115288E1,7.079593E2,7.8657336E0,1.2120627E2,1.903394E1,1.7461607E2,2.3590889E2,5.0956764E0,2.5246695E1,1.8447702E1,3.297651E1,1.2513064E1,2.1889006E1],"tree_param":{"num_deleted":"0","num_feature":"53248","num_nodes":"31","size_leaf_vector":"1"}},{"base_weights":[-1.6778789E-4,2.0395792E-1,-3.8070872E-1,-6.863549E-1,3.3666614E-1,-5.0025743E-1,2.3027267E-1,-1.0343407E0,-3.1567997E-1,2.51955E-1,7.612576E-1,-5.552557E-1,2.317731E-1,5.157999E-1,-1.9743744E-1,4.3244064E-3,-1.1408305E-2,3.8754956E-3,-6.3326266E-3,3.2650894E-3,8.714337E-5,9.012229E-3,-1.2551348E-3,-1.0573177E-2,-4.8015015E-3,8.491286E-3,-1.8021691E-3,-5.561124E-3,6.7785964E-3,-4.7059683E-3,8.310532E-3],"categories":[],"categories_nodes":[],"categories_segments":[],"categories_sizes":[],"default_left":[0,0,0,0,0,0,0,0,0,0,0,0,0,0,0,0,0,0,0,0,0,0,0,0,0,0,0,0,0,0,0],"id":11,"left_children":[1,3,5,7,9,11,13,15,17,19,21,23,25,27,29,-1,-1,-1,-1,-1,-1,-1,-1,-1,-1,-1,-1,-1,-1,-1,-1],"loss_changes":[1.1747731E2,1.16576355E2,3.8773575E1,1.5891815E1,3.0452583E1,1.8032242E1,1.0847465E1,1.1002113E1,1.4752984E1,1.2970085E1,1.7832733E1,1.4618492E1,8.394486E0,9.769623E0,1.0635861E1,0E0,0E0,0E0,0E0,0E0,0E0,0E0,0E0,0E0,0E0,0E0,0E0,0E0,0E0,0E0,0E0],"parents":[2147483647,0,0,1,1,2,2,3,3,4,4,5,5,6,6,7,7,8,8,9,9,10,10,11,11,12,12,13,13,14,14],"right_children":[2,4,6,8,10,12,14,16,18,20,22,24,26,28,30,-1,-1,-1,-1,-1,-1,-1,-1,-1,-1,-1,-1,-1,-1,-1,-1],"split_conditions":[2E0,1E1,3E0,7E0,3E0,6.780807E-2,2.643966E-2,-6.8165146E-2,-4.488089E-2,1.5360565E-2,2.8191268E-2,1.2E1,-2.6295254E-2,-4.686692E-3,4.0823918E-2,4.3244064E-3,-1.1408305E-2,3.8754956E-3,-6.3326266E-3,3.2650894E-3,8.714337E-5,9.012229E-3,-1.2551348E-3,-1.0573177E-2,-4.8015015E-3,8.491286E-3,-1.8021691E-3,-5.561124E-3,6.7785964E-3,-4.7059683E-3,8.310532E-3],"split_indices":[25,10,0,13,0,53219,52717,52674,53037,53014,52693,13,52900,52891,53057,0,0,0,0,0,0,0,0,0,0,0,0,0,0,0,0],"split_type":[0,0,0,0,0,0,0,0,0,0,0,0,0,0,0,0,0,0,0,0,0,0,0,0,0,0,0,0,0,0,0],"sum_hessian":[1.5091321E3,9.8252814E2,5.2660394E2,1.2654588E2,8.5598224E2,4.4079132E2,8.5812645E1,6.374618E1,6.2799698E1,7.1579755E2,1.4018468E2,4.1045236E2,3.0338938E1,5.141459E1,3.439806E1,3.9404435E0,5.9805737E1,1.933671E1,4.346299E1,5.471652E2,1.6863231E2,1.2115091E2,1.9033773E1,5.0685333E1,3.5976703E2,1.1603131E1,1.8735807E1,6.1923265E0,4.522226E1,2.7899145E1,6.4989147E0],"tree_param":{"num_deleted":"0","num_feature":"53248","num_nodes":"31","size_leaf_vector":"1"}},{"base_weights":[-1.6792944E-4,2.019513E-1,-3.7698486E-1,-6.7989033E-1,3.3335507E-1,-4.9538243E-1,2.2807574E-1,-1.0248964E0,-3.126021E-1,2.49454E-1,7.540408E-1,-5.4987204E-1,2.2975998E-1,5.1075417E-1,-1.9530135E-1,4.2934353E-3,-1.130575E-2,-7.769006E-3,1.6996064E-3,2.7158915E-3,-5.491217E-3,8.927577E-3,-1.2435109E-3,-3.2653564E-3,-7.116814E-3,4.832102E-3,-7.401582E-3,6.9501874E-4,9.371696E-3,-8.77369E-3,2.2145296E-3],"categories":[],"categories_nodes":[],"categories_segments":[],"categories_sizes":[],"default_left":[0,0,0,0,0,0,0,0,0,0,0,0,0,0,0,0,0,0,0,0,0,0,0,0,0,0,0,0,0,0,0],"id":12,"left_children":[1,3,5,7,9,11,13,15,17,19,21,23,25,27,29,-1,-1,-1,-1,-1,-1,-1,-1,-1,-1,-1,-1,-1,-1,-1,-1],"loss_changes":[1.1516586E2,1.14315094E2,3.802131E1,1.5604225E1,2.9880013E1,1.7694298E1,1.0629156E1,1.0818085E1,1.4663614E1,1.2874802E1,1.7500046E1,1.4431717E1,8.336926E0,9.7560005E0,1.0560354E1,0E0,0E0,0E0,0E0,0E0,0E0,0E0,0E0,0E0,0E0,0E0,0E0,0E0,0E0,0E0,0E0],"parents":[2147483647,0,0,1,1,2,2,3,3,4,4,5,5,6,6,7,7,8,8,9,9,10,10,11,11,12,12,13,13,14,14],"right_children":[2,4,6,8,10,12,14,16,18,20,22,24,26,28,30,-1,-1,-1,-1,-1,-1,-1,-1,-1,-1,-1,-1,-1,-1,-1,-1],"split_conditions":[2E0,1E1,3E0,7E0,3E0,6.780807E-2,2.643966E-2,-6.8165146E-2,-2.9912774E-2,1.307904E-1,2.8191268E-2,-2.6510281E-2,1.1591745E-1,-2.791119E-2,-4.157513E-2,4.2934353E-3,-1.130575E-2,-7.769006E-3,1.6996064E-3,2.7158915E-3,-5.491217E-3,8.927577E-3,-1.2435109E-3,-3.2653564E-3,-7.116814E-3,4.832102E-3,-7.401582E-3,6.9501874E-4,9.371696E-3,-8.77369E-3,2.2145296E-3],"split_indices":[25,10,0,13,0,53219,52717,52674,53199,31412,52693,52739,52789,52970,52795,0,0,0,0,0,0,0,0,0,0,0,0,0,0,0,0],"split_type":[0,0,0,0,0,0,0,0,0,0,0,0,0,0,0,0,0,0,0,0,0,0,0,0,0,0,0,0,0,0,0],"sum_hessian":[1.5088889E3,9.823833E2,5.265057E2,1.2649074E2,8.558926E2,4.40706E2,8.5799644E1,6.36986E1,6.279214E1,7.157678E2,1.4012476E2,4.1036987E2,3.0336113E1,5.1404655E1,3.4394993E1,3.940002E0,5.97586E1,3.1641006E1,3.1151134E1,6.975481E2,1.821975E1,1.2109116E2,1.903359E1,1.7456819E2,2.358017E2,2.4729763E1,5.6063514E0,2.6235407E1,2.5169249E1,1.25073395E1,2.1887653E1],"tree_param":{"num_deleted":"0","num_feature":"53248","num_nodes":"31","size_leaf_vector":"1"}},{"base_weights":[-1.832707E-4,1.9995017E-1,-3.7331173E-1,-6.7355925E-1,3.3006626E-1,-4.9057183E-1,2.2590281E-1,-1.0155915E0,-3.0964994E-1,2.4696329E-1,7.469151E-1,-5.4452586E-1,2.2732793E-1,5.060406E-1,-1.9361989E-1,4.2627146E-3,-1.1204741E-2,3.861503E-3,-6.240758E-3,2.577802E-3,-1.3543468E-2,8.844032E-3,-1.231996E-3,-1.0426281E-2,-4.70077E-3,-7.834463E-3,4.6759755E-3,-2.3315223E-3,7.467606E-3,-4.644769E-3,8.25636E-3],"categories":[],"categories_nodes":[],"categories_segments":[],"categories_sizes":[],"default_left":[0,0,0,0,0,0,0,0,0,0,0,0,0,0,0,0,0,0,0,0,0,0,0,0,0,0,0,0,0,0,0],"id":13,"left_children":[1,3,5,7,9,11,13,15,17,19,21,23,25,27,29,-1,-1,-1,-1,-1,-1,-1,-1,-1,-1,-1,-1,-1,-1,-1,-1],"loss_changes":[1.128991E2,1.1210716E2,3.7285385E1,1.5319042E1,2.9321861E1,1.7342255E1,1.04363985E1,1.0637894E1,1.4448805E1,1.2837421E1,1.7174515E1,1.4383842E1,8.2489805E0,9.724645E0,1.0447475E1,0E0,0E0,0E0,0E0,0E0,0E0,0E0,0E0,0E0,0E0,0E0,0E0,0E0,0E0,0E0,0E0],"parents":[2147483647,0,0,1,1,2,2,3,3,4,4,5,5,6,6,7,7,8,8,9,9,10,10,11,11,12,12,13,13,14,14],"right_children":[2,4,6,8,10,12,14,16,18,20,22,24,26,28,30,-1,-1,-1,-1,-1,-1,-1,-1,-1,-1,-1,-1,-1,-1,-1,-1],"split_conditions":[2E0,1E1,3E0,7E0,3E0,6.780807E-2,2.643966E-2,-6.8165146E-2,-4.488089E-2,1.02569796E-1,2.8191268E-2,1.2E1,1.0505289E-2,-5.5079002E-2,4.0823918E-2,4.2627146E-3,-1.1204741E-2,3.861503E-3,-6.240758E-3,2.577802E-3,-1.3543468E-2,8.844032E-3,-1.231996E-3,-1.0426281E-2,-4.70077E-3,-7.834463E-3,4.6759755E-3,-2.3315223E-3,7.467606E-3,-4.644769E-3,8.25636E-3],"split_indices":[25,10,0,13,0,53219,52717,52674,53037,48601,52693,13,52718,52898,53057,0,0,0,0,0,0,0,0,0,0,0,0,0,0,0,0],"split_type":[0,0,0,0,0,0,0,0,0,0,0,0,0,0,0,0,0,0,0,0,0,0,0,0,0,0,0,0,0,0,0],"sum_hessian":[1.5086316E3,9.822267E2,5.264049E2,1.26429955E2,8.557967E2,4.406191E2,8.5785774E1,6.3647633E1,6.2782322E1,7.1573615E2,1.4006058E2,4.102855E2,3.0333614E1,5.139536E1,3.439041E1,3.939527E0,5.9708107E1,1.9335077E1,4.3447243E1,7.1224585E2,3.4902627E0,1.2102718E2,1.9033394E1,5.063828E1,3.5964722E2,5.0945306E0,2.5239084E1,1.2535037E1,3.886032E1,2.789275E1,6.49766E0],"tree_param":{"num_deleted":"0","num_feature":"53248","num_nodes":"31","size_leaf_vector":"1"}},{"base_weights":[-2.0432999E-4,1.979638E-1,-3.6968738E-1,-6.672566E-1,3.2679823E-1,-4.8583883E-1,2.2382194E-1,-1.0064228E0,-3.066359E-1,2.4448124E-1,7.3987865E-1,-5.392619E-1,2.2490361E-1,5.0121665E-1,-1.9152427E-1,2.7060355E-3,-1.1278379E-2,-7.6642227E-3,1.7087109E-3,2.594611E-3,-9.185407E-3,8.761568E-3,-1.2205878E-3,-3.1805583E-3,-6.995915E-3,8.363178E-3,-1.8257649E-3,8.320663E-3,-4.565636E-4,-8.67813E-3,2.2136492E-3],"categories":[],"categories_nodes":[],"categories_segments":[],"categories_sizes":[],"default_left":[0,0,0,0,0,0,0,0,0,0,0,0,0,0,0,0,0,0,0,0,0,0,0,0,0,0,0,0,0,0,0],"id":14,"left_children":[1,3,5,7,9,11,13,15,17,19,21,23,25,27,29,-1,-1,-1,-1,-1,-1,-1,-1,-1,-1,-1,-1,-1,-1,-1,-1],"loss_changes":[1.1067802E2,1.09930756E2,3.6573685E1,1.5045223E1,2.8777863E1,1.699691E1,1.02298355E1,1.0636276E1,1.4367319E1,1.2786598E1,1.6855965E1,1.4165482E1,8.224383E0,9.704049E0,1.03735485E1,0E0,0E0,0E0,0E0,0E0,0E0,0E0,0E0,0E0,0E0,0E0,0E0,0E0,0E0,0E0,0E0],"parents":[2147483647,0,0,1,1,2,2,3,3,4,4,5,5,6,6,7,7,8,8,9,9,10,10,11,11,12,12,13,13,14,14],"right_children":[2,4,6,8,10,12,14,16,18,20,22,24,26,28,30,-1,-1,-1,-1,-1,-1,-1,-1,-1,-1,-1,-1,-1,-1,-1,-1],"split_conditions":[2E0,1E1,3E0,7E0,3E0,6.780807E-2,2.643966E-2,-2.2689937E-2,-2.9912774E-2,3.416587E-2,2.8191268E-2,-2.6510281E-2,-2.6295254E-2,4.073864E-2,-4.157513E-2,2.7060355E-3,-1.1278379E-2,-7.6642227E-3,1.7087109E-3,2.594611E-3,-9.185407E-3,8.761568E-3,-1.2205878E-3,-3.1805583E-3,-6.995915E-3,8.363178E-3,-1.8257649E-3,8.320663E-3,-4.565636E-4,-8.67813E-3,2.2136492E-3],"split_indices":[25,10,0,13,0,53219,52717,52628,53199,52838,52693,52739,52900,52990,52795,0,0,0,0,0,0,0,0,0,0,0,0,0,0,0,0],"split_type":[0,0,0,0,0,0,0,0,0,0,0,0,0,0,0,0,0,0,0,0,0,0,0,0,0,0,0,0,0,0,0],"sum_hessian":[1.5083528E3,9.82061E2,5.262919E2,1.26366905E2,8.556941E2,4.405212E2,8.5770645E1,6.359339E1,6.2773514E1,7.157018E2,1.399923E2,4.101917E2,3.0329496E1,5.1383865E1,3.438678E1,5.2897606E0,5.830363E1,3.1624483E1,3.114903E1,7.078361E2,7.8656645E0,1.2095911E2,1.9033186E1,1.745144E2,2.3567729E2,1.1596307E1,1.873319E1,3.1641726E1,1.9742142E1,1.2500752E1,2.1886026E1],"tree_param":{"num_deleted":"0","num_feature":"53248","num_nodes":"31","size_leaf_vector":"1"}},{"base_weights":[-2.1887629E-4,1.9599614E-1,-3.6607876E-1,-6.610658E-1,3.235719E-1,-4.8110312E-1,2.2163719E-1,-9.973145E-1,-3.0374566E-1,2.4203332E-1,7.329292E-1,-5.34033E-1,2.2295588E-1,4.9651143E-1,-1.8987915E-1,4.31293E-3,-1.1016641E-2,3.8472132E-3,-6.1506564E-3,2.9332843E-3,-1.0154598E-3,8.680158E-3,-1.2092883E-3,-1.0282856E-2,-4.6022786E-3,4.73399E-3,-7.342409E-3,-1.6780682E-3,7.652409E-3,-1.0605333E-2,1.320673E-3],"categories":[],"categories_nodes":[],"categories_segments":[],"categories_sizes":[],"default_left":[0,0,0,0,0,0,0,0,0,0,0,0,0,0,0,0,0,0,0,0,0,0,0,0,0,0,0,0,0,0,0],"id":15,"left_children":[1,3,5,7,9,11,13,15,17,19,21,23,25,27,29,-1,-1,-1,-1,-1,-1,-1,-1,-1,-1,-1,-1,-1,-1,-1,-1],"loss_changes":[1.0849235E2,1.0781144E2,3.5857727E1,1.47711525E1,2.8244583E1,1.6678291E1,1.0041909E1,1.0476028E1,1.4151585E1,1.270314E1,1.654422E1,1.4155655E1,8.124745E0,9.691351E0,1.0360708E1,0E0,0E0,0E0,0E0,0E0,0E0,0E0,0E0,0E0,0E0,0E0,0E0,0E0,0E0,0E0,0E0],"parents":[2147483647,0,0,1,1,2,2,3,3,4,4,5,5,6,6,7,7,8,8,9,9,10,10,11,11,12,12,13,13,14,14],"right_children":[2,4,6,8,10,12,14,16,18,20,22,24,26,28,30,-1,-1,-1,-1,-1,-1,-1,-1,-1,-1,-1,-1,-1,-1,-1,-1],"split_conditions":[2E0,1E1,3E0,7E0,3E0,6.780807E-2,2.643966E-2,-6.8165146E-2,-4.488089E-2,1.4890452E-2,2.8191268E-2,1.2E1,1.1591745E-1,4.9405538E-2,-4.381422E-2,4.31293E-3,-1.1016641E-2,3.8472132E-3,-6.1506564E-3,2.9332843E-3,-1.0154598E-3,8.680158E-3,-1.2092883E-3,-1.0282856E-2,-4.6022786E-3,4.73399E-3,-7.342409E-3,-1.6780682E-3,7.652409E-3,-1.0605333E-2,1.320673E-3],"split_indices":[25,10,0,13,0,53219,52717,52674,53037,52798,52693,13,52789,52789,52752,0,0,0,0,0,0,0,0,0,0,0,0,0,0,0,0],"split_type":[0,0,0,0,0,0,0,0,0,0,0,0,0,0,0,0,0,0,0,0,0,0,0,0,0,0,0,0,0,0,0],"sum_hessian":[1.5080686E3,9.818916E2,5.2617706E2,1.2630566E2,8.5558594E2,4.404224E2,8.575465E1,6.354317E1,6.2762486E1,7.156659E2,1.3992001E2,4.1009634E2,3.0326044E1,5.1373005E1,3.438164E1,3.9402843E0,5.9602886E1,1.9333231E1,4.3429253E1,6.231434E2,9.252256E1,1.2088705E2,1.9032967E1,5.058554E1,3.595108E2,2.4720688E1,5.6053576E0,1.4851142E1,3.6521862E1,8.436325E0,2.5945316E1],"tree_param":{"num_deleted":"0","num_feature":"53248","num_nodes":"31","size_leaf_vector":"1"}},{"base_weights":[-2.3786198E-4,1.9407173E-1,-3.625623E-1,-6.54915E-1,3.2039377E-1,-4.7647047E-1,2.1938507E-1,-9.883986E-1,-3.0079377E-1,2.396277E-1,7.260652E-1,-5.288843E-1,2.2059445E-1,4.9179888E-1,-1.883511E-1,2.7722877E-3,-1.1091076E-2,-7.561475E-3,1.7172397E-3,3.496112E-3,7.773467E-4,8.599779E-3,-1.198093E-3,-1.0190323E-2,-4.5572976E-3,8.261633E-3,-1.8262654E-3,-5.6894966E-3,6.529184E-3,-4.564952E-3,8.19864E-3],"categories":[],"categories_nodes":[],"categories_segments":[],"categories_sizes":[],"default_left":[0,0,0,0,0,0,0,0,0,0,0,0,0,0,0,0,0,0,0,0,0,0,0,0,0,0,0,0,0,0,0],"id":16,"left_children":[1,3,5,7,9,11,13,15,17,19,21,23,25,27,29,-1,-1,-1,-1,-1,-1,-1,-1,-1,-1,-1,-1,-1,-1,-1,-1],"loss_changes":[1.06379425E2,1.0572631E2,3.515348E1,1.450988E1,2.7720749E1,1.6347916E1,9.859499E0,1.0472031E1,1.4077952E1,1.2685406E1,1.6239067E1,1.3910606E1,8.06111E0,9.600141E0,1.0225029E1,0E0,0E0,0E0,0E0,0E0,0E0,0E0,0E0,0E0,0E0,0E0,0E0,0E0,0E0,0E0,0E0],"parents":[2147483647,0,0,1,1,2,2,3,3,4,4,5,5,6,6,7,7,8,8,9,9,10,10,11,11,12,12,13,13,14,14],"right_children":[2,4,6,8,10,12,14,16,18,20,22,24,26,28,30,-1,-1,-1,-1,-1,-1,-1,-1,-1,-1,-1,-1,-1,-1,-1,-1],"split_conditions":[2E0,1E1,3E0,7E0,3E0,6.780807E-2,2.643966E-2,-2.2689937E-2,-2.9912774E-2,5.5140047E-3,2.8191268E-2,1.2E1,-2.6295254E-2,-4.686692E-3,4.0823918E-2,2.7722877E-3,-1.1091076E-2,-7.561475E-3,1.7172397E-3,3.496112E-3,7.773467E-4,8.599779E-3,-1.198093E-3,-1.0190323E-2,-4.5572976E-3,8.261633E-3,-1.8262654E-3,-5.6894966E-3,6.529184E-3,-4.564952E-3,8.19864E-3],"split_indices":[25,10,0,13,0,53219,52717,52628,53199,52810,52693,13,52900,52891,53057,0,0,0,0,0,0,0,0,0,0,0,0,0,0,0,0],"split_type":[0,0,0,0,0,0,0,0,0,0,0,0,0,0,0,0,0,0,0,0,0,0,0,0,0,0,0,0,0,0,0],"sum_hessian":[1.5077662E3,9.8170953E2,5.260567E2,1.26235565E2,8.5547394E2,4.4031485E2,8.574184E1,6.348308E1,6.2752483E1,7.1563007E2,1.3984389E2,4.09992E2,3.0322824E1,5.1362137E1,3.4379704E1,5.2860165E0,5.8197067E1,3.1605904E1,3.114658E1,4.2472934E2,2.9090073E2,1.2081115E2,1.9032734E1,5.054823E1,3.594438E2,1.1590507E1,1.8732317E1,6.190274E0,4.5171864E1,2.7883776E1,6.495926E0],"tree_param":{"num_deleted":"0","num_feature":"53248","num_nodes":"31","size_leaf_vector":"1"}},{"base_weights":[-2.4138465E-4,1.9216454E-1,-3.590394E-1,-6.4887327E-1,3.172554E-1,-4.7185856E-1,2.1730062E-1,-9.795395E-1,-2.9796392E-1,2.372543E-1,7.192848E-1,-5.2379227E-1,2.1868823E-1,-5.572285E-1,3.5869753E-1,4.361514E-3,-1.08338855E-2,3.832644E-3,-6.0622725E-3,3.1095915E-3,-1.9141513E-5,8.520409E-3,-1.1870014E-3,-3.0465606E-3,-6.8273097E-3,-7.7931113E-3,4.563488E-3,9.172116E-3,-9.691039E-3,-1.3208516E-3,6.297007E-3],"categories":[],"categories_nodes":[],"categories_segments":[],"categories_sizes":[],"default_left":[0,0,0,0,0,0,0,0,0,0,0,0,0,0,0,0,0,0,0,0,0,0,0,0,0,0,0,0,0,0,0],"id":17,"left_children":[1,3,5,7,9,11,13,15,17,19,21,23,25,27,29,-1,-1,-1,-1,-1,-1,-1,-1,-1,-1,-1,-1,-1,-1,-1,-1],"loss_changes":[1.042903E2,1.0369577E2,3.4473618E1,1.4248203E1,2.720726E1,1.6042915E1,9.83243E0,1.0318974E1,1.3861134E1,1.2672607E1,1.5940346E1,1.3917397E1,8.04812E0,9.806246E0,1.01206455E1,0E0,0E0,0E0,0E0,0E0,0E0,0E0,0E0,0E0,0E0,0E0,0E0,0E0,0E0,0E0,0E0],"parents":[2147483647,0,0,1,1,2,2,3,3,4,4,5,5,6,6,7,7,8,8,9,9,10,10,11,11,12,12,13,13,14,14],"right_children":[2,4,6,8,10,12,14,16,18,20,22,24,26,28,30,-1,-1,-1,-1,-1,-1,-1,-1,-1,-1,-1,-1,-1,-1,-1,-1],"split_conditions":[2E0,1E1,3E0,7E0,3E0,6.780807E-2,-2.5909084E-3,-6.8165146E-2,-4.488089E-2,1.5360565E-2,2.8191268E-2,-2.6510281E-2,1.0505289E-2,2.259634E-2,-3.8905382E-2,4.361514E-3,-1.08338855E-2,3.832644E-3,-6.0622725E-3,3.1095915E-3,-1.9141513E-5,8.520409E-3,-1.1870014E-3,-3.0465606E-3,-6.8273097E-3,-7.7931113E-3,4.563488E-3,9.172116E-3,-9.691039E-3,-1.3208516E-3,6.297007E-3],"split_indices":[25,10,0,13,0,53219,52828,52674,53037,53014,52693,52739,52718,52800,52845,0,0,0,0,0,0,0,0,0,0,0,0,0,0,0,0],"split_type":[0,0,0,0,0,0,0,0,0,0,0,0,0,0,0,0,0,0,0,0,0,0,0,0,0,0,0,0,0,0,0],"sum_hessian":[1.5074493E3,9.815238E2,5.2592554E2,1.2616744E2,8.553564E2,4.4020117E2,8.5724396E1,6.342713E1,6.2740307E1,7.1559235E2,1.3976404E2,4.0988232E2,3.0318853E1,1.24436E1,7.32808E1,3.9409237E0,5.948621E1,1.9331173E1,4.3409134E1,5.4699274E2,1.6859958E2,1.2073154E2,1.9032492E1,1.7441399E2,2.3546832E2,5.092923E0,2.5225931E1,2.262192E0,1.0181408E1,2.6211704E1,4.706909E1],"tree_param":{"num_deleted":"0","num_feature":"53248","num_nodes":"31","size_leaf_vector":"1"}},{"base_weights":[-2.4670703E-4,1.9028355E-1,-3.555584E-1,-6.428681E-1,3.1414616E-1,-4.673092E-1,2.1521084E-1,-9.7086394E-1,-2.950724E-1,2.3490049E-1,7.125861E-1,-5.187326E-1,2.1635072E-1,-5.515959E-1,3.5523647E-1,2.8366502E-3,-1.0909086E-2,-7.460701E-3,1.7252138E-3,2.456367E-3,-1.35096265E-2,8.442025E-3,-1.1760131E-3,-1.0052191E-2,-4.461993E-3,4.638398E-3,-7.2834375E-3,9.1183E-3,-9.6052075E-3,-1.3083456E-3,6.2370775E-3],"categories":[],"categories_nodes":[],"categories_segments":[],"categories_sizes":[],"default_left":[0,0,0,0,0,0,0,0,0,0,0,0,0,0,0,0,0,0,0,0,0,0,0,0,0,0,0,0,0,0,0],"id":18,"left_children":[1,3,5,7,9,11,13,15,17,19,21,23,25,27,29,-1,-1,-1,-1,-1,-1,-1,-1,-1,-1,-1,-1,-1,-1,-1,-1],"loss_changes":[1.022484E2,1.0169374E2,3.380954E1,1.3998665E1,2.670517E1,1.5723022E1,9.63903E0,1.0313034E1,1.3795311E1,1.2595863E1,1.564785E1,1.3694397E1,7.9184685E0,9.663563E0,9.929221E0,0E0,0E0,0E0,0E0,0E0,0E0,0E0,0E0,0E0,0E0,0E0,0E0,0E0,0E0,0E0,0E0],"parents":[2147483647,0,0,1,1,2,2,3,3,4,4,5,5,6,6,7,7,8,8,9,9,10,10,11,11,12,12,13,13,14,14],"right_children":[2,4,6,8,10,12,14,16,18,20,22,24,26,28,30,-1,-1,-1,-1,-1,-1,-1,-1,-1,-1,-1,-1,-1,-1,-1,-1],"split_conditions":[2E0,1E1,3E0,7E0,3E0,6.780807E-2,-2.5909084E-3,-2.2689937E-2,-2.9912774E-2,1.02569796E-1,2.8191268E-2,1.2E1,1.1591745E-1,2.259634E-2,-3.8905382E-2,2.8366502E-3,-1.0909086E-2,-7.460701E-3,1.7252138E-3,2.456367E-3,-1.35096265E-2,8.442025E-3,-1.1760131E-3,-1.0052191E-2,-4.461993E-3,4.638398E-3,-7.2834375E-3,9.1183E-3,-9.6052075E-3,-1.3083456E-3,6.2370775E-3],"split_indices":[25,10,0,13,0,53219,52828,52628,53199,48601,52693,13,52789,52800,52845,0,0,0,0,0,0,0,0,0,0,0,0,0,0,0,0],"split_type":[0,0,0,0,0,0,0,0,0,0,0,0,0,0,0,0,0,0,0,0,0,0,0,0,0,0,0,0,0,0,0],"sum_hessian":[1.5071257E3,9.813224E2,5.2580334E2,1.26090744E2,8.552316E2,4.4008606E2,8.571726E1,6.3361584E1,6.2729164E1,7.15551E2,1.3968059E2,4.0977206E2,3.0314013E1,1.2444702E1,7.327256E1,5.2822137E0,5.807937E1,3.1585371E1,3.1143793E1,7.1206116E2,3.4898968E0,1.2064836E2,1.9032236E1,5.0486717E1,3.5928534E2,2.4709923E1,5.6040907E0,2.261644E0,1.0183059E1,2.6211962E1,4.70606E1],"tree_param":{"num_deleted":"0","num_feature":"53248","num_nodes":"31","size_leaf_vector":"1"}},{"base_weights":[-2.7532823E-4,1.883921E-1,-3.521294E-1,-6.3696927E-1,3.1104466E-1,-4.628265E-1,2.1314499E-1,-8.452946E-1,-1.0373711E-1,2.3254102E-1,7.0596766E-1,-3.5667488E-1,-8.059953E-1,4.81939E-1,-1.8882756E-1,8.582606E-3,-9.243672E-3,3.1104453E-3,-6.583527E-3,2.5442555E-3,-5.556542E-3,8.364605E-3,-1.1651252E-3,-5.0462126E-3,3.355294E-5,-2.55092E-3,-1.0628905E-2,4.6305326E-4,9.043696E-3,-8.590772E-3,2.2014359E-3],"categories":[],"categories_nodes":[],"categories_segments":[],"categories_sizes":[],"default_left":[0,0,0,0,0,0,0,0,0,0,0,0,0,0,0,0,0,0,0,0,0,0,0,0,0,0,0,0,0,0,0],"id":19,"left_children":[1,3,5,7,9,11,13,15,17,19,21,23,25,27,29,-1,-1,-1,-1,-1,-1,-1,-1,-1,-1,-1,-1,-1,-1,-1,-1],"loss_changes":[1.00241234E2,9.9737595E1,3.31603E1,1.3938797E1,2.6217018E1,1.5534088E1,9.588525E0,1.3501678E1,9.007145E0,1.2549789E1,1.5361458E1,1.8167133E1,1.402182E1,9.56475E0,1.0181507E1,0E0,0E0,0E0,0E0,0E0,0E0,0E0,0E0,0E0,0E0,0E0,0E0,0E0,0E0,0E0,0E0],"parents":[2147483647,0,0,1,1,2,2,3,3,4,4,5,5,6,6,7,7,8,8,9,9,10,10,11,11,12,12,13,13,14,14],"right_children":[2,4,6,8,10,12,14,16,18,20,22,24,26,28,30,-1,-1,-1,-1,-1,-1,-1,-1,-1,-1,-1,-1,-1,-1,-1,-1],"split_conditions":[2E0,1E1,3E0,1.3164981E-2,3E0,-1.6940197E-2,2.643966E-2,-9.6242145E-2,-1.416272E-2,1.307904E-1,2.8191268E-2,-1.773865E-2,-3.1862978E-2,-2.791119E-2,-4.157513E-2,8.582606E-3,-9.243672E-3,3.1104453E-3,-6.583527E-3,2.5442555E-3,-5.556542E-3,8.364605E-3,-1.1651252E-3,-5.0462126E-3,3.355294E-5,-2.55092E-3,-1.0628905E-2,4.6305326E-4,9.043696E-3,-8.590772E-3,2.2014359E-3],"split_indices":[25,10,0,52579,0,52765,52717,52813,52724,31412,52693,52876,52739,52970,52795,0,0,0,0,0,0,0,0,0,0,0,0,0,0,0,0],"split_type":[0,0,0,0,0,0,0,0,0,0,0,0,0,0,0,0,0,0,0,0,0,0,0,0,0,0,0,0,0,0,0],"sum_hessian":[1.506789E3,9.811174E2,5.2567163E2,1.2601616E2,8.551012E2,4.3996292E2,8.57087E1,8.9848434E1,3.6167725E1,7.155075E2,1.3959367E2,3.3858093E2,1.0138199E2,5.1333206E1,3.43755E1,3.2736878E0,8.6574745E1,2.0966164E1,1.5201562E1,6.9728973E2,1.8217812E1,1.205617E2,1.9031971E1,2.3974031E2,9.8840614E1,3.3315895E1,6.806609E1,2.620762E1,2.5125584E1,1.24936695E1,2.188183E1],"tree_param":{"num_deleted":"0","num_feature":"53248","num_nodes":"31","size_leaf_vector":"1"}},{"base_weights":[-2.8699968E-4,1.8654425E-1,-3.487316E-1,-6.309343E-1,3.0798945E-1,-4.5837224E-1,2.1112429E-1,-9.5631826E-1,-2.8644395E-1,2.302224E-1,6.994276E-1,-5.092601E-1,2.1761027E-1,-5.483789E-1,3.4990254E-1,4.4514867E-3,-1.0597829E-2,-7.3365923E-3,1.7658278E-3,2.4506873E-3,-9.200391E-3,8.288129E-3,-1.1543407E-3,-2.931896E-3,-6.66085E-3,8.173552E-3,-1.8148012E-3,9.050141E-3,-9.543477E-3,-1.3027341E-3,6.152419E-3],"categories":[],"categories_nodes":[],"categories_segments":[],"categories_sizes":[],"default_left":[0,0,0,0,0,0,0,0,0,0,0,0,0,0,0,0,0,0,0,0,0,0,0,0,0,0,0,0,0,0,0],"id":20,"left_children":[1,3,5,7,9,11,13,15,17,19,21,23,25,27,29,-1,-1,-1,-1,-1,-1,-1,-1,-1,-1,-1,-1,-1,-1,-1,-1],"loss_changes":[9.8283264E1,9.7793076E1,3.2521645E1,1.3751709E1,2.5737175E1,1.5377808E1,9.458018E0,1.0158817E1,1.3544432E1,1.2514404E1,1.5081001E1,1.3539505E1,7.9005213E0,9.527428E0,9.692177E0,0E0,0E0,0E0,0E0,0E0,0E0,0E0,0E0,0E0,0E0,0E0,0E0,0E0,0E0,0E0,0E0],"parents":[2147483647,0,0,1,1,2,2,3,3,4,4,5,5,6,6,7,7,8,8,9,9,10,10,11,11,12,12,13,13,14,14],"right_children":[2,4,6,8,10,12,14,16,18,20,22,24,26,28,30,-1,-1,-1,-1,-1,-1,-1,-1,-1,-1,-1,-1,-1,-1,-1,-1],"split_conditions":[2E0,1E1,3E0,7E0,3E0,6.780807E-2,-2.5909084E-3,-6.8165146E-2,-2.9912774E-2,3.416587E-2,2.8191268E-2,-2.6510281E-2,-2.6295254E-2,2.259634E-2,-3.8905382E-2,4.4514867E-3,-1.0597829E-2,-7.3365923E-3,1.7658278E-3,2.4506873E-3,-9.200391E-3,8.288129E-3,-1.1543407E-3,-2.931896E-3,-6.66085E-3,8.173552E-3,-1.8148012E-3,9.050141E-3,-9.543477E-3,-1.3027341E-3,6.152419E-3],"split_indices":[25,10,0,13,0,53219,52828,52674,53199,52838,52693,52739,52900,52800,52845,0,0,0,0,0,0,0,0,0,0,0,0,0,0,0,0],"split_type":[0,0,0,0,0,0,0,0,0,0,0,0,0,0,0,0,0,0,0,0,0,0,0,0,0,0,0,0,0,0,0],"sum_hessian":[1.5064714E3,9.809235E2,5.255479E2,1.25957214E2,8.549663E2,4.3985788E2,8.569002E1,6.3255608E1,6.2701603E1,7.1546295E2,1.3950339E2,4.0954523E2,3.0312635E1,1.2443216E1,7.3246796E1,3.9418344E0,5.9313774E1,3.1559265E1,3.114234E1,7.075974E2,7.865547E0,1.20471695E2,1.9031696E1,1.743167E2,2.3522853E2,1.1583575E1,1.8729061E1,2.2604473E0,1.018277E1,2.6207184E1,4.7039616E1],"tree_param":{"num_deleted":"0","num_feature":"53248","num_nodes":"31","size_leaf_vector":"1"}},{"base_weights":[-2.9523074E-4,1.8470308E-1,-3.4533417E-1,-6.2518406E-1,3.0495936E-1,-4.5393425E-1,2.091014E-1,-8.3171064E-1,-9.708799E-2,2.2791946E-1,6.9296443E-1,-3.488319E-1,-7.938668E-1,4.7506535E-1,-1.8843834E-1,8.548581E-3,-9.101921E-3,3.1393776E-3,-6.475812E-3,2.7867109E-3,-1.1178367E-3,8.212577E-3,-1.1436582E-3,-4.953903E-3,7.6493336E-5,-9.79994E-3,-6.5923185E-4,-2.554897E-3,7.141557E-3,-1.0488838E-2,1.2970042E-3],"categories":[],"categories_nodes":[],"categories_segments":[],"categories_sizes":[],"default_left":[0,0,0,0,0,0,0,0,0,0,0,0,0,0,0,0,0,0,0,0,0,0,0,0,0,0,0,0,0,0,0],"id":21,"left_children":[1,3,5,7,9,11,13,15,17,19,21,23,25,27,29,-1,-1,-1,-1,-1,-1,-1,-1,-1,-1,-1,-1,-1,-1,-1,-1],"loss_changes":[9.634471E1,9.591406E1,3.1893013E1,1.3677769E1,2.5268211E1,1.5234474E1,9.380573E0,1.3248001E1,8.855538E0,1.2423405E1,1.4806305E1,1.7814026E1,1.3727333E1,9.543935E0,1.0114827E1,0E0,0E0,0E0,0E0,0E0,0E0,0E0,0E0,0E0,0E0,0E0,0E0,0E0,0E0,0E0,0E0],"parents":[2147483647,0,0,1,1,2,2,3,3,4,4,5,5,6,6,7,7,8,8,9,9,10,10,11,11,12,12,13,13,14,14],"right_children":[2,4,6,8,10,12,14,16,18,20,22,24,26,28,30,-1,-1,-1,-1,-1,-1,-1,-1,-1,-1,-1,-1,-1,-1,-1,-1],"split_conditions":[2E0,1E1,3E0,1.3164981E-2,3E0,-1.6940197E-2,2.643966E-2,-9.6242145E-2,-1.416272E-2,1.4890452E-2,2.8191268E-2,-1.773865E-2,-6.8110035E-4,-5.5079002E-2,-4.381422E-2,8.548581E-3,-9.101921E-3,3.1393776E-3,-6.475812E-3,2.7867109E-3,-1.1178367E-3,8.212577E-3,-1.1436582E-3,-4.953903E-3,7.6493336E-5,-9.79994E-3,-6.5923185E-4,-2.554897E-3,7.141557E-3,-1.0488838E-2,1.2970042E-3],"split_indices":[25,10,0,52579,0,52765,52717,52813,52724,52798,52693,52876,52699,52898,52752,0,0,0,0,0,0,0,0,0,0,0,0,0,0,0,0],"split_type":[0,0,0,0,0,0,0,0,0,0,0,0,0,0,0,0,0,0,0,0,0,0,0,0,0,0,0,0,0,0,0],"sum_hessian":[1.5061066E3,9.8069696E2,5.254096E2,1.2587045E2,8.548265E2,4.397298E2,8.567982E1,8.9728065E1,3.6142384E1,7.154166E2,1.3940988E2,3.3842648E2,1.0130329E2,5.1310707E1,3.436911E1,3.2732346E0,8.6454834E1,2.0957436E1,1.5184949E1,6.2291675E2,9.249986E1,1.2037848E2,1.9031408E1,2.3961198E2,9.881452E1,8.015244E1,2.1150845E1,1.2523442E1,3.8787266E1,8.432175E0,2.5936934E1],"tree_param":{"num_deleted":"0","num_feature":"53248","num_nodes":"31","size_leaf_vector":"1"}},{"base_weights":[-3.081415E-4,1.8290116E-1,-3.4202474E-1,-6.192861E-1,3.0197474E-1,-4.4956473E-1,2.0696272E-1,-9.118294E-1,-2.4433738E-1,2.2565694E-1,6.8657666E-1,-4.9995974E-1,2.1929768E-1,-5.4472953E-1,3.4439132E-1,-1.0330747E-2,3.909054E-3,6.062198E-3,-5.8561848E-3,2.9855599E-3,-1.0777266E-4,8.137926E-3,-1.133073E-3,-9.833165E-3,-4.2803427E-3,-7.679978E-3,4.5421165E-3,1.4026519E-3,-1.4824238E-2,-1.3054878E-3,6.0700285E-3],"categories":[],"categories_nodes":[],"categories_segments":[],"categories_sizes":[],"default_left":[0,0,0,0,0,0,0,0,0,0,0,0,0,0,0,0,0,0,0,0,0,0,0,0,0,0,0,0,0,0,0],"id":22,"left_children":[1,3,5,7,9,11,13,15,17,19,21,23,25,27,29,-1,-1,-1,-1,-1,-1,-1,-1,-1,-1,-1,-1,-1,-1,-1,-1],"loss_changes":[9.447332E1,9.4047775E1,3.126387E1,1.3514221E1,2.4807068E1,1.5061417E1,9.26554E0,1.1854816E1,1.7364782E1,1.2389465E1,1.4537247E1,1.3509483E1,7.8697047E0,9.400558E0,9.486072E0,0E0,0E0,0E0,0E0,0E0,0E0,0E0,0E0,0E0,0E0,0E0,0E0,0E0,0E0,0E0,0E0],"parents":[2147483647,0,0,1,1,2,2,3,3,4,4,5,5,6,6,7,7,8,8,9,9,10,10,11,11,12,12,13,13,14,14],"right_children":[2,4,6,8,10,12,14,16,18,20,22,24,26,28,30,-1,-1,-1,-1,-1,-1,-1,-1,-1,-1,-1,-1,-1,-1,-1,-1],"split_conditions":[2E0,1E1,3E0,8E0,3E0,6.780807E-2,-2.5909084E-3,7.4583E-2,-4.821341E-2,1.5360565E-2,2.8191268E-2,1.2E1,1.0505289E-2,-3.125308E-2,-3.8905382E-2,-1.0330747E-2,3.909054E-3,6.062198E-3,-5.8561848E-3,2.9855599E-3,-1.0777266E-4,8.137926E-3,-1.133073E-3,-9.833165E-3,-4.2803427E-3,-7.679978E-3,4.5421165E-3,1.4026519E-3,-1.4824238E-2,-1.3054878E-3,6.0700285E-3],"split_indices":[25,10,0,10,0,53219,52828,52873,53037,53014,52693,13,52718,52699,52845,0,0,0,0,0,0,0,0,0,0,0,0,0,0,0,0],"split_type":[0,0,0,0,0,0,0,0,0,0,0,0,0,0,0,0,0,0,0,0,0,0,0,0,0,0,0,0,0,0,0],"sum_hessian":[1.505769E3,9.804898E2,5.2527924E2,1.2580597E2,8.5468384E2,4.3961734E2,8.5661896E1,6.93124E1,5.6493572E1,7.153706E2,1.3931323E2,4.0930667E2,3.0310665E1,1.2440879E1,7.322102E1,6.3765053E1,5.547348E0,1.5759504E1,4.0734066E1,5.4680475E2,1.6856586E2,1.2028212E2,1.903111E1,5.0375244E1,3.5893143E2,5.089777E0,2.5220888E1,7.864652E0,4.576226E0,2.6203966E1,4.7017056E1],"tree_param":{"num_deleted":"0","num_feature":"53248","num_nodes":"31","size_leaf_vector":"1"}},{"base_weights":[-3.2816417E-4,1.8111941E-1,-3.3877924E-1,-6.135562E-1,2.9902378E-1,-4.452729E-1,2.0476188E-1,-8.1785345E-1,-9.1688246E-2,2.234205E-1,6.802627E-1,-3.411686E-1,-7.8213644E-1,4.6774277E-1,-1.8805052E-1,8.518209E-3,-8.957585E-3,3.146619E-3,-6.3677537E-3,3.320811E-3,6.355514E-4,8.064162E-3,-1.1225856E-3,-4.863077E-3,1.1681918E-4,-2.398748E-3,-1.0354955E-2,7.951322E-3,-7.090244E-4,-8.5208025E-3,2.1704535E-3],"categories":[],"categories_nodes":[],"categories_segments":[],"categories_sizes":[],"default_left":[0,0,0,0,0,0,0,0,0,0,0,0,0,0,0,0,0,0,0,0,0,0,0,0,0,0,0,0,0,0,0],"id":23,"left_children":[1,3,5,7,9,11,13,15,17,19,21,23,25,27,29,-1,-1,-1,-1,-1,-1,-1,-1,-1,-1,-1,-1,-1,-1,-1,-1],"loss_changes":[9.264733E1,9.223035E1,3.0643887E1,1.3360722E1,2.4355072E1,1.4951996E1,9.162651E0,1.2999405E1,8.66545E0,1.238073E1,1.4273659E1,1.7455795E1,1.3612144E1,9.465308E0,9.988554E0,0E0,0E0,0E0,0E0,0E0,0E0,0E0,0E0,0E0,0E0,0E0,0E0,0E0,0E0,0E0,0E0],"parents":[2147483647,0,0,1,1,2,2,3,3,4,4,5,5,6,6,7,7,8,8,9,9,10,10,11,11,12,12,13,13,14,14],"right_children":[2,4,6,8,10,12,14,16,18,20,22,24,26,28,30,-1,-1,-1,-1,-1,-1,-1,-1,-1,-1,-1,-1,-1,-1,-1,-1],"split_conditions":[2E0,1E1,3E0,1.3164981E-2,3E0,-1.6940197E-2,2.643966E-2,-9.6242145E-2,-1.416272E-2,5.5140047E-3,2.8191268E-2,-1.773865E-2,-3.1862978E-2,4.073864E-2,-4.157513E-2,8.518209E-3,-8.957585E-3,3.146619E-3,-6.3677537E-3,3.320811E-3,6.355514E-4,8.064162E-3,-1.1225856E-3,-4.863077E-3,1.1681918E-4,-2.398748E-3,-1.0354955E-2,7.951322E-3,-7.090244E-4,-8.5208025E-3,2.1704535E-3],"split_indices":[25,10,0,52579,0,52765,52717,52813,52724,52810,52693,52876,52739,52990,52795,0,0,0,0,0,0,0,0,0,0,0,0,0,0,0,0],"split_type":[0,0,0,0,0,0,0,0,0,0,0,0,0,0,0,0,0,0,0,0,0,0,0,0,0,0,0,0,0,0,0],"sum_hessian":[1.5053853E3,9.8025885E2,5.2512634E2,1.2572413E2,8.545347E2,4.3947678E2,8.5649605E1,8.960414E1,3.6119984E1,7.153211E2,1.3921358E2,3.3825766E2,1.0121912E2,5.1284195E1,3.4365406E1,3.2729523E0,8.633119E1,2.0951645E1,1.516834E1,4.245278E2,2.9079333E2,1.2018276E2,1.9030806E1,2.3947127E2,9.8786385E1,3.3288013E1,6.79311E1,3.1568316E1,1.971588E1,1.24875965E1,2.187781E1],"tree_param":{"num_deleted":"0","num_feature":"53248","num_nodes":"31","size_leaf_vector":"1"}},{"base_weights":[-3.337773E-4,1.7936094E-1,-3.355333E-1,-6.077928E-1,2.9610682E-1,-4.41006E-1,2.0276776E-1,-9.285349E-1,-2.6936814E-1,2.2121121E-1,6.7402124E-1,-4.9087882E-1,2.2036757E-1,-5.4274774E-1,3.3915517E-1,3.078293E-3,-1.047899E-2,-7.126907E-3,1.8832072E-3,2.3186512E-3,-1.3483005E-2,7.991265E-3,-1.1121986E-3,-9.70608E-3,-4.1957228E-3,8.149308E-3,-1.755414E-3,8.973081E-3,-9.450236E-3,5.0288416E-3,-3.9858683E-3],"categories":[],"categories_nodes":[],"categories_segments":[],"categories_sizes":[],"default_left":[0,0,0,0,0,0,0,0,0,0,0,0,0,0,0,0,0,0,0,0,0,0,0,0,0,0,0,0,0,0,0],"id":24,"left_children":[1,3,5,7,9,11,13,15,17,19,21,23,25,27,29,-1,-1,-1,-1,-1,-1,-1,-1,-1,-1,-1,-1,-1,-1,-1,-1],"loss_changes":[9.084895E1,9.043908E1,3.0049553E1,1.330724E1,2.3911858E1,1.4730675E1,9.1148815E0,1.0079258E1,1.3267252E1,1.2342758E1,1.4015415E1,1.3294022E1,7.765771E0,9.351015E0,9.332933E0,0E0,0E0,0E0,0E0,0E0,0E0,0E0,0E0,0E0,0E0,0E0,0E0,0E0,0E0,0E0,0E0],"parents":[2147483647,0,0,1,1,2,2,3,3,4,4,5,5,6,6,7,7,8,8,9,9,10,10,11,11,12,12,13,13,14,14],"right_children":[2,4,6,8,10,12,14,16,18,20,22,24,26,28,30,-1,-1,-1,-1,-1,-1,-1,-1,-1,-1,-1,-1,-1,-1,-1,-1],"split_conditions":[2E0,1E1,3E0,7E0,3E0,6.780807E-2,-2.5909084E-3,-2.2689937E-2,-2.9912774E-2,1.02569796E-1,2.8191268E-2,1.2E1,-2.6295254E-2,2.259634E-2,6.7678235E-2,3.078293E-3,-1.047899E-2,-7.126907E-3,1.8832072E-3,2.3186512E-3,-1.3483005E-2,7.991265E-3,-1.1121986E-3,-9.70608E-3,-4.1957228E-3,8.149308E-3,-1.755414E-3,8.973081E-3,-9.450236E-3,5.0288416E-3,-3.9858683E-3],"split_indices":[25,10,0,13,0,53219,52828,52628,53199,48601,52693,13,52900,52800,52912,0,0,0,0,0,0,0,0,0,0,0,0,0,0,0,0],"split_type":[0,0,0,0,0,0,0,0,0,0,0,0,0,0,0,0,0,0,0,0,0,0,0,0,0,0,0,0,0,0,0],"sum_hessian":[1.5050195E3,9.8003735E2,5.249822E2,1.2565417E2,8.543832E2,4.3935373E2,8.562845E1,6.3017895E1,6.2636272E1,7.152722E2,1.3911101E2,4.090463E2,3.0307453E1,1.2437993E1,7.319046E1,5.2660785E0,5.7751816E1,3.1503952E1,3.113232E1,7.117827E2,3.4894936E0,1.2008051E2,1.903049E1,5.0302933E1,3.5874335E2,1.1580798E1,1.8726654E1,2.2585275E0,1.0179465E1,6.039902E1,1.2791438E1],"tree_param":{"num_deleted":"0","num_feature":"53248","num_nodes":"31","size_leaf_vector":"1"}},{"base_weights":[-3.552377E-4,1.7758512E-1,-3.3230102E-1,-6.022824E-1,2.9319167E-1,-4.3677083E-1,2.0076647E-1,-8.047098E-1,-8.578635E-2,2.1899043E-1,6.678506E-1,-3.3362743E-1,-7.7070594E-1,4.611085E-1,-1.8790202E-1,8.492988E-3,-8.820974E-3,3.1651119E-3,-6.2637264E-3,2.3370984E-3,-9.194882E-3,7.919213E-3,-1.1019063E-3,-4.7741714E-3,1.5752486E-4,-9.549962E-3,-5.1500223E-4,-1.0237847E-3,7.705926E-3,-4.523273E-3,8.070111E-3],"categories":[],"categories_nodes":[],"categories_segments":[],"categories_sizes":[],"default_left":[0,0,0,0,0,0,0,0,0,0,0,0,0,0,0,0,0,0,0,0,0,0,0,0,0,0,0,0,0,0,0],"id":25,"left_children":[1,3,5,7,9,11,13,15,17,19,21,23,25,27,29,-1,-1,-1,-1,-1,-1,-1,-1,-1,-1,-1,-1,-1,-1,-1,-1],"loss_changes":[8.906489E1,8.8704926E1,2.9465744E1,1.3092415E1,2.348124E1,1.4683205E1,8.972313E0,1.2771065E1,8.504566E0,1.2264362E1,1.3762367E1,1.7117039E1,1.3427868E1,9.385845E0,9.945414E0,0E0,0E0,0E0,0E0,0E0,0E0,0E0,0E0,0E0,0E0,0E0,0E0,0E0,0E0,0E0,0E0],"parents":[2147483647,0,0,1,1,2,2,3,3,4,4,5,5,6,6,7,7,8,8,9,9,10,10,11,11,12,12,13,13,14,14],"right_children":[2,4,6,8,10,12,14,16,18,20,22,24,26,28,30,-1,-1,-1,-1,-1,-1,-1,-1,-1,-1,-1,-1,-1,-1,-1,-1],"split_conditions":[2E0,1E1,3E0,1.3164981E-2,3E0,-1.6940197E-2,2.643966E-2,-9.6242145E-2,-1.416272E-2,3.416587E-2,2.8191268E-2,-1.773865E-2,-6.8110035E-4,2.8259493E-2,4.0823918E-2,8.492988E-3,-8.820974E-3,3.1651119E-3,-6.2637264E-3,2.3370984E-3,-9.194882E-3,7.919213E-3,-1.1019063E-3,-4.7741714E-3,1.5752486E-4,-9.549962E-3,-5.1500223E-4,-1.0237847E-3,7.705926E-3,-4.523273E-3,8.070111E-3],"split_indices":[25,10,0,52579,0,52765,52717,52813,52724,52838,52693,52876,52699,53204,53057,0,0,0,0,0,0,0,0,0,0,0,0,0,0,0,0],"split_type":[0,0,0,0,0,0,0,0,0,0,0,0,0,0,0,0,0,0,0,0,0,0,0,0,0,0,0,0,0,0,0],"sum_hessian":[1.5046128E3,9.7979016E2,5.2482263E2,1.2556493E2,8.542252E2,4.3920624E2,8.5616425E1,8.9469154E1,3.6095776E1,7.152196E2,1.3900563E2,3.3808054E2,1.0112571E2,5.125918E1,3.4357246E1,3.272471E0,8.6196686E1,2.094531E1,1.5150465E1,7.073541E2,7.8654833E0,1.1997547E2,1.9030167E1,2.393223E2,9.875823E1,7.9996475E1,2.112923E1,1.8413622E1,3.284556E1,2.7868883E1,6.4883647E0],"tree_param":{"num_deleted":"0","num_feature":"53248","num_nodes":"31","size_leaf_vector":"1"}},{"base_weights":[-3.605124E-4,1.7584546E-1,-3.2908788E-1,-5.966466E-1,2.903139E-1,-4.3258306E-1,1.9897473E-1,-9.149826E-1,-2.6133713E-1,2.1680106E-1,6.617497E-1,-9.12222E-1,-3.6124787E-1,-5.386384E-1,3.3399242E-1,4.6870387E-3,-1.0185094E-2,-7.2131297E-3,1.7267269E-3,2.3844144E-3,-5.612612E-3,7.847994E-3,-1.091709E-3,8.617976E-4,-1.0931198E-2,-2.4902308E-3,-7.284222E-3,8.909002E-3,-9.3790395E-3,-1.3340766E-3,5.927623E-3],"categories":[],"categories_nodes":[],"categories_segments":[],"categories_sizes":[],"default_left":[0,0,0,0,0,0,0,0,0,0,0,0,0,0,0,0,0,0,0,0,0,0,0,0,0,0,0,0,0,0,0],"id":26,"left_children":[1,3,5,7,9,11,13,15,17,19,21,23,25,27,29,-1,-1,-1,-1,-1,-1,-1,-1,-1,-1,-1,-1,-1,-1,-1,-1],"loss_changes":[8.731933E1,8.697981E1,2.8908749E1,1.3078739E1,2.3058365E1,1.4452751E1,8.923182E0,9.994991E0,1.3038017E1,1.2235367E1,1.3514397E1,1.0333874E1,1.5543953E1,9.211784E0,9.194506E0,0E0,0E0,0E0,0E0,0E0,0E0,0E0,0E0,0E0,0E0,0E0,0E0,0E0,0E0,0E0,0E0],"parents":[2147483647,0,0,1,1,2,2,3,3,4,4,5,5,6,6,7,7,8,8,9,9,10,10,11,11,12,12,13,13,14,14],"right_children":[2,4,6,8,10,12,14,16,18,20,22,24,26,28,30,-1,-1,-1,-1,-1,-1,-1,-1,-1,-1,-1,-1,-1,-1,-1,-1],"split_conditions":[2E0,1E1,3E0,7E0,3E0,1.2E1,-2.5909084E-3,-6.8165146E-2,-3.1687047E-2,1.307904E-1,2.8191268E-2,5.29E-1,-1.6940197E-2,2.259634E-2,-3.8905382E-2,4.6870387E-3,-1.0185094E-2,-7.2131297E-3,1.7267269E-3,2.3844144E-3,-5.612612E-3,7.847994E-3,-1.091709E-3,8.617976E-4,-1.0931198E-2,-2.4902308E-3,-7.284222E-3,8.909002E-3,-9.3790395E-3,-1.3340766E-3,5.927623E-3],"split_indices":[25,10,0,13,0,13,52828,52674,53199,31412,52693,53246,52765,52800,52845,0,0,0,0,0,0,0,0,0,0,0,0,0,0,0,0],"split_type":[0,0,0,0,0,0,0,0,0,0,0,0,0,0,0,0,0,0,0,0,0,0,0,0,0,0,0,0,0,0,0],"sum_hessian":[1.504225E3,9.795535E2,5.2467145E2,1.2549003E2,8.540635E2,4.3907715E2,8.55943E1,6.2891113E1,6.259892E1,7.1516595E2,1.3889757E2,5.4377E1,3.8470016E2,1.2435171E1,7.315913E1,3.9423745E0,5.894874E1,3.0020159E1,3.2578762E1,6.969504E2,1.8215557E1,1.1986773E2,1.9029835E1,8.376798E0,4.60002E1,2.9678052E2,8.7919624E1,2.2569304E0,1.0178241E1,2.6191418E1,4.696771E1],"tree_param":{"num_deleted":"0","num_feature":"53248","num_nodes":"31","size_leaf_vector":"1"}},{"base_weights":[-3.8100718E-4,1.7412178E-1,-3.259389E-1,-5.912714E-1,2.8747204E-1,-4.2846248E-1,1.970772E-1,-7.920381E-1,-7.9628386E-2,2.1464147E-1,6.557173E-1,-4.7786006E-1,2.2556365E-1,1.4318761E-2,7.5884557E-1,8.458803E-3,-8.688827E-3,-7.9478E-3,2.2294065E-3,2.6486102E-3,-1.2125873E-3,7.77759E-3,-1.0816097E-3,6.5378635E-4,-5.3683156E-3,-7.54667E-3,4.582292E-3,-4.8620445E-3,3.0257993E-3,1.0368578E-2,-5.8054253E-3],"categories":[],"categories_nodes":[],"categories_segments":[],"categories_sizes":[],"default_left":[0,0,0,0,0,0,0,0,0,0,0,0,0,0,0,0,0,0,0,0,0,0,0,0,0,0,0,0,0,0,0],"id":27,"left_children":[1,3,5,7,9,11,13,15,17,19,21,23,25,27,29,-1,-1,-1,-1,-1,-1,-1,-1,-1,-1,-1,-1,-1,-1,-1,-1],"loss_changes":[8.561797E1,8.5315315E1,2.835572E1,1.2852486E1,2.2643204E1,1.4416313E1,8.846714E0,1.2536186E1,8.451893E0,1.2150883E1,1.3271393E1,1.323864E1,7.7430425E0,9.922227E0,8.847299E0,0E0,0E0,0E0,0E0,0E0,0E0,0E0,0E0,0E0,0E0,0E0,0E0,0E0,0E0,0E0,0E0],"parents":[2147483647,0,0,1,1,2,2,3,3,4,4,5,5,6,6,7,7,8,8,9,9,10,10,11,11,12,12,13,13,14,14],"right_children":[2,4,6,8,10,12,14,16,18,20,22,24,26,28,30,-1,-1,-1,-1,-1,-1,-1,-1,-1,-1,-1,-1,-1,-1,-1,-1],"split_conditions":[2E0,1E1,3E0,1.3164981E-2,3E0,6.780807E-2,9.5652175E-1,-9.6242145E-2,-5.402261E-2,1.4890452E-2,2.8191268E-2,-7.586895E-2,1.0505289E-2,-3.8905382E-2,1.3027179E-2,8.458803E-3,-8.688827E-3,-7.9478E-3,2.2294065E-3,2.6486102E-3,-1.2125873E-3,7.77759E-3,-1.0816097E-3,6.5378635E-4,-5.3683156E-3,-7.54667E-3,4.582292E-3,-4.8620445E-3,3.0257993E-3,1.0368578E-2,-5.8054253E-3],"split_indices":[25,10,0,52579,0,53219,11,52813,52905,52798,52693,53159,52718,52845,53085,0,0,0,0,0,0,0,0,0,0,0,0,0,0,0,0],"split_type":[0,0,0,0,0,0,0,0,0,0,0,0,0,0,0,0,0,0,0,0,0,0,0,0,0,0,0,0,0,0,0],"sum_hessian":[1.5038074E3,9.792882E2,5.2451917E2,1.2539004E2,8.5389813E2,4.389391E2,8.5580086E1,8.9322685E1,3.606735E1,7.1511127E2,1.387869E2,4.0863263E2,3.0306469E1,6.586777E1,1.9712322E1,3.2718332E0,8.605085E1,1.0095646E1,2.5971703E1,6.226373E2,9.247394E1,1.1975741E2,1.9029493E1,3.983339E1,3.6879926E2,5.085571E0,2.5220898E1,2.3568169E1,4.2299595E1,1.6666403E1,3.0459204E0],"tree_param":{"num_deleted":"0","num_feature":"53248","num_nodes":"31","size_leaf_vector":"1"}},{"base_weights":[-3.7956887E-4,1.7242613E-1,-3.2279155E-1,-5.857851E-1,2.8466663E-1,-4.2434615E-1,1.9517078E-1,-9.0178716E-1,-2.5355372E-1,2.1251275E-1,6.4975196E-1,-9.004309E-1,-3.5361812E-1,4.644638E-1,-1.7207913E-1,3.2052936E-3,-1.0205375E-2,4.0257676E-3,-5.525196E-3,2.2308754E-3,-1.3428571E-2,7.707984E-3,-1.0716013E-3,8.852128E-4,-1.07996445E-2,-2.4247332E-3,-7.1746656E-3,-6.370725E-3,6.748655E-3,7.3600975E-3,-5.6131673E-3],"categories":[],"categories_nodes":[],"categories_segments":[],"categories_sizes":[],"default_left":[0,0,0,0,0,0,0,0,0,0,0,0,0,0,0,0,0,0,0,0,0,0,0,0,0,0,0,0,0,0,0],"id":28,"left_children":[1,3,5,7,9,11,13,15,17,19,21,23,25,27,29,-1,-1,-1,-1,-1,-1,-1,-1,-1,-1,-1,-1,-1,-1,-1,-1],"loss_changes":[8.394348E1,8.366615E1,2.7808022E1,1.2854931E1,2.2235413E1,1.42226715E1,8.75991E0,9.886932E0,1.2914587E1,1.2123119E1,1.30331955E1,1.0149277E1,1.5252563E1,1.2421354E1,1.3953135E1,0E0,0E0,0E0,0E0,0E0,0E0,0E0,0E0,0E0,0E0,0E0,0E0,0E0,0E0,0E0,0E0],"parents":[2147483647,0,0,1,1,2,2,3,3,4,4,5,5,6,6,7,7,8,8,9,9,10,10,11,11,12,12,13,13,14,14],"right_children":[2,4,6,8,10,12,14,16,18,20,22,24,26,28,30,-1,-1,-1,-1,-1,-1,-1,-1,-1,-1,-1,-1,-1,-1,-1,-1],"split_conditions":[2E0,1E1,3E0,7E0,3E0,1.2E1,-4.3172063E-3,-2.2689937E-2,-4.488089E-2,1.02569796E-1,2.8191268E-2,5.29E-1,-1.6940197E-2,-6.0063023E-2,4.2423517E-2,3.2052936E-3,-1.0205375E-2,4.0257676E-3,-5.525196E-3,2.2308754E-3,-1.3428571E-2,7.707984E-3,-1.0716013E-3,8.852128E-4,-1.07996445E-2,-2.4247332E-3,-7.1746656E-3,-6.370725E-3,6.748655E-3,7.3600975E-3,-5.6131673E-3],"split_indices":[25,10,0,13,0,13,52899,52628,53037,48601,52693,53246,52765,52685,52800,0,0,0,0,0,0,0,0,0,0,0,0,0,0,0,0],"split_type":[0,0,0,0,0,0,0,0,0,0,0,0,0,0,0,0,0,0,0,0,0,0,0,0,0,0,0,0,0,0,0],"sum_hessian":[1.5034E3,9.790425E2,5.2435754E2,1.2531183E2,8.5373065E2,4.3879007E2,8.556747E1,6.2752373E1,6.2559452E1,7.1505695E2,1.3867372E2,5.4296833E1,3.8449323E2,4.929569E1,3.627178E1,5.2564087E0,5.7495964E1,1.9315042E1,4.3244408E1,7.1156824E2,3.4887338E0,1.1964458E2,1.9029144E1,8.373763E0,4.592307E1,2.9665002E2,8.784322E1,7.3417273E0,4.195396E1,1.04046135E1,2.5867163E1],"tree_param":{"num_deleted":"0","num_feature":"53248","num_nodes":"31","size_leaf_vector":"1"}},{"base_weights":[-4.0714E-4,1.707279E-1,-3.1971076E-1,-5.80463E-1,2.818686E-1,-4.203113E-1,1.932683E-1,-8.6469E-1,-2.1830103E-1,2.1037994E-1,6.4385223E-1,-4.6922943E-1,2.2678004E-1,-5.359414E-1,3.268685E-1,-9.857765E-3,4.238899E-3,6.084076E-3,-5.5150758E-3,3.1782647E-3,5.23721E-4,7.63916E-3,-1.0616885E-3,-2.5702673E-3,-6.236066E-3,4.698462E-3,-7.0422674E-3,1.3844648E-3,-1.4592217E-2,4.8799813E-3,-3.9793146E-3],"categories":[],"categories_nodes":[],"categories_segments":[],"categories_sizes":[],"default_left":[0,0,0,0,0,0,0,0,0,0,0,0,0,0,0,0,0,0,0,0,0,0,0,0,0,0,0,0,0,0,0],"id":29,"left_children":[1,3,5,7,9,11,13,15,17,19,21,23,25,27,29,-1,-1,-1,-1,-1,-1,-1,-1,-1,-1,-1,-1,-1,-1,-1,-1],"loss_changes":[8.230734E1,8.205649E1,2.7273907E1,1.2652203E1,2.1838333E1,1.4116425E1,8.723174E0,1.1657433E1,1.6441565E1,1.2102299E1,1.2799728E1,1.3097633E1,7.6696844E0,9.110189E0,9.015429E0,0E0,0E0,0E0,0E0,0E0,0E0,0E0,0E0,0E0,0E0,0E0,0E0,0E0,0E0,0E0,0E0],"parents":[2147483647,0,0,1,1,2,2,3,3,4,4,5,5,6,6,7,7,8,8,9,9,10,10,11,11,12,12,13,13,14,14],"right_children":[2,4,6,8,10,12,14,16,18,20,22,24,26,28,30,-1,-1,-1,-1,-1,-1,-1,-1,-1,-1,-1,-1,-1,-1,-1,-1],"split_conditions":[2E0,1E1,3E0,8E0,3E0,6.780807E-2,-2.5909084E-3,7.4583E-2,-4.821341E-2,5.5140047E-3,2.8191268E-2,-2.6510281E-2,1.1591745E-1,-3.125308E-2,6.7678235E-2,-9.857765E-3,4.238899E-3,6.084076E-3,-5.5150758E-3,3.1782647E-3,5.23721E-4,7.63916E-3,-1.0616885E-3,-2.5702673E-3,-6.236066E-3,4.698462E-3,-7.0422674E-3,1.3844648E-3,-1.4592217E-2,4.8799813E-3,-3.9793146E-3],"split_indices":[25,10,0,10,0,53219,52828,52873,53037,52810,52693,52739,52789,52699,52912,0,0,0,0,0,0,0,0,0,0,0,0,0,0,0,0],"split_type":[0,0,0,0,0,0,0,0,0,0,0,0,0,0,0,0,0,0,0,0,0,0,0,0,0,0,0,0,0,0,0],"sum_hessian":[1.5029749E3,9.7877313E2,5.242017E2,1.2521582E2,8.535573E2,4.3864478E2,8.555691E1,6.883566E1,5.6380157E1,7.1499915E2,1.3855815E2,4.083422E2,3.0302586E1,1.24325285E1,7.3124374E1,6.331601E1,5.519655E0,1.5754115E1,4.062604E1,4.2431302E2,2.9068613E2,1.19529366E2,1.902879E1,1.7392068E2,2.3442152E2,2.4703453E1,5.599134E0,7.8589287E0,4.5736003E0,6.03386E1,1.2785778E1],"tree_param":{"num_deleted":"0","num_feature":"53248","num_nodes":"31","size_leaf_vector":"1"}},{"base_weights":[-4.2094375E-4,1.6907658E-1,-3.166881E-1,-5.7515645E-1,2.7912667E-1,-4.162995E-1,1.9114608E-1,-7.735569E-1,-7.045938E-2,2.0830183E-1,6.380171E-1,-8.888933E-1,-3.4617075E-1,6.438539E-2,9.9767625E-1,8.454821E-3,-8.498509E-3,8.491411E-3,-3.0256382E-3,2.8034952E-3,-2.517984E-4,7.5711035E-3,-1.0518653E-3,2.0792E-3,-1.0470895E-2,-2.361278E-3,-7.066367E-3,2.8187248E-3,-6.5809987E-3,-2.6944524E-3,1.3436283E-2],"categories":[],"categories_nodes":[],"categories_segments":[],"categories_sizes":[],"default_left":[0,0,0,0,0,0,0,0,0,0,0,0,0,0,0,0,0,0,0,0,0,0,0,0,0,0,0,0,0,0,0],"id":30,"left_children":[1,3,5,7,9,11,13,15,17,19,21,23,25,27,29,-1,-1,-1,-1,-1,-1,-1,-1,-1,-1,-1,-1,-1,-1,-1,-1],"loss_changes":[8.072079E1,8.0476135E1,2.6726254E1,1.2512405E1,2.1445732E1,1.3997131E1,8.696245E0,1.2268993E1,8.339497E0,1.2087969E1,1.2570824E1,1.0077251E1,1.4957817E1,1.2328745E1,5.740506E0,0E0,0E0,0E0,0E0,0E0,0E0,0E0,0E0,0E0,0E0,0E0,0E0,0E0,0E0,0E0,0E0],"parents":[2147483647,0,0,1,1,2,2,3,3,4,4,5,5,6,6,7,7,8,8,9,9,10,10,11,11,12,12,13,13,14,14],"right_children":[2,4,6,8,10,12,14,16,18,20,22,24,26,28,30,-1,-1,-1,-1,-1,-1,-1,-1,-1,-1,-1,-1,-1,-1,-1,-1],"split_conditions":[2E0,1E1,3E0,1.3164981E-2,3E0,1.2E1,9.4854526E-2,-9.6242145E-2,-5.050711E-2,1.5360565E-2,2.8191268E-2,-3.820846E-2,-1.6940197E-2,-6.852928E-2,-9.672297E-2,8.454821E-3,-8.498509E-3,8.491411E-3,-3.0256382E-3,2.8034952E-3,-2.517984E-4,7.5711035E-3,-1.0518653E-3,2.0792E-3,-1.0470895E-2,-2.361278E-3,-7.066367E-3,2.8187248E-3,-6.5809987E-3,-2.6944524E-3,1.3436283E-2],"split_indices":[25,10,0,52579,0,13,52893,52813,52738,53014,52693,53074,52765,52650,52770,0,0,0,0,0,0,0,0,0,0,0,0,0,0,0,0],"split_type":[0,0,0,0,0,0,0,0,0,0,0,0,0,0,0,0,0,0,0,0,0,0,0,0,0,0,0,0,0,0,0],"sum_hessian":[1.5025287E3,9.7850104E2,5.240276E2,1.2511832E2,8.533827E2,4.3848608E2,8.5541534E1,8.9096535E1,3.6021782E1,7.1494244E2,1.3844026E2,5.421247E1,3.842736E2,7.543008E1,1.0111457E1,3.2700071E0,8.582653E1,6.3690443E0,2.9652737E1,5.4644714E2,1.6849529E2,1.19411835E2,1.9028425E1,6.694471E0,4.7517998E1,2.9651392E2,8.775968E1,5.878688E1,1.66432E1,2.1777308E0,7.9337263E0],"tree_param":{"num_deleted":"0","num_feature":"53248","num_nodes":"31","size_leaf_vector":"1"}},{"base_weights":[-4.1408307E-4,1.6745232E-1,-3.1364945E-1,-5.6971586E-1,2.764089E-1,-4.123427E-1,1.8935865E-1,-8.8142496E-1,-2.429129E-1,2.0624004E-1,6.3224584E-1,-4.607861E-1,2.2785017E-1,4.4590425E-1,-1.9286232E-1,4.872766E-3,-9.850163E-3,-6.9856304E-3,1.8553113E-3,2.2083088E-3,-9.199629E-3,7.503802E-3,-1.042133E-3,7.701392E-4,-5.192516E-3,8.152008E-3,-1.6397262E-3,-2.7231066E-3,6.8214503E-3,-8.487835E-3,2.0774824E-3],"categories":[],"categories_nodes":[],"categories_segments":[],"categories_sizes":[],"default_left":[0,0,0,0,0,0,0,0,0,0,0,0,0,0,0,0,0,0,0,0,0,0,0,0,0,0,0,0,0,0,0],"id":31,"left_children":[1,3,5,7,9,11,13,15,17,19,21,23,25,27,29,-1,-1,-1,-1,-1,-1,-1,-1,-1,-1,-1,-1,-1,-1,-1,-1],"loss_changes":[7.915556E1,7.88987E1,2.6220604E1,1.2456081E1,2.1061356E1,1.3821434E1,8.688678E0,9.849007E0,1.2739555E1,1.2006611E1,1.2346439E1,1.2981117E1,7.583876E0,9.259404E0,9.747824E0,0E0,0E0,0E0,0E0,0E0,0E0,0E0,0E0,0E0,0E0,0E0,0E0,0E0,0E0,0E0,0E0],"parents":[2147483647,0,0,1,1,2,2,3,3,4,4,5,5,6,6,7,7,8,8,9,9,10,10,11,11,12,12,13,13,14,14],"right_children":[2,4,6,8,10,12,14,16,18,20,22,24,26,28,30,-1,-1,-1,-1,-1,-1,-1,-1,-1,-1,-1,-1,-1,-1,-1,-1],"split_conditions":[2E0,1E1,3E0,7E0,3E0,6.780807E-2,2.643966E-2,-6.8165146E-2,-3.1687047E-2,3.416587E-2,2.8191268E-2,-7.586895E-2,-2.6295254E-2,-5.5079002E-2,-4.157513E-2,4.872766E-3,-9.850163E-3,-6.9856304E-3,1.8553113E-3,2.2083088E-3,-9.199629E-3,7.503802E-3,-1.042133E-3,7.701392E-4,-5.192516E-3,8.152008E-3,-1.6397262E-3,-2.7231066E-3,6.8214503E-3,-8.487835E-3,2.0774824E-3],"split_indices":[25,10,0,13,0,53219,52717,52674,53199,52838,52693,53159,52900,52898,52795,0,0,0,0,0,0,0,0,0,0,0,0,0,0,0,0],"split_type":[0,0,0,0,0,0,0,0,0,0,0,0,0,0,0,0,0,0,0,0,0,0,0,0,0,0,0,0,0,0,0],"sum_hessian":[1.5021063E3,9.782368E2,5.2386945E2,1.2503383E2,8.53203E2,4.3833466E2,8.553476E1,6.2535217E1,6.2498608E1,7.148829E2,1.3832016E2,4.080352E2,3.0299475E1,5.1188736E1,3.4346024E1,3.9411848E0,5.8594032E1,2.9942488E1,3.255612E1,7.070176E2,7.865304E0,1.192921E2,1.9028053E1,3.979463E1,3.6824057E2,1.1578089E1,1.8721386E1,1.2508451E1,3.8680283E1,1.2481518E1,2.1864504E1],"tree_param":{"num_deleted":"0","num_feature":"53248","num_nodes":"31","size_leaf_vector":"1"}},{"base_weights":[-4.2045463E-4,1.6580999E-1,-3.106221E-1,-5.64623E-1,2.7370194E-1,-4.0835965E-1,1.8746871E-1,-7.6156175E-1,-6.434603E-2,2.04179E-1,6.2653655E-1,-8.775276E-1,-3.3882242E-1,6.8619465E-3,7.4333215E-1,8.419595E-3,-8.373424E-3,-7.7406797E-3,2.3478975E-3,2.255857E-3,-5.643424E-3,7.4372375E-3,-1.0324947E-3,4.411679E-3,-1.0034356E-2,-2.29825E-3,-6.960949E-3,-4.869231E-3,2.9170306E-3,1.0182851E-2,-5.7774135E-3],"categories":[],"categories_nodes":[],"categories_segments":[],"categories_sizes":[],"default_left":[0,0,0,0,0,0,0,0,0,0,0,0,0,0,0,0,0,0,0,0,0,0,0,0,0,0,0,0,0,0,0],"id":32,"left_children":[1,3,5,7,9,11,13,15,17,19,21,23,25,27,29,-1,-1,-1,-1,-1,-1,-1,-1,-1,-1,-1,-1,-1,-1,-1,-1],"loss_changes":[7.760047E1,7.739061E1,2.5704006E1,1.2299728E1,2.06865E1,1.3776588E1,8.652447E0,1.2046013E1,8.286276E0,1.1941664E1,1.2126419E1,9.955921E0,1.4681416E1,9.662343E0,8.622635E0,0E0,0E0,0E0,0E0,0E0,0E0,0E0,0E0,0E0,0E0,0E0,0E0,0E0,0E0,0E0,0E0],"parents":[2147483647,0,0,1,1,2,2,3,3,4,4,5,5,6,6,7,7,8,8,9,9,10,10,11,11,12,12,13,13,14,14],"right_children":[2,4,6,8,10,12,14,16,18,20,22,24,26,28,30,-1,-1,-1,-1,-1,-1,-1,-1,-1,-1,-1,-1,-1,-1,-1,-1],"split_conditions":[2E0,1E1,3E0,1.3164981E-2,3E0,1.2E1,9.5652175E-1,-9.6242145E-2,-5.402261E-2,1.307904E-1,2.8191268E-2,-4.739835E-2,-1.6940197E-2,-3.8905382E-2,1.3027179E-2,8.419595E-3,-8.373424E-3,-7.7406797E-3,2.3478975E-3,2.255857E-3,-5.643424E-3,7.4372375E-3,-1.0324947E-3,4.411679E-3,-1.0034356E-2,-2.29825E-3,-6.960949E-3,-4.869231E-3,2.9170306E-3,1.0182851E-2,-5.7774135E-3],"split_indices":[25,10,0,52579,0,13,11,52813,52905,31412,52693,52839,52765,52845,53085,0,0,0,0,0,0,0,0,0,0,0,0,0,0,0,0],"split_type":[0,0,0,0,0,0,0,0,0,0,0,0,0,0,0,0,0,0,0,0,0,0,0,0,0,0,0,0,0,0,0],"sum_hessian":[1.5016282E3,9.7794446E2,5.236837E2,1.249244E2,8.5302E2,4.3817422E2,8.550948E1,8.893212E1,3.599228E1,7.1482214E2,1.381979E2,5.412504E1,3.840492E2,6.582165E1,1.9687832E1,3.2692597E0,8.566286E1,1.0065027E1,2.5927254E1,6.9660834E2,1.8213774E1,1.1917023E2,1.9027676E1,4.3208313E0,4.9804207E1,2.9637524E2,8.767394E1,2.3561485E1,4.2260162E1,1.6643368E1,3.0444646E0],"tree_param":{"num_deleted":"0","num_feature":"53248","num_nodes":"31","size_leaf_vector":"1"}},{"base_weights":[-4.3203495E-4,1.641933E-1,-3.076552E-1,-8.397456E-1,2.4124354E-1,-4.044753E-1,1.8565701E-1,-9.604395E-1,4.3722975E-1,1.6779189E-1,6.1871165E-1,-4.581738E-1,1.6506162E-1,-5.367276E-1,3.1818098E-1,-1.1249346E-2,6.7765696E-4,1.2081169E-2,-7.094867E-3,-1.2187265E-3,2.5343932E-3,7.204833E-3,-4.3973347E-4,-8.941714E-3,-3.736139E-3,-2.9230665E-3,7.5542256E-3,8.780747E-3,-9.311414E-3,4.767751E-3,-3.943296E-3],"categories":[],"categories_nodes":[],"categories_segments":[],"categories_sizes":[],"default_left":[0,0,0,0,0,0,0,0,0,0,0,0,0,0,0,0,0,0,0,0,0,0,0,0,0,0,0,0,0,0,0],"id":33,"left_children":[1,3,5,7,9,11,13,15,17,19,21,23,25,27,29,-1,-1,-1,-1,-1,-1,-1,-1,-1,-1,-1,-1,-1,-1,-1,-1],"loss_changes":[7.6090836E1,7.598652E1,2.52104E1,1.147625E1,2.50136E1,1.3584618E1,8.562599E0,1.113401E1,7.5296903E0,1.9027956E1,1.0066746E1,1.4200569E1,1.0857094E1,9.003134E0,8.716425E0,0E0,0E0,0E0,0E0,0E0,0E0,0E0,0E0,0E0,0E0,0E0,0E0,0E0,0E0,0E0,0E0],"parents":[2147483647,0,0,1,1,2,2,3,3,4,4,5,5,6,6,7,7,8,8,9,9,10,10,11,11,12,12,13,13,14,14],"right_children":[2,4,6,8,10,12,14,16,18,20,22,24,26,28,30,-1,-1,-1,-1,-1,-1,-1,-1,-1,-1,-1,-1,-1,-1,-1,-1],"split_conditions":[2E0,8E0,3E0,7.4583E-2,3E0,-1.1050523E-2,-2.5909084E-3,-1.1572274E-2,-2.9504288E-2,1.3E1,2.5E1,1.3E1,2.8446011E-2,2.259634E-2,6.7678235E-2,-1.1249346E-2,6.7765696E-4,1.2081169E-2,-7.094867E-3,-1.2187265E-3,2.5343932E-3,7.204833E-3,-4.3973347E-4,-8.941714E-3,-3.736139E-3,-2.9230665E-3,7.5542256E-3,8.780747E-3,-9.311414E-3,4.767751E-3,-3.943296E-3],"split_indices":[25,10,0,52873,0,52780,52828,52731,52689,10,9,10,53152,52800,52912,0,0,0,0,0,0,0,0,0,0,0,0,0,0,0,0],"split_type":[0,0,0,0,0,0,0,0,0,0,0,0,0,0,0,0,0,0,0,0,0,0,0,0,0,0,0,0,0,0,0],"sum_hessian":[1.501182E3,9.776706E2,5.2351135E2,6.853511E1,9.091355E2,4.380167E2,8.54947E1,6.3028107E1,5.507003E0,7.630793E2,1.4605618E2,4.0070526E2,3.7311405E1,1.2426817E1,7.306788E1,5.4297573E1,8.730531E0,3.297277E0,2.2097259E0,1.7372601E2,5.893533E2,1.2662921E2,1.942697E1,6.256596E1,3.381393E2,2.135502E1,1.5956386E1,2.2528088E0,1.0174008E1,6.0285797E1,1.27820835E1],"tree_param":{"num_deleted":"0","num_feature":"53248","num_nodes":"31","size_leaf_vector":"1"}},{"base_weights":[-4.3407117E-4,1.6259529E-1,-3.047029E-1,-5.5522114E-1,2.685185E-1,-4.006024E-1,1.838294E-1,-7.502519E-1,-6.0455855E-2,2.0028967E-1,6.15279E-1,-4.486148E-1,2.3284067E-1,5.8285613E-2,9.835167E-1,8.395005E-3,-8.255923E-3,3.3437507E-3,-5.942209E-3,2.2068638E-3,-6.028936E-3,7.3173223E-3,-1.080128E-3,-2.109908E-3,-5.8472436E-3,-7.3753004E-3,4.624551E-3,2.74073E-3,-6.576898E-3,-2.7539735E-3,1.3286765E-2],"categories":[],"categories_nodes":[],"categories_segments":[],"categories_sizes":[],"default_left":[0,0,0,0,0,0,0,0,0,0,0,0,0,0,0,0,0,0,0,0,0,0,0,0,0,0,0,0,0,0,0],"id":34,"left_children":[1,3,5,7,9,11,13,15,17,19,21,23,25,27,29,-1,-1,-1,-1,-1,-1,-1,-1,-1,-1,-1,-1,-1,-1,-1,-1],"loss_changes":[7.46079E1,7.462581E1,2.4720901E1,1.20328865E1,1.9942635E1,1.3540634E1,8.542072E0,1.1850685E1,8.220857E0,1.1894461E1,1.1928539E1,1.2965736E1,7.5686707E0,1.2109669E1,5.6944494E0,0E0,0E0,0E0,0E0,0E0,0E0,0E0,0E0,0E0,0E0,0E0,0E0,0E0,0E0,0E0,0E0],"parents":[2147483647,0,0,1,1,2,2,3,3,4,4,5,5,6,6,7,7,8,8,9,9,10,10,11,11,12,12,13,13,14,14],"right_children":[2,4,6,8,10,12,14,16,18,20,22,24,26,28,30,-1,-1,-1,-1,-1,-1,-1,-1,-1,-1,-1,-1,-1,-1,-1,-1],"split_conditions":[2E0,1E1,3E0,1.3164981E-2,3E0,6.780807E-2,9.4854526E-2,-9.6242145E-2,-1.416272E-2,1.3168617E-1,2.8191268E-2,-4.059972E-3,1.0505289E-2,-6.852928E-2,-9.672297E-2,8.395005E-3,-8.255923E-3,3.3437507E-3,-5.942209E-3,2.2068638E-3,-6.028936E-3,7.3173223E-3,-1.080128E-3,-2.109908E-3,-5.8472436E-3,-7.3753004E-3,4.624551E-3,2.74073E-3,-6.576898E-3,-2.7539735E-3,1.3286765E-2],"split_indices":[25,10,0,52579,0,53219,52893,52813,52724,52879,52693,52636,52718,52650,52770,0,0,0,0,0,0,0,0,0,0,0,0,0,0,0,0],"split_type":[0,0,0,0,0,0,0,0,0,0,0,0,0,0,0,0,0,0,0,0,0,0,0,0,0,0,0,0,0,0,0],"sum_hessian":[1.5007628E3,9.774227E2,5.233401E2,1.2474551E2,8.5267725E2,4.3786194E2,8.5478165E1,8.877482E1,3.5970688E1,7.14706E2,1.3797124E2,4.0756567E2,3.0296284E1,7.5378746E1,1.0099415E1,3.2683434E0,8.550648E1,2.089066E1,1.508003E1,6.98188E2,1.6518024E1,1.18941826E2,1.902941E1,1.5009149E2,2.5747418E2,5.0788884E0,2.5217396E1,5.874047E1,1.6638279E1,2.1760564E0,7.9233584E0],"tree_param":{"num_deleted":"0","num_feature":"53248","num_nodes":"31","size_leaf_vector":"1"}},{"base_weights":[-4.3478023E-4,1.6101442E-1,-3.0177104E-1,-8.2756466E-1,2.367485E-1,-3.9678752E-1,1.8211289E-1,-9.475267E-1,4.3752366E-1,1.6460651E-1,6.079887E-1,-2.9834908E-1,-7.1644986E-1,3.4644033E-3,7.3239326E-1,-1.1110523E-2,7.1609794E-4,1.2017582E-2,-7.0257313E-3,-1.2062804E-3,2.4894988E-3,7.0909956E-3,-4.9372134E-4,-4.407593E-3,4.691362E-4,-1.8205346E-3,-9.679297E-3,-4.88432E-3,2.842446E-3,1.0051751E-2,-5.7561463E-3],"categories":[],"categories_nodes":[],"categories_segments":[],"categories_sizes":[],"default_left":[0,0,0,0,0,0,0,0,0,0,0,0,0,0,0,0,0,0,0,0,0,0,0,0,0,0,0,0,0,0,0],"id":35,"left_children":[1,3,5,7,9,11,13,15,17,19,21,23,25,27,29,-1,-1,-1,-1,-1,-1,-1,-1,-1,-1,-1,-1,-1,-1,-1,-1],"loss_changes":[7.315061E1,7.350491E1,2.4252323E1,1.127766E1,2.415134E1,1.3398048E1,8.472342E0,1.0951103E1,7.4209237E0,1.8448492E1,9.91066E0,1.6718958E1,1.3341248E1,9.482869E0,8.464528E0,0E0,0E0,0E0,0E0,0E0,0E0,0E0,0E0,0E0,0E0,0E0,0E0,0E0,0E0,0E0,0E0],"parents":[2147483647,0,0,1,1,2,2,3,3,4,4,5,5,6,6,7,7,8,8,9,9,10,10,11,11,12,12,13,13,14,14],"right_children":[2,4,6,8,10,12,14,16,18,20,22,24,26,28,30,-1,-1,-1,-1,-1,-1,-1,-1,-1,-1,-1,-1,-1,-1,-1,-1],"split_conditions":[2E0,8E0,3E0,7.4583E-2,3E0,-1.6940197E-2,9.5652175E-1,-1.1572274E-2,-2.9504288E-2,1.3E1,2.5E1,-1.773865E-2,-3.1862978E-2,-2.3856832E-2,1.3027179E-2,-1.1110523E-2,7.1609794E-4,1.2017582E-2,-7.0257313E-3,-1.2062804E-3,2.4894988E-3,7.0909956E-3,-4.9372134E-4,-4.407593E-3,4.691362E-4,-1.8205346E-3,-9.679297E-3,-4.88432E-3,2.842446E-3,1.0051751E-2,-5.7561463E-3],"split_indices":[25,10,0,52873,0,52765,11,52731,52689,10,9,52876,52739,52868,53085,0,0,0,0,0,0,0,0,0,0,0,0,0,0,0,0],"split_type":[0,0,0,0,0,0,0,0,0,0,0,0,0,0,0,0,0,0,0,0,0,0,0,0,0,0,0,0,0,0,0],"sum_hessian":[1.5003068E3,9.7714246E2,5.231643E2,6.8377655E1,9.0876483E2,4.3769437E2,8.546994E1,6.2871445E1,5.506211E0,7.629396E2,1.4582527E2,3.3709912E2,1.0059523E2,6.5799355E1,1.9670588E1,5.4146244E1,8.725199E0,3.3004346E0,2.2057762E0,1.7369672E2,5.8924286E2,1.26415016E2,1.9410255E1,2.3857077E2,9.8528366E1,3.3145138E1,6.7450096E1,2.337806E1,4.2421295E1,1.6626837E1,3.0437503E0],"tree_param":{"num_deleted":"0","num_feature":"53248","num_nodes":"31","size_leaf_vector":"1"}},{"base_weights":[-4.423138E-4,1.594489E-1,-2.988912E-1,-8.205025E-1,2.3443556E-1,-3.930192E-1,1.8034214E-1,-9.3970096E-1,4.3388867E-1,1.6297464E-1,6.02394E-1,-8.560331E-1,-3.2456002E-1,4.455091E-1,-1.8062279E-1,-1.1021856E-2,7.099328E-4,1.19221695E-2,-6.9881044E-3,-1.1943048E-3,2.4649303E-3,6.7931395E-3,-2.4592313E-3,1.185848E-3,-1.0344953E-2,-2.1752042E-3,-6.7591546E-3,-6.397682E-3,6.535363E-3,7.170263E-3,-5.64579E-3],"categories":[],"categories_nodes":[],"categories_segments":[],"categories_sizes":[],"default_left":[0,0,0,0,0,0,0,0,0,0,0,0,0,0,0,0,0,0,0,0,0,0,0,0,0,0,0,0,0,0,0],"id":36,"left_children":[1,3,5,7,9,11,13,15,17,19,21,23,25,27,29,-1,-1,-1,-1,-1,-1,-1,-1,-1,-1,-1,-1,-1,-1,-1,-1],"loss_changes":[7.173024E1,7.212485E1,2.3787113E1,1.1096321E1,2.3706993E1,1.33815E1,8.470579E0,1.0775803E1,7.3195806E0,1.8085533E1,9.900532E0,9.919807E0,1.4172806E1,1.2080448E1,1.3597591E1,0E0,0E0,0E0,0E0,0E0,0E0,0E0,0E0,0E0,0E0,0E0,0E0,0E0,0E0,0E0,0E0],"parents":[2147483647,0,0,1,1,2,2,3,3,4,4,5,5,6,6,7,7,8,8,9,9,10,10,11,11,12,12,13,13,14,14],"right_children":[2,4,6,8,10,12,14,16,18,20,22,24,26,28,30,-1,-1,-1,-1,-1,-1,-1,-1,-1,-1,-1,-1,-1,-1,-1,-1],"split_conditions":[2E0,8E0,3E0,7.4583E-2,3E0,1.2E1,-4.3172063E-3,-1.1572274E-2,-2.9504288E-2,1.3E1,5.2661948E-2,5.29E-1,-1.6940197E-2,-6.0063023E-2,4.2423517E-2,-1.1021856E-2,7.099328E-4,1.19221695E-2,-6.9881044E-3,-1.1943048E-3,2.4649303E-3,6.7931395E-3,-2.4592313E-3,1.185848E-3,-1.0344953E-2,-2.1752042E-3,-6.7591546E-3,-6.397682E-3,6.535363E-3,7.170263E-3,-5.64579E-3],"split_indices":[25,10,0,52873,0,13,52899,52731,52689,10,53176,53246,52765,52685,52800,0,0,0,0,0,0,0,0,0,0,0,0,0,0,0,0],"split_type":[0,0,0,0,0,0,0,0,0,0,0,0,0,0,0,0,0,0,0,0,0,0,0,0,0,0,0,0,0,0,0],"sum_hessian":[1.4998783E3,9.768848E2,5.2299347E2,6.828367E1,9.086012E2,4.3753424E2,8.545923E1,6.2774548E1,5.5091214E0,7.6287915E2,1.4572203E2,5.394795E1,3.835863E2,4.92244E1,3.623483E1,5.404857E1,8.72598E0,3.3055577E0,2.2035637E0,1.7369908E2,5.8918005E2,1.3398944E2,1.1732594E1,8.340694E0,4.5607254E1,2.9609494E2,8.7491356E1,7.339649E0,4.188475E1,1.0387739E1,2.5847088E1],"tree_param":{"num_deleted":"0","num_feature":"53248","num_nodes":"31","size_leaf_vector":"1"}},{"base_weights":[-4.5529832E-4,1.5789631E-1,-2.96055E-1,-8.1353235E-1,2.3214272E-1,-3.893038E-1,1.7858495E-1,-9.319749E-1,4.302976E-1,1.613592E-1,5.968411E-1,-4.4254377E-1,1.7456515E-1,4.3215632E-1,-1.9844286E-1,-1.0934376E-2,7.0382206E-4,1.1828142E-2,-6.9507724E-3,-1.1824492E-3,2.4406093E-3,6.9717932E-3,-5.4461474E-4,-2.2149824E-3,-6.0368E-3,8.114823E-3,-2.482256E-3,7.5561325E-3,-9.705947E-4,-4.5796237E-3,7.8213485E-3],"categories":[],"categories_nodes":[],"categories_segments":[],"categories_sizes":[],"default_left":[0,0,0,0,0,0,0,0,0,0,0,0,0,0,0,0,0,0,0,0,0,0,0,0,0,0,0,0,0,0,0],"id":37,"left_children":[1,3,5,7,9,11,13,15,17,19,21,23,25,27,29,-1,-1,-1,-1,-1,-1,-1,-1,-1,-1,-1,-1,-1,-1,-1,-1],"loss_changes":[7.034057E1,7.077214E1,2.3331173E1,1.0918186E1,2.3269306E1,1.3317596E1,8.464296E0,1.0604103E1,7.21997E0,1.7729752E1,9.735313E0,1.4020905E1,1.0800181E1,9.1823015E0,9.623152E0,0E0,0E0,0E0,0E0,0E0,0E0,0E0,0E0,0E0,0E0,0E0,0E0,0E0,0E0,0E0,0E0],"parents":[2147483647,0,0,1,1,2,2,3,3,4,4,5,5,6,6,7,7,8,8,9,9,10,10,11,11,12,12,13,13,14,14],"right_children":[2,4,6,8,10,12,14,16,18,20,22,24,26,28,30,-1,-1,-1,-1,-1,-1,-1,-1,-1,-1,-1,-1,-1,-1,-1,-1],"split_conditions":[2E0,8E0,3E0,7.4583E-2,3E0,-1.1050523E-2,2.643966E-2,-1.1572274E-2,-2.9504288E-2,1.3E1,2.5E1,-2.6510281E-2,1.6549276E-2,4.073864E-2,4.0823918E-2,-1.0934376E-2,7.0382206E-4,1.1828142E-2,-6.9507724E-3,-1.1824492E-3,2.4406093E-3,6.9717932E-3,-5.4461474E-4,-2.2149824E-3,-6.0368E-3,8.114823E-3,-2.482256E-3,7.5561325E-3,-9.705947E-4,-4.5796237E-3,7.8213485E-3],"split_indices":[25,10,0,52873,0,52780,52717,52731,52689,10,9,52739,52855,52990,53057,0,0,0,0,0,0,0,0,0,0,0,0,0,0,0,0],"split_type":[0,0,0,0,0,0,0,0,0,0,0,0,0,0,0,0,0,0,0,0,0,0,0,0,0,0,0,0,0,0,0],"sum_hessian":[1.4994315E3,9.7662024E2,5.228113E2,6.818715E1,9.084331E2,4.3736578E2,8.544548E1,6.2675423E1,5.5117292E0,7.6281744E2,1.4561568E2,4.0008975E2,3.7276016E1,5.111429E1,3.433119E1,5.394867E1,8.726752E0,3.3104162E0,2.201313E0,1.7370131E2,5.8911615E2,1.26218605E2,1.939707E1,1.7045007E2,2.296397E2,1.4416158E1,2.2859858E1,3.1443357E1,1.9670933E1,2.7859365E1,6.4718227E0],"tree_param":{"num_deleted":"0","num_feature":"53248","num_nodes":"31","size_leaf_vector":"1"}},{"base_weights":[-4.4237703E-4,1.5636273E-1,-2.9317904E-1,-5.3782547E-1,2.585728E-1,-3.8556284E-1,1.7700751E-1,-7.306682E-1,-4.9847476E-2,1.9288479E-1,5.933646E-1,-4.3309653E-1,2.4012406E-1,5.2692983E-2,9.697237E-1,8.438151E-3,-8.057045E-3,8.580413E-3,-2.803844E-3,2.4257489E-3,-1.3905509E-3,7.0949444E-3,-1.2372658E-3,-1.9835508E-3,-5.6767673E-3,4.7928607E-3,-6.8010464E-3,2.6594691E-3,-6.540237E-3,1.3122676E-2,-2.774472E-3],"categories":[],"categories_nodes":[],"categories_segments":[],"categories_sizes":[],"default_left":[0,0,0,0,0,0,0,0,0,0,0,0,0,0,0,0,0,0,0,0,0,0,0,0,0,0,0,0,0,0,0],"id":38,"left_children":[1,3,5,7,9,11,13,15,17,19,21,23,25,27,29,-1,-1,-1,-1,-1,-1,-1,-1,-1,-1,-1,-1,-1,-1,-1,-1],"loss_changes":[6.895837E1,6.956219E1,2.289009E1,1.1711048E1,1.8519535E1,1.3222954E1,8.386856E0,1.1643337E1,8.132338E0,1.1870279E1,1.1767277E1,1.265696E1,7.4657564E0,1.1801638E1,5.6001167E0,0E0,0E0,0E0,0E0,0E0,0E0,0E0,0E0,0E0,0E0,0E0,0E0,0E0,0E0,0E0,0E0],"parents":[2147483647,0,0,1,1,2,2,3,3,4,4,5,5,6,6,7,7,8,8,9,9,10,10,11,11,12,12,13,13,14,14],"right_children":[2,4,6,8,10,12,14,16,18,20,22,24,26,28,30,-1,-1,-1,-1,-1,-1,-1,-1,-1,-1,-1,-1,-1,-1,-1,-1],"split_conditions":[2E0,1E1,3E0,1.3164981E-2,3E0,6.780807E-2,9.4854526E-2,-9.6242145E-2,-5.050711E-2,1.4890452E-2,2.8191268E-2,-4.059972E-3,1.1591745E-1,-6.852928E-2,7.6243095E-2,8.438151E-3,-8.057045E-3,8.580413E-3,-2.803844E-3,2.4257489E-3,-1.3905509E-3,7.0949444E-3,-1.2372658E-3,-1.9835508E-3,-5.6767673E-3,4.7928607E-3,-6.8010464E-3,2.6594691E-3,-6.540237E-3,1.3122676E-2,-2.774472E-3],"split_indices":[25,10,0,52579,0,53219,52893,52813,52738,52798,52693,52636,52789,52650,53177,0,0,0,0,0,0,0,0,0,0,0,0,0,0,0,0],"split_type":[0,0,0,0,0,0,0,0,0,0,0,0,0,0,0,0,0,0,0,0,0,0,0,0,0,0,0,0,0,0,0],"sum_hessian":[1.4989795E3,9.7635156E2,5.2262787E2,1.243593E2,8.5199225E2,4.3720673E2,8.542117E1,8.8452896E1,3.5906403E1,7.1447186E2,1.3752042E2,4.069148E2,3.0291945E1,7.53332E1,1.008797E1,3.2639885E0,8.51889E1,6.356581E0,2.9549822E1,6.220574E2,9.241449E1,1.1848725E2,1.9033167E1,1.4990207E2,2.570127E2,2.4699982E1,5.591962E0,5.8697945E1,1.6635258E1,7.9157453E0,2.1722248E0],"tree_param":{"num_deleted":"0","num_feature":"53248","num_nodes":"31","size_leaf_vector":"1"}},{"base_weights":[-4.2907483E-4,1.5486497E-1,-2.9036173E-1,-8.0185044E-1,2.2784248E-1,-3.8189626E-1,1.7535815E-1,-9.1967154E-1,4.3130764E-1,1.5830866E-1,5.8661574E-1,-8.4228694E-1,-3.13943E-1,5.209039E-1,-9.8138265E-2,-1.0802737E-2,7.4167206E-4,1.1773245E-2,-6.8790214E-3,-1.1697625E-3,2.3973947E-3,6.630411E-3,-2.5390403E-3,2.420449E-3,-1.0001633E-2,-2.0796468E-3,-6.6218213E-3,-3.7898673E-3,7.949038E-3,-4.4250647E-3,7.285147E-3],"categories":[],"categories_nodes":[],"categories_segments":[],"categories_sizes":[],"default_left":[0,0,0,0,0,0,0,0,0,0,0,0,0,0,0,0,0,0,0,0,0,0,0,0,0,0,0,0,0,0,0],"id":39,"left_children":[1,3,5,7,9,11,13,15,17,19,21,23,25,27,29,-1,-1,-1,-1,-1,-1,-1,-1,-1,-1,-1,-1,-1,-1,-1,-1],"loss_changes":[6.761818E1,6.846839E1,2.2456493E1,1.0744125E1,2.2476372E1,1.3207207E1,8.332552E0,1.0437199E1,7.116603E0,1.7184435E1,9.72805E0,9.909431E0,1.3904446E1,1.0059713E1,1.4578733E1,0E0,0E0,0E0,0E0,0E0,0E0,0E0,0E0,0E0,0E0,0E0,0E0,0E0,0E0,0E0,0E0],"parents":[2147483647,0,0,1,1,2,2,3,3,4,4,5,5,6,6,7,7,8,8,9,9,10,10,11,11,12,12,13,13,14,14],"right_children":[2,4,6,8,10,12,14,16,18,20,22,24,26,28,30,-1,-1,-1,-1,-1,-1,-1,-1,-1,-1,-1,-1,-1,-1,-1,-1],"split_conditions":[2E0,8E0,3E0,7.4583E-2,3E0,1.2E1,-2.3688044E-2,-1.1572274E-2,-2.9504288E-2,1.3E1,5.2661948E-2,-3.820846E-2,-1.6940197E-2,-1.3874974E-2,4.583267E-2,-1.0802737E-2,7.4167206E-4,1.1773245E-2,-6.8790214E-3,-1.1697625E-3,2.3973947E-3,6.630411E-3,-2.5390403E-3,2.420449E-3,-1.0001633E-2,-2.0796468E-3,-6.6218213E-3,-3.7898673E-3,7.949038E-3,-4.4250647E-3,7.285147E-3],"split_indices":[25,10,0,52873,0,13,52842,52731,52689,10,53176,53074,52765,52582,53036,0,0,0,0,0,0,0,0,0,0,0,0,0,0,0,0],"split_type":[0,0,0,0,0,0,0,0,0,0,0,0,0,0,0,0,0,0,0,0,0,0,0,0,0,0,0,0,0,0,0],"sum_hessian":[1.4984993E3,9.7605664E2,5.224426E2,6.801725E1,9.0803937E2,4.3703134E2,8.541128E1,6.2507442E1,5.509807E0,7.626675E2,1.4537192E2,5.382139E1,3.8320993E2,3.7297245E1,4.8114033E1,5.3785915E1,8.721527E0,3.3129797E0,2.1968277E0,1.7367139E2,5.889961E2,1.3365489E2,1.1717041E1,6.658202E0,4.7163185E1,2.958561E2,8.735385E1,8.486279E0,2.8810965E1,3.4542355E1,1.3571678E1],"tree_param":{"num_deleted":"0","num_feature":"53248","num_nodes":"31","size_leaf_vector":"1"}},{"base_weights":[-4.3511463E-4,1.5335904E-1,-2.875906E-1,-7.951075E-1,2.256159E-1,-3.782871E-1,1.737419E-1,-9.121911E-1,4.2776695E-1,1.567401E-1,5.812264E-1,-4.3108115E-1,1.8019971E-1,4.2487517E-1,-1.993262E-1,-1.0718133E-2,7.352837E-4,1.1681361E-2,-6.842529E-3,-1.1581522E-3,2.3737522E-3,7.1506547E-3,8.174823E-4,-8.931979E-3,-3.5319068E-3,8.109394E-3,-2.3923446E-3,-2.1616227E-3,6.8709836E-3,-8.478663E-3,1.9748292E-3],"categories":[],"categories_nodes":[],"categories_segments":[],"categories_sizes":[],"default_left":[0,0,0,0,0,0,0,0,0,0,0,0,0,0,0,0,0,0,0,0,0,0,0,0,0,0,0,0,0,0,0],"id":40,"left_children":[1,3,5,7,9,11,13,15,17,19,21,23,25,27,29,-1,-1,-1,-1,-1,-1,-1,-1,-1,-1,-1,-1,-1,-1,-1,-1],"loss_changes":[6.6303215E1,6.718816E1,2.2033596E1,1.0572487E1,2.2062546E1,1.3066467E1,8.291035E0,1.0272736E1,7.020269E0,1.6846478E1,9.643562E0,1.3839668E1,1.0600554E1,9.107587E0,9.534919E0,0E0,0E0,0E0,0E0,0E0,0E0,0E0,0E0,0E0,0E0,0E0,0E0,0E0,0E0,0E0,0E0],"parents":[2147483647,0,0,1,1,2,2,3,3,4,4,5,5,6,6,7,7,8,8,9,9,10,10,11,11,12,12,13,13,14,14],"right_children":[2,4,6,8,10,12,14,16,18,20,22,24,26,28,30,-1,-1,-1,-1,-1,-1,-1,-1,-1,-1,-1,-1,-1,-1,-1,-1],"split_conditions":[2E0,8E0,3E0,7.4583E-2,3E0,-1.1050523E-2,2.643966E-2,-1.1572274E-2,-2.9504288E-2,1.3E1,-4.0332456E-3,9.230769E-1,1.6549276E-2,4.9405538E-2,-4.157513E-2,-1.0718133E-2,7.352837E-4,1.1681361E-2,-6.842529E-3,-1.1581522E-3,2.3737522E-3,7.1506547E-3,8.174823E-4,-8.931979E-3,-3.5319068E-3,8.109394E-3,-2.3923446E-3,-2.1616227E-3,6.8709836E-3,-8.478663E-3,1.9748292E-3],"split_indices":[25,10,0,52873,0,52780,52717,52731,52689,10,52773,14,52855,52789,52795,0,0,0,0,0,0,0,0,0,0,0,0,0,0,0,0],"split_type":[0,0,0,0,0,0,0,0,0,0,0,0,0,0,0,0,0,0,0,0,0,0,0,0,0,0,0,0,0,0,0],"sum_hessian":[1.4980331E3,9.757784E2,5.2225476E2,6.7914986E1,9.078634E2,4.3685684E2,8.539789E1,6.2403088E1,5.511894E0,7.626024E2,1.4526097E2,3.996034E2,3.7253468E1,5.107569E1,3.4322193E1,5.3680744E1,8.722345E0,3.3174248E0,2.1944695E0,1.7367332E2,5.889291E2,1.1389442E2,3.1366549E1,5.5188766E1,3.444146E2,1.4414869E1,2.2838598E1,1.4793428E1,3.628226E1,1.24769535E1,2.184524E1],"tree_param":{"num_deleted":"0","num_feature":"53248","num_nodes":"31","size_leaf_vector":"1"}},{"base_weights":[-4.3509871E-4,1.5187645E-1,-2.848431E-1,-7.884488E-1,2.2342025E-1,-3.746676E-1,1.7201376E-1,-9.048019E-1,4.2426822E-1,1.5518734E-1,5.759437E-1,-4.2177373E-1,2.4434362E-1,-5.378748E-1,3.0258295E-1,-1.0634613E-2,7.2895235E-4,1.1590783E-2,-6.8063163E-3,-1.1466581E-3,2.350347E-3,6.7580566E-3,-7.034734E-4,1.077412E-3,-4.795442E-3,-7.174897E-3,4.7087804E-3,8.648536E-3,-9.278977E-3,-1.4809798E-3,5.532074E-3],"categories":[],"categories_nodes":[],"categories_segments":[],"categories_sizes":[],"default_left":[0,0,0,0,0,0,0,0,0,0,0,0,0,0,0,0,0,0,0,0,0,0,0,0,0,0,0,0,0,0,0],"id":41,"left_children":[1,3,5,7,9,11,13,15,17,19,21,23,25,27,29,-1,-1,-1,-1,-1,-1,-1,-1,-1,-1,-1,-1,-1,-1,-1,-1],"loss_changes":[6.5015594E1,6.5934586E1,2.1602604E1,1.040382E1,2.1662094E1,1.2949795E1,8.272729E0,1.0111538E1,6.92556E0,1.6515196E1,9.596577E0,1.2592743E1,7.408304E0,8.824009E0,8.573217E0,0E0,0E0,0E0,0E0,0E0,0E0,0E0,0E0,0E0,0E0,0E0,0E0,0E0,0E0,0E0,0E0],"parents":[2147483647,0,0,1,1,2,2,3,3,4,4,5,5,6,6,7,7,8,8,9,9,10,10,11,11,12,12,13,13,14,14],"right_children":[2,4,6,8,10,12,14,16,18,20,22,24,26,28,30,-1,-1,-1,-1,-1,-1,-1,-1,-1,-1,-1,-1,-1,-1,-1,-1],"split_conditions":[2E0,8E0,3E0,7.4583E-2,3E0,6.780807E-2,-2.5909084E-3,-1.1572274E-2,-2.9504288E-2,1.3E1,2.5E1,-7.586895E-2,1.0505289E-2,2.259634E-2,-3.8905382E-2,-1.0634613E-2,7.2895235E-4,1.1590783E-2,-6.8063163E-3,-1.1466581E-3,2.350347E-3,6.7580566E-3,-7.034734E-4,1.077412E-3,-4.795442E-3,-7.174897E-3,4.7087804E-3,8.648536E-3,-9.278977E-3,-1.4809798E-3,5.532074E-3],"split_indices":[25,10,0,52873,0,53219,52828,52731,52689,10,9,53159,52718,52800,52845,0,0,0,0,0,0,0,0,0,0,0,0,0,0,0,0],"split_type":[0,0,0,0,0,0,0,0,0,0,0,0,0,0,0,0,0,0,0,0,0,0,0,0,0,0,0,0,0,0,0],"sum_hessian":[1.4975646E3,9.754959E2,5.2206866E2,6.781048E1,9.076854E2,4.3669662E2,8.5372025E1,6.2296783E1,5.5136933E0,7.6253625E2,1.4514919E2,4.0640884E2,3.028779E1,1.241704E1,7.295499E1,5.357363E1,8.723154E0,3.321617E0,2.1920764E0,1.7367513E2,5.8886115E2,1.2579773E2,1.9351465E1,3.967997E1,3.6672888E2,5.0698066E0,2.5217985E1,2.248323E0,1.0168716E1,2.6148512E1,4.6806473E1],"tree_param":{"num_deleted":"0","num_feature":"53248","num_nodes":"31","size_leaf_vector":"1"}},{"base_weights":[-4.3117523E-4,1.5040387E-1,-2.8211036E-1,-5.2095413E-1,2.4901399E-1,-3.7109572E-1,1.7037979E-1,-7.118396E-1,-3.9229106E-2,1.8577331E-1,5.722922E-1,-8.276922E-1,-3.038305E-1,-2.9032961E-3,7.1439886E-1,8.479106E-3,-7.865983E-3,-7.399845E-3,2.5382915E-3,2.9229883E-3,2.926765E-4,6.880578E-3,-1.384201E-3,4.7364184E-3,-9.53493E-3,3.8179404E-3,-3.5498433E-3,-4.2275907E-3,3.2117914E-3,9.845662E-3,-5.7549626E-3],"categories":[],"categories_nodes":[],"categories_segments":[],"categories_sizes":[],"default_left":[0,0,0,0,0,0,0,0,0,0,0,0,0,0,0,0,0,0,0,0,0,0,0,0,0,0,0,0,0,0,0],"id":42,"left_children":[1,3,5,7,9,11,13,15,17,19,21,23,25,27,29,-1,-1,-1,-1,-1,-1,-1,-1,-1,-1,-1,-1,-1,-1,-1,-1],"loss_changes":[6.3746952E1,6.48282E1,2.1188255E1,1.1418015E1,1.7198967E1,1.2962372E1,8.261799E0,1.1442844E1,7.997882E0,1.1887384E1,1.1596901E1,9.759056E0,1.3680046E1,9.361081E0,8.253328E0,0E0,0E0,0E0,0E0,0E0,0E0,0E0,0E0,0E0,0E0,0E0,0E0,0E0,0E0,0E0,0E0],"parents":[2147483647,0,0,1,1,2,2,3,3,4,4,5,5,6,6,7,7,8,8,9,9,10,10,11,11,12,12,13,13,14,14],"right_children":[2,4,6,8,10,12,14,16,18,20,22,24,26,28,30,-1,-1,-1,-1,-1,-1,-1,-1,-1,-1,-1,-1,-1,-1,-1,-1],"split_conditions":[2E0,1E1,3E0,1.3164981E-2,3E0,1.2E1,9.5652175E-1,-9.6242145E-2,-5.402261E-2,5.5140047E-3,2.8191268E-2,-4.739835E-2,-6.9216415E-2,-7.464738E-2,1.3027179E-2,8.479106E-3,-7.865983E-3,-7.399845E-3,2.5382915E-3,2.9229883E-3,2.926765E-4,6.880578E-3,-1.384201E-3,4.7364184E-3,-9.53493E-3,3.8179404E-3,-3.5498433E-3,-4.2275907E-3,3.2117914E-3,9.845662E-3,-5.7549626E-3],"split_indices":[25,10,0,52579,0,13,11,52813,52905,52810,52693,52839,52744,52646,53085,0,0,0,0,0,0,0,0,0,0,0,0,0,0,0,0],"split_type":[0,0,0,0,0,0,0,0,0,0,0,0,0,0,0,0,0,0,0,0,0,0,0,0,0,0,0,0,0,0,0],"sum_hessian":[1.4970759E3,9.7520966E2,5.2186633E2,1.2394284E2,8.5126685E2,4.3651367E2,8.5352646E1,8.8106255E1,3.5836586E1,7.1422015E2,1.3704665E2,5.3681232E1,3.8283243E2,6.572564E1,1.962701E1,3.2590709E0,8.484718E1,9.993643E0,2.5842945E1,4.238122E2,2.90408E2,1.1801248E2,1.903416E1,4.296285E0,4.938495E1,2.5770826E1,3.570616E2,2.8567575E1,3.7158066E1,1.6585732E1,3.0412786E0],"tree_param":{"num_deleted":"0","num_feature":"53248","num_nodes":"31","size_leaf_vector":"1"}},{"base_weights":[-4.2227647E-4,1.4895454E-1,-2.7939266E-1,-7.7731836E-1,2.1927899E-1,-3.6754644E-1,1.6874242E-1,-8.6080337E-1,8.200977E-1,1.5224534E-1,5.6612575E-1,-4.1984162E-1,1.8497725E-1,4.5758557E-2,9.5417804E-1,-9.901797E-3,3.6595352E-3,1.129339E-2,-0E0,-1.1358932E-3,2.3091058E-3,6.4210817E-3,-2.663884E-3,-2.0110074E-3,-5.7956073E-3,-2.659846E-3,7.643939E-3,2.5674321E-3,-6.5240297E-3,-2.8675797E-3,1.2974642E-2],"categories":[],"categories_nodes":[],"categories_segments":[],"categories_sizes":[],"default_left":[0,0,0,0,0,0,0,0,0,0,0,0,0,0,0,0,0,0,0,0,0,0,0,0,0,0,0,0,0,0,0],"id":43,"left_children":[1,3,5,7,9,11,13,15,17,19,21,23,25,27,29,-1,-1,-1,-1,-1,-1,-1,-1,-1,-1,-1,-1,-1,-1,-1,-1],"loss_changes":[6.250309E1,6.3802402E1,2.078098E1,1.0282066E1,2.0928238E1,1.2791027E1,8.222933E0,1.1158344E1,9.4099617E-1,1.602527E1,9.554581E0,1.37430725E1,1.0475612E1,1.1519913E1,5.588359E0,0E0,0E0,0E0,0E0,0E0,0E0,0E0,0E0,0E0,0E0,0E0,0E0,0E0,0E0,0E0,0E0],"parents":[2147483647,0,0,1,1,2,2,3,3,4,4,5,5,6,6,7,7,8,8,9,9,10,10,11,11,12,12,13,13,14,14],"right_children":[2,4,6,8,10,12,14,16,18,20,22,24,26,28,30,-1,-1,-1,-1,-1,-1,-1,-1,-1,-1,-1,-1,-1,-1,-1,-1],"split_conditions":[2E0,8E0,3E0,2.8195683E-2,3E0,-1.1050523E-2,9.4854526E-2,8.269794E-2,-7.433999E-3,1.3E1,5.2661948E-2,-2.6510281E-2,2.8446011E-2,-6.852928E-2,-9.672297E-2,-9.901797E-3,3.6595352E-3,1.129339E-2,-0E0,-1.1358932E-3,2.3091058E-3,6.4210817E-3,-2.663884E-3,-2.0110074E-3,-5.7956073E-3,-2.659846E-3,7.643939E-3,2.5674321E-3,-6.5240297E-3,-2.8675797E-3,1.2974642E-2],"split_indices":[25,10,0,52838,0,52780,52893,27917,52589,10,53176,52739,53152,52650,52770,0,0,0,0,0,0,0,0,0,0,0,0,0,0,0,0],"split_type":[0,0,0,0,0,0,0,0,0,0,0,0,0,0,0,0,0,0,0,0,0,0,0,0,0,0,0,0,0,0,0],"sum_hessian":[1.4965817E3,9.749031E2,5.2167865E2,6.762915E1,9.072739E2,4.3633832E2,8.5340324E1,6.498705E1,2.6420944E0,7.6237885E2,1.4489508E2,3.9910507E2,3.723324E1,7.5269325E1,1.0070999E1,5.9122643E1,5.8644104E0,1.4220519E0,1.2200425E0,1.7364397E2,5.8873486E2,1.3320117E2,1.16939E1,1.7012617E2,2.2897891E2,2.1296743E1,1.5936496E1,5.863994E1,1.662939E1,2.1726923E0,7.898307E0],"tree_param":{"num_deleted":"0","num_feature":"53248","num_nodes":"31","size_leaf_vector":"1"}},{"base_weights":[-4.0452357E-4,1.4752497E-1,-2.7668917E-1,-7.705613E-1,2.1713804E-1,-3.640275E-1,1.671723E-1,-8.8637865E-1,4.3030456E-1,1.5073763E-1,5.609442E-1,-8.174971E-1,-2.9731628E-1,4.285749E-1,-1.8801175E-1,-1.0188743E-2,2.4604856E-3,1.1572663E-2,-6.69321E-3,-1.1246207E-3,2.286348E-3,6.939567E-3,6.5786316E-4,2.5763505E-3,-9.748925E-3,-1.922539E-3,-6.4308527E-3,-6.408745E-3,6.3424245E-3,7.00119E-3,-5.671231E-3],"categories":[],"categories_nodes":[],"categories_segments":[],"categories_sizes":[],"default_left":[0,0,0,0,0,0,0,0,0,0,0,0,0,0,0,0,0,0,0,0,0,0,0,0,0,0,0,0,0,0,0],"id":44,"left_children":[1,3,5,7,9,11,13,15,17,19,21,23,25,27,29,-1,-1,-1,-1,-1,-1,-1,-1,-1,-1,-1,-1,-1,-1,-1,-1],"loss_changes":[6.1282375E1,6.257984E1,2.0385445E1,1.0217804E1,2.0544052E1,1.2763985E1,8.206646E0,9.983921E0,6.8106685E0,1.5710209E1,9.4897995E0,9.769058E0,1.3683842E1,1.1746769E1,1.3273083E1,0E0,0E0,0E0,0E0,0E0,0E0,0E0,0E0,0E0,0E0,0E0,0E0,0E0,0E0,0E0,0E0],"parents":[2147483647,0,0,1,1,2,2,3,3,4,4,5,5,6,6,7,7,8,8,9,9,10,10,11,11,12,12,13,13,14,14],"right_children":[2,4,6,8,10,12,14,16,18,20,22,24,26,28,30,-1,-1,-1,-1,-1,-1,-1,-1,-1,-1,-1,-1,-1,-1,-1,-1],"split_conditions":[2E0,8E0,3E0,7.4583E-2,3E0,1.2E1,-4.3172063E-3,7.042723E-2,-2.9504288E-2,1.3E1,-4.0332456E-3,-3.820846E-2,-1.6940197E-2,-6.0063023E-2,4.2423517E-2,-1.0188743E-2,2.4604856E-3,1.1572663E-2,-6.69321E-3,-1.1246207E-3,2.286348E-3,6.939567E-3,6.5786316E-4,2.5763505E-3,-9.748925E-3,-1.922539E-3,-6.4308527E-3,-6.408745E-3,6.3424245E-3,7.00119E-3,-5.671231E-3],"split_indices":[25,10,0,52873,0,13,52899,52848,52689,10,52773,53074,52765,52685,52800,0,0,0,0,0,0,0,0,0,0,0,0,0,0,0,0],"split_type":[0,0,0,0,0,0,0,0,0,0,0,0,0,0,0,0,0,0,0,0,0,0,0,0,0,0,0,0,0,0,0],"sum_hessian":[1.4961085E3,9.7461383E2,5.2149475E2,6.752504E1,9.0708875E2,4.3616577E2,8.5328964E1,6.201966E1,5.505379E0,7.623099E2,1.447789E2,5.3579388E1,3.8258636E2,4.9137295E1,3.6191666E1,5.5737057E1,6.2826014E0,3.3217106E0,2.1836686E0,1.7364552E2,5.8866437E2,1.1348865E2,3.1290247E1,6.639035E0,4.6940353E1,2.9543982E2,8.7146545E1,7.3351226E0,4.1802174E1,1.036831E1,2.5823355E1],"tree_param":{"num_deleted":"0",